=== Run information ===

Scheme:       weka.classifiers.meta.RandomSubSpace -P 0.5 -S 1 -num-slots 1 -I 10 -W weka.classifiers.trees.REPTree -- -M 2 -V 0.001 -N 3 -S 1 -L -1 -I 0.0
Relation:     cleaned_demone
Instances:    6268
Attributes:   5
              ID
              TRUNCATED
              possibly_sensitive
              retweeted_status
              reaction
Test mode:    evaluate on training data

=== Classifier model (full training set) ===

All the base classifiers: 

FilteredClassifier using weka.classifiers.trees.REPTree -M 2 -V 0.001 -N 3 -S -1597995114 -L -1 -I 0.0 on data filtered through weka.filters.unsupervised.attribute.Remove -V -R 1,4,5

Filtered Header
@relation 'cleaned_demone-weka.filters.unsupervised.attribute.Remove-V-R1,4,5'

@attribute ID numeric
@attribute retweeted_status numeric
@attribute reaction numeric

@data


Classifier Model

REPTree
============

ID < 5990.5
|   ID < 1365.5
|   |   ID < 19.5 : -0.79 (13/0.13) [6/0.59]
|   |   ID >= 19.5
|   |   |   ID < 43.5 : 0.25 (14/0.54) [10/1.05]
|   |   |   ID >= 43.5
|   |   |   |   ID < 1340.5
|   |   |   |   |   ID < 1317.5
|   |   |   |   |   |   ID < 1291.5
|   |   |   |   |   |   |   ID < 1268.5
|   |   |   |   |   |   |   |   ID < 1239.5
|   |   |   |   |   |   |   |   |   ID < 1219.5
|   |   |   |   |   |   |   |   |   |   ID < 1183
|   |   |   |   |   |   |   |   |   |   |   ID < 1165.5
|   |   |   |   |   |   |   |   |   |   |   |   ID < 1149.5
|   |   |   |   |   |   |   |   |   |   |   |   |   ID < 595.5
|   |   |   |   |   |   |   |   |   |   |   |   |   |   ID < 568.5
|   |   |   |   |   |   |   |   |   |   |   |   |   |   |   retweeted_status < 0.5
|   |   |   |   |   |   |   |   |   |   |   |   |   |   |   |   ID < 543 : -0.28 (66/0.74) [35/0.68]
|   |   |   |   |   |   |   |   |   |   |   |   |   |   |   |   ID >= 543 : -0.89 (5/0) [4/0.25]
|   |   |   |   |   |   |   |   |   |   |   |   |   |   |   retweeted_status >= 0.5
|   |   |   |   |   |   |   |   |   |   |   |   |   |   |   |   ID < 68
|   |   |   |   |   |   |   |   |   |   |   |   |   |   |   |   |   ID < 51.5 : 0.33 (4/0.5) [2/1]
|   |   |   |   |   |   |   |   |   |   |   |   |   |   |   |   |   ID >= 51.5 : -0.9 (8/0.11) [2/0.02]
|   |   |   |   |   |   |   |   |   |   |   |   |   |   |   |   ID >= 68
|   |   |   |   |   |   |   |   |   |   |   |   |   |   |   |   |   ID < 100.5
|   |   |   |   |   |   |   |   |   |   |   |   |   |   |   |   |   |   ID < 80.5 : -0.1 (6/0.47) [4/1.19]
|   |   |   |   |   |   |   |   |   |   |   |   |   |   |   |   |   |   ID >= 80.5 : 0.62 (8/0) [5/1.4]
|   |   |   |   |   |   |   |   |   |   |   |   |   |   |   |   |   ID >= 100.5
|   |   |   |   |   |   |   |   |   |   |   |   |   |   |   |   |   |   ID < 118 : -1 (7/0) [5/0]
|   |   |   |   |   |   |   |   |   |   |   |   |   |   |   |   |   |   ID >= 118
|   |   |   |   |   |   |   |   |   |   |   |   |   |   |   |   |   |   |   ID < 144 : 0.14 (12/0.72) [9/0.96]
|   |   |   |   |   |   |   |   |   |   |   |   |   |   |   |   |   |   |   ID >= 144
|   |   |   |   |   |   |   |   |   |   |   |   |   |   |   |   |   |   |   |   ID < 173.5
|   |   |   |   |   |   |   |   |   |   |   |   |   |   |   |   |   |   |   |   |   ID < 153.5 : 0.6 (2/0) [3/1]
|   |   |   |   |   |   |   |   |   |   |   |   |   |   |   |   |   |   |   |   |   ID >= 153.5
|   |   |   |   |   |   |   |   |   |   |   |   |   |   |   |   |   |   |   |   |   |   ID < 169.5 : -1 (11/0) [3/0]
|   |   |   |   |   |   |   |   |   |   |   |   |   |   |   |   |   |   |   |   |   |   ID >= 169.5 : 0 (2/0.25) [1/2.25]
|   |   |   |   |   |   |   |   |   |   |   |   |   |   |   |   |   |   |   |   ID >= 173.5
|   |   |   |   |   |   |   |   |   |   |   |   |   |   |   |   |   |   |   |   |   ID < 300
|   |   |   |   |   |   |   |   |   |   |   |   |   |   |   |   |   |   |   |   |   |   ID < 225.5
|   |   |   |   |   |   |   |   |   |   |   |   |   |   |   |   |   |   |   |   |   |   |   ID < 202 : 0.28 (17/0.77) [8/0.5]
|   |   |   |   |   |   |   |   |   |   |   |   |   |   |   |   |   |   |   |   |   |   |   ID >= 202
|   |   |   |   |   |   |   |   |   |   |   |   |   |   |   |   |   |   |   |   |   |   |   |   ID < 219.5 : -0.88 (11/0.08) [5/0.17]
|   |   |   |   |   |   |   |   |   |   |   |   |   |   |   |   |   |   |   |   |   |   |   |   ID >= 219.5 : 0 (3/0.67) [2/1]
|   |   |   |   |   |   |   |   |   |   |   |   |   |   |   |   |   |   |   |   |   |   ID >= 225.5
|   |   |   |   |   |   |   |   |   |   |   |   |   |   |   |   |   |   |   |   |   |   |   ID < 251.5
|   |   |   |   |   |   |   |   |   |   |   |   |   |   |   |   |   |   |   |   |   |   |   |   ID < 238.5
|   |   |   |   |   |   |   |   |   |   |   |   |   |   |   |   |   |   |   |   |   |   |   |   |   ID < 228.5 : 0.67 (2/0) [1/1]
|   |   |   |   |   |   |   |   |   |   |   |   |   |   |   |   |   |   |   |   |   |   |   |   |   ID >= 228.5 : 0.14 (3/0.22) [4/1.11]
|   |   |   |   |   |   |   |   |   |   |   |   |   |   |   |   |   |   |   |   |   |   |   |   ID >= 238.5 : 0.5 (7/0) [5/2]
|   |   |   |   |   |   |   |   |   |   |   |   |   |   |   |   |   |   |   |   |   |   |   ID >= 251.5
|   |   |   |   |   |   |   |   |   |   |   |   |   |   |   |   |   |   |   |   |   |   |   |   ID < 264.5 : -0.9 (4/0) [6/0.17]
|   |   |   |   |   |   |   |   |   |   |   |   |   |   |   |   |   |   |   |   |   |   |   |   ID >= 264.5
|   |   |   |   |   |   |   |   |   |   |   |   |   |   |   |   |   |   |   |   |   |   |   |   |   ID < 284.5 : -0.13 (9/0.77) [6/0.96]
|   |   |   |   |   |   |   |   |   |   |   |   |   |   |   |   |   |   |   |   |   |   |   |   |   ID >= 284.5 : 0.69 (10/0.16) [3/1.11]
|   |   |   |   |   |   |   |   |   |   |   |   |   |   |   |   |   |   |   |   |   ID >= 300
|   |   |   |   |   |   |   |   |   |   |   |   |   |   |   |   |   |   |   |   |   |   ID < 317.5 : -0.93 (8/0) [6/0.17]
|   |   |   |   |   |   |   |   |   |   |   |   |   |   |   |   |   |   |   |   |   |   ID >= 317.5
|   |   |   |   |   |   |   |   |   |   |   |   |   |   |   |   |   |   |   |   |   |   |   ID < 348.5
|   |   |   |   |   |   |   |   |   |   |   |   |   |   |   |   |   |   |   |   |   |   |   |   ID < 333 : 0 (6/1) [2/0]
|   |   |   |   |   |   |   |   |   |   |   |   |   |   |   |   |   |   |   |   |   |   |   |   ID >= 333
|   |   |   |   |   |   |   |   |   |   |   |   |   |   |   |   |   |   |   |   |   |   |   |   |   ID < 342 : 0.83 (3/0) [3/0.33]
|   |   |   |   |   |   |   |   |   |   |   |   |   |   |   |   |   |   |   |   |   |   |   |   |   ID >= 342 : 0.17 (5/0.64) [1/1.96]
|   |   |   |   |   |   |   |   |   |   |   |   |   |   |   |   |   |   |   |   |   |   |   ID >= 348.5
|   |   |   |   |   |   |   |   |   |   |   |   |   |   |   |   |   |   |   |   |   |   |   |   ID < 366.5 : -0.85 (11/0.15) [2/0.03]
|   |   |   |   |   |   |   |   |   |   |   |   |   |   |   |   |   |   |   |   |   |   |   |   ID >= 366.5
|   |   |   |   |   |   |   |   |   |   |   |   |   |   |   |   |   |   |   |   |   |   |   |   |   ID < 546
|   |   |   |   |   |   |   |   |   |   |   |   |   |   |   |   |   |   |   |   |   |   |   |   |   |   ID < 529.5
|   |   |   |   |   |   |   |   |   |   |   |   |   |   |   |   |   |   |   |   |   |   |   |   |   |   |   ID < 496.5
|   |   |   |   |   |   |   |   |   |   |   |   |   |   |   |   |   |   |   |   |   |   |   |   |   |   |   |   ID < 472.5
|   |   |   |   |   |   |   |   |   |   |   |   |   |   |   |   |   |   |   |   |   |   |   |   |   |   |   |   |   ID < 448 : 0.08 (40/0.8) [21/0.8]
|   |   |   |   |   |   |   |   |   |   |   |   |   |   |   |   |   |   |   |   |   |   |   |   |   |   |   |   |   ID >= 448
|   |   |   |   |   |   |   |   |   |   |   |   |   |   |   |   |   |   |   |   |   |   |   |   |   |   |   |   |   |   ID < 464 : -0.94 (9/0) [7/0.14]
|   |   |   |   |   |   |   |   |   |   |   |   |   |   |   |   |   |   |   |   |   |   |   |   |   |   |   |   |   |   ID >= 464 : -0.11 (4/0.5) [5/1]
|   |   |   |   |   |   |   |   |   |   |   |   |   |   |   |   |   |   |   |   |   |   |   |   |   |   |   |   ID >= 472.5
|   |   |   |   |   |   |   |   |   |   |   |   |   |   |   |   |   |   |   |   |   |   |   |   |   |   |   |   |   ID < 490.5 : 0.22 (9/0.67) [9/0.81]
|   |   |   |   |   |   |   |   |   |   |   |   |   |   |   |   |   |   |   |   |   |   |   |   |   |   |   |   |   ID >= 490.5
|   |   |   |   |   |   |   |   |   |   |   |   |   |   |   |   |   |   |   |   |   |   |   |   |   |   |   |   |   |   ID < 493.5 : 1 (2/0) [1/0]
|   |   |   |   |   |   |   |   |   |   |   |   |   |   |   |   |   |   |   |   |   |   |   |   |   |   |   |   |   |   ID >= 493.5 : 0.33 (2/0.25) [1/0.25]
|   |   |   |   |   |   |   |   |   |   |   |   |   |   |   |   |   |   |   |   |   |   |   |   |   |   |   ID >= 496.5
|   |   |   |   |   |   |   |   |   |   |   |   |   |   |   |   |   |   |   |   |   |   |   |   |   |   |   |   ID < 513 : -0.94 (11/0.08) [5/0.01]
|   |   |   |   |   |   |   |   |   |   |   |   |   |   |   |   |   |   |   |   |   |   |   |   |   |   |   |   ID >= 513 : -0.07 (7/0.69) [7/0.96]
|   |   |   |   |   |   |   |   |   |   |   |   |   |   |   |   |   |   |   |   |   |   |   |   |   |   ID >= 529.5 : 0.7 (7/0.2) [3/0.22]
|   |   |   |   |   |   |   |   |   |   |   |   |   |   |   |   |   |   |   |   |   |   |   |   |   ID >= 546
|   |   |   |   |   |   |   |   |   |   |   |   |   |   |   |   |   |   |   |   |   |   |   |   |   |   ID < 563 : -0.9 (7/0.12) [3/0.02]
|   |   |   |   |   |   |   |   |   |   |   |   |   |   |   |   |   |   |   |   |   |   |   |   |   |   ID >= 563 : 0 (4/1) [0/0]
|   |   |   |   |   |   |   |   |   |   |   |   |   |   ID >= 568.5 : 0.3 (15/0.65) [12/0.72]
|   |   |   |   |   |   |   |   |   |   |   |   |   ID >= 595.5
|   |   |   |   |   |   |   |   |   |   |   |   |   |   ID < 611.5 : -0.94 (10/0) [6/0.17]
|   |   |   |   |   |   |   |   |   |   |   |   |   |   ID >= 611.5
|   |   |   |   |   |   |   |   |   |   |   |   |   |   |   ID < 644
|   |   |   |   |   |   |   |   |   |   |   |   |   |   |   |   ID < 615.5 : 0.25 (3/0.22) [1/2.78]
|   |   |   |   |   |   |   |   |   |   |   |   |   |   |   |   ID >= 615.5
|   |   |   |   |   |   |   |   |   |   |   |   |   |   |   |   |   ID < 618 : -1 (2/0) [0/0]
|   |   |   |   |   |   |   |   |   |   |   |   |   |   |   |   |   ID >= 618
|   |   |   |   |   |   |   |   |   |   |   |   |   |   |   |   |   |   ID < 628 : 0.1 (6/0.67) [4/0.75]
|   |   |   |   |   |   |   |   |   |   |   |   |   |   |   |   |   |   ID >= 628
|   |   |   |   |   |   |   |   |   |   |   |   |   |   |   |   |   |   |   ID < 633.5 : 0.83 (4/0.19) [2/0.06]
|   |   |   |   |   |   |   |   |   |   |   |   |   |   |   |   |   |   |   ID >= 633.5
|   |   |   |   |   |   |   |   |   |   |   |   |   |   |   |   |   |   |   |   ID < 638 : -0.25 (2/0.25) [2/1.25]
|   |   |   |   |   |   |   |   |   |   |   |   |   |   |   |   |   |   |   |   ID >= 638 : 0.67 (3/0.22) [3/0.44]
|   |   |   |   |   |   |   |   |   |   |   |   |   |   |   ID >= 644
|   |   |   |   |   |   |   |   |   |   |   |   |   |   |   |   ID < 660.5 : -0.94 (11/0) [6/0.17]
|   |   |   |   |   |   |   |   |   |   |   |   |   |   |   |   ID >= 660.5
|   |   |   |   |   |   |   |   |   |   |   |   |   |   |   |   |   ID < 669.5 : 0.11 (6/0.58) [3/1.58]
|   |   |   |   |   |   |   |   |   |   |   |   |   |   |   |   |   ID >= 669.5
|   |   |   |   |   |   |   |   |   |   |   |   |   |   |   |   |   |   ID < 820
|   |   |   |   |   |   |   |   |   |   |   |   |   |   |   |   |   |   |   ID < 741
|   |   |   |   |   |   |   |   |   |   |   |   |   |   |   |   |   |   |   |   ID < 709.5
|   |   |   |   |   |   |   |   |   |   |   |   |   |   |   |   |   |   |   |   |   ID < 692.5 : 0.3 (12/0.67) [11/0.82]
|   |   |   |   |   |   |   |   |   |   |   |   |   |   |   |   |   |   |   |   |   ID >= 692.5 : -0.94 (12/0) [5/0.2]
|   |   |   |   |   |   |   |   |   |   |   |   |   |   |   |   |   |   |   |   ID >= 709.5 : 0.26 (22/0.65) [9/0.84]
|   |   |   |   |   |   |   |   |   |   |   |   |   |   |   |   |   |   |   ID >= 741
|   |   |   |   |   |   |   |   |   |   |   |   |   |   |   |   |   |   |   |   retweeted_status < 0.5
|   |   |   |   |   |   |   |   |   |   |   |   |   |   |   |   |   |   |   |   |   ID < 756 : -0.67 (2/0) [1/1]
|   |   |   |   |   |   |   |   |   |   |   |   |   |   |   |   |   |   |   |   |   ID >= 756
|   |   |   |   |   |   |   |   |   |   |   |   |   |   |   |   |   |   |   |   |   |   ID < 766.5 : 0.75 (3/0.22) [1/0.11]
|   |   |   |   |   |   |   |   |   |   |   |   |   |   |   |   |   |   |   |   |   |   ID >= 766.5 : -0.55 (9/0.69) [2/0.31]
|   |   |   |   |   |   |   |   |   |   |   |   |   |   |   |   |   |   |   |   retweeted_status >= 0.5 : -0.82 (39/0.2) [22/0.24]
|   |   |   |   |   |   |   |   |   |   |   |   |   |   |   |   |   |   ID >= 820
|   |   |   |   |   |   |   |   |   |   |   |   |   |   |   |   |   |   |   ID < 853.5 : 0.21 (24/0.81) [9/0.47]
|   |   |   |   |   |   |   |   |   |   |   |   |   |   |   |   |   |   |   ID >= 853.5
|   |   |   |   |   |   |   |   |   |   |   |   |   |   |   |   |   |   |   |   ID < 870 : -0.94 (10/0) [6/0.17]
|   |   |   |   |   |   |   |   |   |   |   |   |   |   |   |   |   |   |   |   ID >= 870
|   |   |   |   |   |   |   |   |   |   |   |   |   |   |   |   |   |   |   |   |   ID < 893.5 : 0.25 (20/0.71) [4/0.59]
|   |   |   |   |   |   |   |   |   |   |   |   |   |   |   |   |   |   |   |   |   ID >= 893.5
|   |   |   |   |   |   |   |   |   |   |   |   |   |   |   |   |   |   |   |   |   |   ID < 932.5
|   |   |   |   |   |   |   |   |   |   |   |   |   |   |   |   |   |   |   |   |   |   |   ID < 915.5
|   |   |   |   |   |   |   |   |   |   |   |   |   |   |   |   |   |   |   |   |   |   |   |   ID < 913.5
|   |   |   |   |   |   |   |   |   |   |   |   |   |   |   |   |   |   |   |   |   |   |   |   |   ID < 902.5
|   |   |   |   |   |   |   |   |   |   |   |   |   |   |   |   |   |   |   |   |   |   |   |   |   |   ID < 897 : -0.33 (2/0) [1/4]
|   |   |   |   |   |   |   |   |   |   |   |   |   |   |   |   |   |   |   |   |   |   |   |   |   |   ID >= 897 : 0.67 (2/0.25) [4/0.25]
|   |   |   |   |   |   |   |   |   |   |   |   |   |   |   |   |   |   |   |   |   |   |   |   |   ID >= 902.5
|   |   |   |   |   |   |   |   |   |   |   |   |   |   |   |   |   |   |   |   |   |   |   |   |   |   ID < 911.5 : -1 (6/0) [3/0]
|   |   |   |   |   |   |   |   |   |   |   |   |   |   |   |   |   |   |   |   |   |   |   |   |   |   ID >= 911.5 : -0.5 (2/0.25) [0/0]
|   |   |   |   |   |   |   |   |   |   |   |   |   |   |   |   |   |   |   |   |   |   |   |   ID >= 913.5 : 0.5 (2/0.25) [0/0]
|   |   |   |   |   |   |   |   |   |   |   |   |   |   |   |   |   |   |   |   |   |   |   ID >= 915.5 : -0.94 (14/0.07) [3/0.01]
|   |   |   |   |   |   |   |   |   |   |   |   |   |   |   |   |   |   |   |   |   |   ID >= 932.5
|   |   |   |   |   |   |   |   |   |   |   |   |   |   |   |   |   |   |   |   |   |   |   ID < 964.5 : 0.25 (25/0.72) [7/0.58]
|   |   |   |   |   |   |   |   |   |   |   |   |   |   |   |   |   |   |   |   |   |   |   ID >= 964.5
|   |   |   |   |   |   |   |   |   |   |   |   |   |   |   |   |   |   |   |   |   |   |   |   ID < 981.5 : -0.94 (14/0.07) [3/0.01]
|   |   |   |   |   |   |   |   |   |   |   |   |   |   |   |   |   |   |   |   |   |   |   |   ID >= 981.5
|   |   |   |   |   |   |   |   |   |   |   |   |   |   |   |   |   |   |   |   |   |   |   |   |   ID < 1067
|   |   |   |   |   |   |   |   |   |   |   |   |   |   |   |   |   |   |   |   |   |   |   |   |   |   ID < 1038.5
|   |   |   |   |   |   |   |   |   |   |   |   |   |   |   |   |   |   |   |   |   |   |   |   |   |   |   ID < 1018.5 : 0.27 (22/0.66) [15/0.76]
|   |   |   |   |   |   |   |   |   |   |   |   |   |   |   |   |   |   |   |   |   |   |   |   |   |   |   ID >= 1018.5
|   |   |   |   |   |   |   |   |   |   |   |   |   |   |   |   |   |   |   |   |   |   |   |   |   |   |   |   ID < 1035.5 : -0.94 (11/0.08) [6/0.01]
|   |   |   |   |   |   |   |   |   |   |   |   |   |   |   |   |   |   |   |   |   |   |   |   |   |   |   |   ID >= 1035.5 : 0 (3/0.67) [0/0]
|   |   |   |   |   |   |   |   |   |   |   |   |   |   |   |   |   |   |   |   |   |   |   |   |   |   ID >= 1038.5 : 0.29 (18/0.57) [10/0.97]
|   |   |   |   |   |   |   |   |   |   |   |   |   |   |   |   |   |   |   |   |   |   |   |   |   ID >= 1067
|   |   |   |   |   |   |   |   |   |   |   |   |   |   |   |   |   |   |   |   |   |   |   |   |   |   ID < 1084.5 : -0.89 (9/0) [9/0.22]
|   |   |   |   |   |   |   |   |   |   |   |   |   |   |   |   |   |   |   |   |   |   |   |   |   |   ID >= 1084.5
|   |   |   |   |   |   |   |   |   |   |   |   |   |   |   |   |   |   |   |   |   |   |   |   |   |   |   ID < 1117.5
|   |   |   |   |   |   |   |   |   |   |   |   |   |   |   |   |   |   |   |   |   |   |   |   |   |   |   |   ID < 1100.5
|   |   |   |   |   |   |   |   |   |   |   |   |   |   |   |   |   |   |   |   |   |   |   |   |   |   |   |   |   ID < 1098.5 : 0.14 (8/0.69) [6/1.06]
|   |   |   |   |   |   |   |   |   |   |   |   |   |   |   |   |   |   |   |   |   |   |   |   |   |   |   |   |   ID >= 1098.5 : -1 (2/0) [0/0]
|   |   |   |   |   |   |   |   |   |   |   |   |   |   |   |   |   |   |   |   |   |   |   |   |   |   |   |   ID >= 1100.5
|   |   |   |   |   |   |   |   |   |   |   |   |   |   |   |   |   |   |   |   |   |   |   |   |   |   |   |   |   ID < 1108.5 : 0.75 (5/0.24) [3/0.16]
|   |   |   |   |   |   |   |   |   |   |   |   |   |   |   |   |   |   |   |   |   |   |   |   |   |   |   |   |   ID >= 1108.5
|   |   |   |   |   |   |   |   |   |   |   |   |   |   |   |   |   |   |   |   |   |   |   |   |   |   |   |   |   |   ID < 1110.5 : -1 (2/0) [0/0]
|   |   |   |   |   |   |   |   |   |   |   |   |   |   |   |   |   |   |   |   |   |   |   |   |   |   |   |   |   |   ID >= 1110.5 : 0.43 (4/0.25) [3/0.92]
|   |   |   |   |   |   |   |   |   |   |   |   |   |   |   |   |   |   |   |   |   |   |   |   |   |   |   ID >= 1117.5
|   |   |   |   |   |   |   |   |   |   |   |   |   |   |   |   |   |   |   |   |   |   |   |   |   |   |   |   ID < 1133 : -0.93 (10/0.09) [5/0.01]
|   |   |   |   |   |   |   |   |   |   |   |   |   |   |   |   |   |   |   |   |   |   |   |   |   |   |   |   ID >= 1133
|   |   |   |   |   |   |   |   |   |   |   |   |   |   |   |   |   |   |   |   |   |   |   |   |   |   |   |   |   ID < 1147.5 : 0.07 (10/0.6) [5/1]
|   |   |   |   |   |   |   |   |   |   |   |   |   |   |   |   |   |   |   |   |   |   |   |   |   |   |   |   |   ID >= 1147.5 : -1 (2/0) [0/0]
|   |   |   |   |   |   |   |   |   |   |   |   ID >= 1149.5 : 0.5 (9/0.17) [7/1.1]
|   |   |   |   |   |   |   |   |   |   |   ID >= 1165.5 : -0.94 (14/0.07) [3/0.01]
|   |   |   |   |   |   |   |   |   |   ID >= 1183 : 0.27 (26/0.67) [11/0.71]
|   |   |   |   |   |   |   |   |   ID >= 1219.5
|   |   |   |   |   |   |   |   |   |   ID < 1236.5 : -0.94 (11/0) [6/0.17]
|   |   |   |   |   |   |   |   |   |   ID >= 1236.5 : 0 (2/0.25) [1/2.25]
|   |   |   |   |   |   |   |   ID >= 1239.5 : 0.28 (21/0.62) [8/0.9]
|   |   |   |   |   |   |   ID >= 1268.5
|   |   |   |   |   |   |   |   ID < 1284.5 : -0.94 (12/0.08) [4/0.01]
|   |   |   |   |   |   |   |   ID >= 1284.5 : -0.29 (4/0.75) [3/0.92]
|   |   |   |   |   |   ID >= 1291.5 : 0.35 (21/0.53) [5/0.98]
|   |   |   |   |   ID >= 1317.5
|   |   |   |   |   |   ID < 1334 : -0.94 (10/0) [6/0.17]
|   |   |   |   |   |   ID >= 1334 : -0.29 (4/0.69) [3/0.9]
|   |   |   |   ID >= 1340.5 : 0.36 (16/0.73) [9/0.45]
|   ID >= 1365.5
|   |   ID < 1935.5
|   |   |   ID < 1608
|   |   |   |   ID < 1481.5
|   |   |   |   |   ID < 1444.5
|   |   |   |   |   |   ID < 1389.5
|   |   |   |   |   |   |   ID < 1375.5 : -0.9 (5/0) [5/0.2]
|   |   |   |   |   |   |   ID >= 1375.5 : -0.57 (12/0.14) [2/3.36]
|   |   |   |   |   |   ID >= 1389.5
|   |   |   |   |   |   |   ID < 1411.5
|   |   |   |   |   |   |   |   ID < 1399.5 : 0.1 (9/0.67) [1/1]
|   |   |   |   |   |   |   |   ID >= 1399.5
|   |   |   |   |   |   |   |   |   ID < 1408 : 0.75 (8/0.19) [0/0]
|   |   |   |   |   |   |   |   |   ID >= 1408 : -0.25 (2/1) [2/0.5]
|   |   |   |   |   |   |   ID >= 1411.5
|   |   |   |   |   |   |   |   ID < 1428.5 : -0.94 (10/0) [7/0.14]
|   |   |   |   |   |   |   |   ID >= 1428.5
|   |   |   |   |   |   |   |   |   ID < 1440.5 : 0 (8/0.5) [4/1]
|   |   |   |   |   |   |   |   |   ID >= 1440.5 : 0.75 (3/0.22) [1/0.11]
|   |   |   |   |   ID >= 1444.5
|   |   |   |   |   |   ID < 1461.5 : -0.94 (13/0.07) [4/0.01]
|   |   |   |   |   |   ID >= 1461.5
|   |   |   |   |   |   |   ID < 1464 : 0.5 (2/0.25) [0/0]
|   |   |   |   |   |   |   ID >= 1464 : -0.89 (12/0.08) [6/0.15]
|   |   |   |   ID >= 1481.5
|   |   |   |   |   ID < 1594.5
|   |   |   |   |   |   ID < 1561
|   |   |   |   |   |   |   ID < 1546.5
|   |   |   |   |   |   |   |   ID < 1513.5 : 0.25 (22/0.72) [10/0.62]
|   |   |   |   |   |   |   |   ID >= 1513.5
|   |   |   |   |   |   |   |   |   ID < 1530.5 : -0.94 (12/0.08) [5/0.01]
|   |   |   |   |   |   |   |   |   ID >= 1530.5 : 0 (12/0.67) [4/1]
|   |   |   |   |   |   |   ID >= 1546.5 : 0.57 (9/0.1) [5/1.59]
|   |   |   |   |   |   ID >= 1561
|   |   |   |   |   |   |   ID < 1581.5
|   |   |   |   |   |   |   |   ID < 1578 : -0.88 (10/0.09) [7/0.12]
|   |   |   |   |   |   |   |   ID >= 1578 : -0.25 (2/0.25) [2/1.25]
|   |   |   |   |   |   |   ID >= 1581.5 : 0 (7/0.86) [6/0.67]
|   |   |   |   |   ID >= 1594.5
|   |   |   |   |   |   ID < 1600.5 : 0.83 (5/0.16) [1/0.04]
|   |   |   |   |   |   ID >= 1600.5 : 0.29 (5/0.64) [2/1.16]
|   |   |   ID >= 1608
|   |   |   |   ID < 1818.5
|   |   |   |   |   ID < 1801.5
|   |   |   |   |   |   ID < 1795
|   |   |   |   |   |   |   ID < 1625 : -0.88 (9/0.1) [8/0.11]
|   |   |   |   |   |   |   ID >= 1625
|   |   |   |   |   |   |   |   ID < 1637 : 0.08 (7/0.86) [5/0.6]
|   |   |   |   |   |   |   |   ID >= 1637 : -0.66 (97/0.4) [61/0.5]
|   |   |   |   |   |   ID >= 1795 : 0.14 (3/0.22) [4/1.11]
|   |   |   |   |   ID >= 1801.5 : -0.94 (14/0.07) [3/0.01]
|   |   |   |   ID >= 1818.5
|   |   |   |   |   ID < 1912.5 : -0.27 (65/0.67) [29/0.86]
|   |   |   |   |   ID >= 1912.5
|   |   |   |   |   |   ID < 1929.5
|   |   |   |   |   |   |   retweeted_status < 0.5 : -0.67 (3/0.22) [0/0]
|   |   |   |   |   |   |   retweeted_status >= 0.5 : -1 (12/0) [2/0]
|   |   |   |   |   |   ID >= 1929.5 : -0.17 (3/0.22) [3/1.89]
|   |   ID >= 1935.5
|   |   |   ID < 5865
|   |   |   |   ID < 5828
|   |   |   |   |   ID < 1948.5
|   |   |   |   |   |   ID < 1945.5 : 0.1 (9/0.77) [1/0.01]
|   |   |   |   |   |   ID >= 1945.5 : 1 (3/0) [0/0]
|   |   |   |   |   ID >= 1948.5
|   |   |   |   |   |   ID < 1966.5 : -0.89 (13/0.07) [5/0.18]
|   |   |   |   |   |   ID >= 1966.5
|   |   |   |   |   |   |   ID < 2067
|   |   |   |   |   |   |   |   ID < 2040.5
|   |   |   |   |   |   |   |   |   ID < 1998 : 0.26 (21/0.69) [10/0.78]
|   |   |   |   |   |   |   |   |   ID >= 1998
|   |   |   |   |   |   |   |   |   |   ID < 2014.5 : -0.94 (12/0.08) [5/0.01]
|   |   |   |   |   |   |   |   |   |   ID >= 2014.5
|   |   |   |   |   |   |   |   |   |   |   ID < 2038.5
|   |   |   |   |   |   |   |   |   |   |   |   ID < 2034 : 0.11 (10/0.6) [9/0.89]
|   |   |   |   |   |   |   |   |   |   |   |   ID >= 2034
|   |   |   |   |   |   |   |   |   |   |   |   |   ID < 2036.5 : 1 (2/0) [1/0]
|   |   |   |   |   |   |   |   |   |   |   |   |   ID >= 2036.5 : 0.5 (2/0.25) [0/0]
|   |   |   |   |   |   |   |   |   |   |   ID >= 2038.5 : -1 (2/0) [0/0]
|   |   |   |   |   |   |   |   ID >= 2040.5 : 0.46 (14/0.35) [12/0.94]
|   |   |   |   |   |   |   ID >= 2067
|   |   |   |   |   |   |   |   ID < 2083.5 : -0.94 (13/0) [4/0.25]
|   |   |   |   |   |   |   |   ID >= 2083.5
|   |   |   |   |   |   |   |   |   ID < 2107.5 : 0.25 (14/0.53) [10/0.98]
|   |   |   |   |   |   |   |   |   ID >= 2107.5
|   |   |   |   |   |   |   |   |   |   ID < 5208.5
|   |   |   |   |   |   |   |   |   |   |   ID < 5126
|   |   |   |   |   |   |   |   |   |   |   |   ID < 5108.5
|   |   |   |   |   |   |   |   |   |   |   |   |   ID < 2132
|   |   |   |   |   |   |   |   |   |   |   |   |   |   ID < 2115.5
|   |   |   |   |   |   |   |   |   |   |   |   |   |   |   ID < 2109.5 : -1 (2/0) [0/0]
|   |   |   |   |   |   |   |   |   |   |   |   |   |   |   ID >= 2109.5 : 0.67 (3/0.22) [3/0.44]
|   |   |   |   |   |   |   |   |   |   |   |   |   |   ID >= 2115.5 : -0.94 (13/0.07) [3/0.01]
|   |   |   |   |   |   |   |   |   |   |   |   |   ID >= 2132
|   |   |   |   |   |   |   |   |   |   |   |   |   |   ID < 2165
|   |   |   |   |   |   |   |   |   |   |   |   |   |   |   ID < 2158.5 : 0.11 (19/0.76) [8/0.77]
|   |   |   |   |   |   |   |   |   |   |   |   |   |   |   ID >= 2158.5 : 0.67 (4/0.19) [2/0.31]
|   |   |   |   |   |   |   |   |   |   |   |   |   |   ID >= 2165
|   |   |   |   |   |   |   |   |   |   |   |   |   |   |   ID < 2181.5 : -0.94 (11/0) [6/0.17]
|   |   |   |   |   |   |   |   |   |   |   |   |   |   |   ID >= 2181.5
|   |   |   |   |   |   |   |   |   |   |   |   |   |   |   |   ID < 2213.5
|   |   |   |   |   |   |   |   |   |   |   |   |   |   |   |   |   ID < 2197.5 : 0 (10/0.69) [6/0.88]
|   |   |   |   |   |   |   |   |   |   |   |   |   |   |   |   |   ID >= 2197.5 : 0.5 (10/0.64) [6/0.29]
|   |   |   |   |   |   |   |   |   |   |   |   |   |   |   |   ID >= 2213.5
|   |   |   |   |   |   |   |   |   |   |   |   |   |   |   |   |   ID < 2291.5
|   |   |   |   |   |   |   |   |   |   |   |   |   |   |   |   |   |   ID < 2239.5
|   |   |   |   |   |   |   |   |   |   |   |   |   |   |   |   |   |   |   ID < 2236.5
|   |   |   |   |   |   |   |   |   |   |   |   |   |   |   |   |   |   |   |   ID < 2231 : -0.94 (11/0.08) [6/0.01]
|   |   |   |   |   |   |   |   |   |   |   |   |   |   |   |   |   |   |   |   ID >= 2231 : -0.17 (4/0.75) [2/1.25]
|   |   |   |   |   |   |   |   |   |   |   |   |   |   |   |   |   |   |   ID >= 2236.5 : 0.67 (3/0.22) [0/0]
|   |   |   |   |   |   |   |   |   |   |   |   |   |   |   |   |   |   ID >= 2239.5 : -0.77 (27/0.22) [25/0.37]
|   |   |   |   |   |   |   |   |   |   |   |   |   |   |   |   |   ID >= 2291.5
|   |   |   |   |   |   |   |   |   |   |   |   |   |   |   |   |   |   ID < 2324
|   |   |   |   |   |   |   |   |   |   |   |   |   |   |   |   |   |   |   ID < 2308 : 0 (12/0.83) [4/0.5]
|   |   |   |   |   |   |   |   |   |   |   |   |   |   |   |   |   |   |   ID >= 2308 : 0.53 (12/0.58) [3/0.25]
|   |   |   |   |   |   |   |   |   |   |   |   |   |   |   |   |   |   ID >= 2324
|   |   |   |   |   |   |   |   |   |   |   |   |   |   |   |   |   |   |   ID < 2341.5 : -0.89 (12/0.08) [6/0.15]
|   |   |   |   |   |   |   |   |   |   |   |   |   |   |   |   |   |   |   ID >= 2341.5
|   |   |   |   |   |   |   |   |   |   |   |   |   |   |   |   |   |   |   |   ID < 2374.5 : 0.27 (22/0.63) [11/0.8]
|   |   |   |   |   |   |   |   |   |   |   |   |   |   |   |   |   |   |   |   ID >= 2374.5
|   |   |   |   |   |   |   |   |   |   |   |   |   |   |   |   |   |   |   |   |   ID < 2404.5
|   |   |   |   |   |   |   |   |   |   |   |   |   |   |   |   |   |   |   |   |   |   ID < 2387.5 : -0.69 (11/0.33) [2/0.67]
|   |   |   |   |   |   |   |   |   |   |   |   |   |   |   |   |   |   |   |   |   |   ID >= 2387.5 : -0.94 (12/0) [5/0.2]
|   |   |   |   |   |   |   |   |   |   |   |   |   |   |   |   |   |   |   |   |   ID >= 2404.5
|   |   |   |   |   |   |   |   |   |   |   |   |   |   |   |   |   |   |   |   |   |   ID < 2490.5
|   |   |   |   |   |   |   |   |   |   |   |   |   |   |   |   |   |   |   |   |   |   |   ID < 2453.5
|   |   |   |   |   |   |   |   |   |   |   |   |   |   |   |   |   |   |   |   |   |   |   |   ID < 2437
|   |   |   |   |   |   |   |   |   |   |   |   |   |   |   |   |   |   |   |   |   |   |   |   |   ID < 2420
|   |   |   |   |   |   |   |   |   |   |   |   |   |   |   |   |   |   |   |   |   |   |   |   |   |   retweeted_status < 0.5 : -1 (2/0) [0/0]
|   |   |   |   |   |   |   |   |   |   |   |   |   |   |   |   |   |   |   |   |   |   |   |   |   |   retweeted_status >= 0.5 : 0.23 (10/0.56) [3/0.91]
|   |   |   |   |   |   |   |   |   |   |   |   |   |   |   |   |   |   |   |   |   |   |   |   |   ID >= 2420
|   |   |   |   |   |   |   |   |   |   |   |   |   |   |   |   |   |   |   |   |   |   |   |   |   |   ID < 2426.5
|   |   |   |   |   |   |   |   |   |   |   |   |   |   |   |   |   |   |   |   |   |   |   |   |   |   |   ID < 2423.5 : 0.25 (3/0.22) [1/2.78]
|   |   |   |   |   |   |   |   |   |   |   |   |   |   |   |   |   |   |   |   |   |   |   |   |   |   |   ID >= 2423.5 : 1 (3/0) [0/0]
|   |   |   |   |   |   |   |   |   |   |   |   |   |   |   |   |   |   |   |   |   |   |   |   |   |   ID >= 2426.5
|   |   |   |   |   |   |   |   |   |   |   |   |   |   |   |   |   |   |   |   |   |   |   |   |   |   |   ID < 2430.5 : -0.25 (3/0.67) [1/1]
|   |   |   |   |   |   |   |   |   |   |   |   |   |   |   |   |   |   |   |   |   |   |   |   |   |   |   ID >= 2430.5
|   |   |   |   |   |   |   |   |   |   |   |   |   |   |   |   |   |   |   |   |   |   |   |   |   |   |   |   ID < 2433.5 : 1 (2/0) [1/0]
|   |   |   |   |   |   |   |   |   |   |   |   |   |   |   |   |   |   |   |   |   |   |   |   |   |   |   |   ID >= 2433.5 : 0.33 (3/0.22) [0/0]
|   |   |   |   |   |   |   |   |   |   |   |   |   |   |   |   |   |   |   |   |   |   |   |   ID >= 2437 : -0.94 (10/0.09) [7/0.01]
|   |   |   |   |   |   |   |   |   |   |   |   |   |   |   |   |   |   |   |   |   |   |   ID >= 2453.5 : 0.27 (24/0.65) [13/0.78]
|   |   |   |   |   |   |   |   |   |   |   |   |   |   |   |   |   |   |   |   |   |   ID >= 2490.5
|   |   |   |   |   |   |   |   |   |   |   |   |   |   |   |   |   |   |   |   |   |   |   ID < 2513.5
|   |   |   |   |   |   |   |   |   |   |   |   |   |   |   |   |   |   |   |   |   |   |   |   ID < 2499.5 : -1 (6/0) [3/0]
|   |   |   |   |   |   |   |   |   |   |   |   |   |   |   |   |   |   |   |   |   |   |   |   ID >= 2499.5 : -0.57 (11/0.15) [3/2.21]
|   |   |   |   |   |   |   |   |   |   |   |   |   |   |   |   |   |   |   |   |   |   |   ID >= 2513.5
|   |   |   |   |   |   |   |   |   |   |   |   |   |   |   |   |   |   |   |   |   |   |   |   ID < 2538.5 : 0.36 (16/0.75) [9/0.44]
|   |   |   |   |   |   |   |   |   |   |   |   |   |   |   |   |   |   |   |   |   |   |   |   ID >= 2538.5
|   |   |   |   |   |   |   |   |   |   |   |   |   |   |   |   |   |   |   |   |   |   |   |   |   ID < 3444.5
|   |   |   |   |   |   |   |   |   |   |   |   |   |   |   |   |   |   |   |   |   |   |   |   |   |   ID < 3081
|   |   |   |   |   |   |   |   |   |   |   |   |   |   |   |   |   |   |   |   |   |   |   |   |   |   |   ID < 2556.5 : -0.89 (13/0.13) [5/0.02]
|   |   |   |   |   |   |   |   |   |   |   |   |   |   |   |   |   |   |   |   |   |   |   |   |   |   |   ID >= 2556.5
|   |   |   |   |   |   |   |   |   |   |   |   |   |   |   |   |   |   |   |   |   |   |   |   |   |   |   |   ID < 2580.5 : 0.25 (15/0.62) [9/0.81]
|   |   |   |   |   |   |   |   |   |   |   |   |   |   |   |   |   |   |   |   |   |   |   |   |   |   |   |   ID >= 2580.5
|   |   |   |   |   |   |   |   |   |   |   |   |   |   |   |   |   |   |   |   |   |   |   |   |   |   |   |   |   ID < 2611.5
|   |   |   |   |   |   |   |   |   |   |   |   |   |   |   |   |   |   |   |   |   |   |   |   |   |   |   |   |   |   ID < 2588.5
|   |   |   |   |   |   |   |   |   |   |   |   |   |   |   |   |   |   |   |   |   |   |   |   |   |   |   |   |   |   |   ID < 2583 : -1 (2/0) [0/0]
|   |   |   |   |   |   |   |   |   |   |   |   |   |   |   |   |   |   |   |   |   |   |   |   |   |   |   |   |   |   |   ID >= 2583 : 0.67 (3/0.22) [3/0.44]
|   |   |   |   |   |   |   |   |   |   |   |   |   |   |   |   |   |   |   |   |   |   |   |   |   |   |   |   |   |   ID >= 2588.5
|   |   |   |   |   |   |   |   |   |   |   |   |   |   |   |   |   |   |   |   |   |   |   |   |   |   |   |   |   |   |   ID < 2605.5 : -0.94 (13/0.07) [4/0.01]
|   |   |   |   |   |   |   |   |   |   |   |   |   |   |   |   |   |   |   |   |   |   |   |   |   |   |   |   |   |   |   ID >= 2605.5 : -0.17 (3/0.22) [3/1.89]
|   |   |   |   |   |   |   |   |   |   |   |   |   |   |   |   |   |   |   |   |   |   |   |   |   |   |   |   |   ID >= 2611.5
|   |   |   |   |   |   |   |   |   |   |   |   |   |   |   |   |   |   |   |   |   |   |   |   |   |   |   |   |   |   ID < 2636.5 : 0.36 (14/0.37) [11/1.14]
|   |   |   |   |   |   |   |   |   |   |   |   |   |   |   |   |   |   |   |   |   |   |   |   |   |   |   |   |   |   ID >= 2636.5
|   |   |   |   |   |   |   |   |   |   |   |   |   |   |   |   |   |   |   |   |   |   |   |   |   |   |   |   |   |   |   ID < 2653.5 : -0.88 (14/0.12) [3/0.02]
|   |   |   |   |   |   |   |   |   |   |   |   |   |   |   |   |   |   |   |   |   |   |   |   |   |   |   |   |   |   |   ID >= 2653.5
|   |   |   |   |   |   |   |   |   |   |   |   |   |   |   |   |   |   |   |   |   |   |   |   |   |   |   |   |   |   |   |   ID < 2690.5 : 0.24 (20/0.61) [17/0.87]
|   |   |   |   |   |   |   |   |   |   |   |   |   |   |   |   |   |   |   |   |   |   |   |   |   |   |   |   |   |   |   |   ID >= 2690.5
|   |   |   |   |   |   |   |   |   |   |   |   |   |   |   |   |   |   |   |   |   |   |   |   |   |   |   |   |   |   |   |   |   ID < 2708.5 : -0.89 (13/0.07) [5/0.18]
|   |   |   |   |   |   |   |   |   |   |   |   |   |   |   |   |   |   |   |   |   |   |   |   |   |   |   |   |   |   |   |   |   ID >= 2708.5
|   |   |   |   |   |   |   |   |   |   |   |   |   |   |   |   |   |   |   |   |   |   |   |   |   |   |   |   |   |   |   |   |   |   ID < 2959.5
|   |   |   |   |   |   |   |   |   |   |   |   |   |   |   |   |   |   |   |   |   |   |   |   |   |   |   |   |   |   |   |   |   |   |   ID < 2883.5
|   |   |   |   |   |   |   |   |   |   |   |   |   |   |   |   |   |   |   |   |   |   |   |   |   |   |   |   |   |   |   |   |   |   |   |   ID < 2871.5
|   |   |   |   |   |   |   |   |   |   |   |   |   |   |   |   |   |   |   |   |   |   |   |   |   |   |   |   |   |   |   |   |   |   |   |   |   ID < 2840 : -0.07 (86/0.77) [45/0.86]
|   |   |   |   |   |   |   |   |   |   |   |   |   |   |   |   |   |   |   |   |   |   |   |   |   |   |   |   |   |   |   |   |   |   |   |   |   ID >= 2840
|   |   |   |   |   |   |   |   |   |   |   |   |   |   |   |   |   |   |   |   |   |   |   |   |   |   |   |   |   |   |   |   |   |   |   |   |   |   ID < 2855.5 : -0.94 (9/0.1) [7/0.01]
|   |   |   |   |   |   |   |   |   |   |   |   |   |   |   |   |   |   |   |   |   |   |   |   |   |   |   |   |   |   |   |   |   |   |   |   |   |   ID >= 2855.5 : 0 (11/0.69) [5/0.98]
|   |   |   |   |   |   |   |   |   |   |   |   |   |   |   |   |   |   |   |   |   |   |   |   |   |   |   |   |   |   |   |   |   |   |   |   ID >= 2871.5 : 0.42 (8/0.23) [4/1.39]
|   |   |   |   |   |   |   |   |   |   |   |   |   |   |   |   |   |   |   |   |   |   |   |   |   |   |   |   |   |   |   |   |   |   |   ID >= 2883.5
|   |   |   |   |   |   |   |   |   |   |   |   |   |   |   |   |   |   |   |   |   |   |   |   |   |   |   |   |   |   |   |   |   |   |   |   ID < 2900.5 : -0.94 (13/0) [4/0.25]
|   |   |   |   |   |   |   |   |   |   |   |   |   |   |   |   |   |   |   |   |   |   |   |   |   |   |   |   |   |   |   |   |   |   |   |   ID >= 2900.5
|   |   |   |   |   |   |   |   |   |   |   |   |   |   |   |   |   |   |   |   |   |   |   |   |   |   |   |   |   |   |   |   |   |   |   |   |   ID < 2916.5 : 0.19 (12/0.74) [4/0.42]
|   |   |   |   |   |   |   |   |   |   |   |   |   |   |   |   |   |   |   |   |   |   |   |   |   |   |   |   |   |   |   |   |   |   |   |   |   ID >= 2916.5 : -0.74 (27/0.32) [16/0.35]
|   |   |   |   |   |   |   |   |   |   |   |   |   |   |   |   |   |   |   |   |   |   |   |   |   |   |   |   |   |   |   |   |   |   ID >= 2959.5
|   |   |   |   |   |   |   |   |   |   |   |   |   |   |   |   |   |   |   |   |   |   |   |   |   |   |   |   |   |   |   |   |   |   |   ID < 2985 : 0.36 (12/0.58) [13/0.71]
|   |   |   |   |   |   |   |   |   |   |   |   |   |   |   |   |   |   |   |   |   |   |   |   |   |   |   |   |   |   |   |   |   |   |   ID >= 2985
|   |   |   |   |   |   |   |   |   |   |   |   |   |   |   |   |   |   |   |   |   |   |   |   |   |   |   |   |   |   |   |   |   |   |   |   ID < 3002.5 : -0.89 (9/0.1) [9/0.1]
|   |   |   |   |   |   |   |   |   |   |   |   |   |   |   |   |   |   |   |   |   |   |   |   |   |   |   |   |   |   |   |   |   |   |   |   ID >= 3002.5
|   |   |   |   |   |   |   |   |   |   |   |   |   |   |   |   |   |   |   |   |   |   |   |   |   |   |   |   |   |   |   |   |   |   |   |   |   ID < 3032.5
|   |   |   |   |   |   |   |   |   |   |   |   |   |   |   |   |   |   |   |   |   |   |   |   |   |   |   |   |   |   |   |   |   |   |   |   |   |   ID < 3018.5 : 0 (9/0.67) [7/0.86]
|   |   |   |   |   |   |   |   |   |   |   |   |   |   |   |   |   |   |   |   |   |   |   |   |   |   |   |   |   |   |   |   |   |   |   |   |   |   ID >= 3018.5
|   |   |   |   |   |   |   |   |   |   |   |   |   |   |   |   |   |   |   |   |   |   |   |   |   |   |   |   |   |   |   |   |   |   |   |   |   |   |   ID < 3026.5 : 0.75 (5/0.16) [3/0.24]
|   |   |   |   |   |   |   |   |   |   |   |   |   |   |   |   |   |   |   |   |   |   |   |   |   |   |   |   |   |   |   |   |   |   |   |   |   |   |   ID >= 3026.5 : 0.33 (3/0.89) [3/0.89]
|   |   |   |   |   |   |   |   |   |   |   |   |   |   |   |   |   |   |   |   |   |   |   |   |   |   |   |   |   |   |   |   |   |   |   |   |   ID >= 3032.5
|   |   |   |   |   |   |   |   |   |   |   |   |   |   |   |   |   |   |   |   |   |   |   |   |   |   |   |   |   |   |   |   |   |   |   |   |   |   ID < 3053.5 : -0.76 (10/0.16) [11/0.39]
|   |   |   |   |   |   |   |   |   |   |   |   |   |   |   |   |   |   |   |   |   |   |   |   |   |   |   |   |   |   |   |   |   |   |   |   |   |   ID >= 3053.5
|   |   |   |   |   |   |   |   |   |   |   |   |   |   |   |   |   |   |   |   |   |   |   |   |   |   |   |   |   |   |   |   |   |   |   |   |   |   |   ID < 3077
|   |   |   |   |   |   |   |   |   |   |   |   |   |   |   |   |   |   |   |   |   |   |   |   |   |   |   |   |   |   |   |   |   |   |   |   |   |   |   |   ID < 3074.5
|   |   |   |   |   |   |   |   |   |   |   |   |   |   |   |   |   |   |   |   |   |   |   |   |   |   |   |   |   |   |   |   |   |   |   |   |   |   |   |   |   ID < 3067
|   |   |   |   |   |   |   |   |   |   |   |   |   |   |   |   |   |   |   |   |   |   |   |   |   |   |   |   |   |   |   |   |   |   |   |   |   |   |   |   |   |   retweeted_status < 0.5 : 0.67 (5/0.24) [1/0.16]
|   |   |   |   |   |   |   |   |   |   |   |   |   |   |   |   |   |   |   |   |   |   |   |   |   |   |   |   |   |   |   |   |   |   |   |   |   |   |   |   |   |   retweeted_status >= 0.5 : -0.57 (5/0.64) [2/0.36]
|   |   |   |   |   |   |   |   |   |   |   |   |   |   |   |   |   |   |   |   |   |   |   |   |   |   |   |   |   |   |   |   |   |   |   |   |   |   |   |   |   ID >= 3067 : 0.75 (3/0) [5/0.4]
|   |   |   |   |   |   |   |   |   |   |   |   |   |   |   |   |   |   |   |   |   |   |   |   |   |   |   |   |   |   |   |   |   |   |   |   |   |   |   |   ID >= 3074.5 : -1 (2/0) [0/0]
|   |   |   |   |   |   |   |   |   |   |   |   |   |   |   |   |   |   |   |   |   |   |   |   |   |   |   |   |   |   |   |   |   |   |   |   |   |   |   ID >= 3077 : 0.75 (3/0.22) [1/0.11]
|   |   |   |   |   |   |   |   |   |   |   |   |   |   |   |   |   |   |   |   |   |   |   |   |   |   ID >= 3081
|   |   |   |   |   |   |   |   |   |   |   |   |   |   |   |   |   |   |   |   |   |   |   |   |   |   |   ID < 3239
|   |   |   |   |   |   |   |   |   |   |   |   |   |   |   |   |   |   |   |   |   |   |   |   |   |   |   |   ID < 3221.5
|   |   |   |   |   |   |   |   |   |   |   |   |   |   |   |   |   |   |   |   |   |   |   |   |   |   |   |   |   ID < 3214.5
|   |   |   |   |   |   |   |   |   |   |   |   |   |   |   |   |   |   |   |   |   |   |   |   |   |   |   |   |   |   ID < 3175.5
|   |   |   |   |   |   |   |   |   |   |   |   |   |   |   |   |   |   |   |   |   |   |   |   |   |   |   |   |   |   |   ID < 3167.5
|   |   |   |   |   |   |   |   |   |   |   |   |   |   |   |   |   |   |   |   |   |   |   |   |   |   |   |   |   |   |   |   ID < 3096.5 : -0.94 (9/0) [7/0.14]
|   |   |   |   |   |   |   |   |   |   |   |   |   |   |   |   |   |   |   |   |   |   |   |   |   |   |   |   |   |   |   |   ID >= 3096.5
|   |   |   |   |   |   |   |   |   |   |   |   |   |   |   |   |   |   |   |   |   |   |   |   |   |   |   |   |   |   |   |   |   ID < 3108
|   |   |   |   |   |   |   |   |   |   |   |   |   |   |   |   |   |   |   |   |   |   |   |   |   |   |   |   |   |   |   |   |   |   ID < 3103.5 : -0.29 (4/0.69) [3/0.9]
|   |   |   |   |   |   |   |   |   |   |   |   |   |   |   |   |   |   |   |   |   |   |   |   |   |   |   |   |   |   |   |   |   |   ID >= 3103.5 : 0.75 (3/0.22) [1/0.11]
|   |   |   |   |   |   |   |   |   |   |   |   |   |   |   |   |   |   |   |   |   |   |   |   |   |   |   |   |   |   |   |   |   ID >= 3108 : -0.75 (41/0.28) [19/0.4]
|   |   |   |   |   |   |   |   |   |   |   |   |   |   |   |   |   |   |   |   |   |   |   |   |   |   |   |   |   |   |   ID >= 3167.5 : 0 (7/0.69) [1/1.31]
|   |   |   |   |   |   |   |   |   |   |   |   |   |   |   |   |   |   |   |   |   |   |   |   |   |   |   |   |   |   ID >= 3175.5
|   |   |   |   |   |   |   |   |   |   |   |   |   |   |   |   |   |   |   |   |   |   |   |   |   |   |   |   |   |   |   ID < 3184.5 : -1 (7/0) [2/0]
|   |   |   |   |   |   |   |   |   |   |   |   |   |   |   |   |   |   |   |   |   |   |   |   |   |   |   |   |   |   |   ID >= 3184.5
|   |   |   |   |   |   |   |   |   |   |   |   |   |   |   |   |   |   |   |   |   |   |   |   |   |   |   |   |   |   |   |   ID < 3197.5 : -0.46 (6/0.25) [7/0.82]
|   |   |   |   |   |   |   |   |   |   |   |   |   |   |   |   |   |   |   |   |   |   |   |   |   |   |   |   |   |   |   |   ID >= 3197.5 : -0.94 (15/0.06) [2/0]
|   |   |   |   |   |   |   |   |   |   |   |   |   |   |   |   |   |   |   |   |   |   |   |   |   |   |   |   |   ID >= 3214.5 : 0.14 (4/0.69) [3/0.73]
|   |   |   |   |   |   |   |   |   |   |   |   |   |   |   |   |   |   |   |   |   |   |   |   |   |   |   |   ID >= 3221.5 : -0.94 (11/0) [6/0.17]
|   |   |   |   |   |   |   |   |   |   |   |   |   |   |   |   |   |   |   |   |   |   |   |   |   |   |   ID >= 3239
|   |   |   |   |   |   |   |   |   |   |   |   |   |   |   |   |   |   |   |   |   |   |   |   |   |   |   |   ID < 3421
|   |   |   |   |   |   |   |   |   |   |   |   |   |   |   |   |   |   |   |   |   |   |   |   |   |   |   |   |   ID < 3247.5 : 0.11 (6/0.58) [3/1.58]
|   |   |   |   |   |   |   |   |   |   |   |   |   |   |   |   |   |   |   |   |   |   |   |   |   |   |   |   |   ID >= 3247.5
|   |   |   |   |   |   |   |   |   |   |   |   |   |   |   |   |   |   |   |   |   |   |   |   |   |   |   |   |   |   ID < 3361
|   |   |   |   |   |   |   |   |   |   |   |   |   |   |   |   |   |   |   |   |   |   |   |   |   |   |   |   |   |   |   ID < 3344.5
|   |   |   |   |   |   |   |   |   |   |   |   |   |   |   |   |   |   |   |   |   |   |   |   |   |   |   |   |   |   |   |   ID < 3328.5
|   |   |   |   |   |   |   |   |   |   |   |   |   |   |   |   |   |   |   |   |   |   |   |   |   |   |   |   |   |   |   |   |   ID < 3312.5
|   |   |   |   |   |   |   |   |   |   |   |   |   |   |   |   |   |   |   |   |   |   |   |   |   |   |   |   |   |   |   |   |   |   ID < 3296.5
|   |   |   |   |   |   |   |   |   |   |   |   |   |   |   |   |   |   |   |   |   |   |   |   |   |   |   |   |   |   |   |   |   |   |   ID < 3250.5 : 0.33 (2/0) [1/1]
|   |   |   |   |   |   |   |   |   |   |   |   |   |   |   |   |   |   |   |   |   |   |   |   |   |   |   |   |   |   |   |   |   |   |   ID >= 3250.5
|   |   |   |   |   |   |   |   |   |   |   |   |   |   |   |   |   |   |   |   |   |   |   |   |   |   |   |   |   |   |   |   |   |   |   |   ID < 3267 : -0.94 (13/0.07) [3/0.01]
|   |   |   |   |   |   |   |   |   |   |   |   |   |   |   |   |   |   |   |   |   |   |   |   |   |   |   |   |   |   |   |   |   |   |   |   ID >= 3267
|   |   |   |   |   |   |   |   |   |   |   |   |   |   |   |   |   |   |   |   |   |   |   |   |   |   |   |   |   |   |   |   |   |   |   |   |   ID < 3273.5 : 0.14 (4/0.25) [3/1.58]
|   |   |   |   |   |   |   |   |   |   |   |   |   |   |   |   |   |   |   |   |   |   |   |   |   |   |   |   |   |   |   |   |   |   |   |   |   ID >= 3273.5
|   |   |   |   |   |   |   |   |   |   |   |   |   |   |   |   |   |   |   |   |   |   |   |   |   |   |   |   |   |   |   |   |   |   |   |   |   |   ID < 3290.5 : -0.94 (13/0.07) [4/0.01]
|   |   |   |   |   |   |   |   |   |   |   |   |   |   |   |   |   |   |   |   |   |   |   |   |   |   |   |   |   |   |   |   |   |   |   |   |   |   ID >= 3290.5
|   |   |   |   |   |   |   |   |   |   |   |   |   |   |   |   |   |   |   |   |   |   |   |   |   |   |   |   |   |   |   |   |   |   |   |   |   |   |   ID < 3294.5 : 0.25 (3/0.67) [1/1]
|   |   |   |   |   |   |   |   |   |   |   |   |   |   |   |   |   |   |   |   |   |   |   |   |   |   |   |   |   |   |   |   |   |   |   |   |   |   |   ID >= 3294.5 : -1 (2/0) [0/0]
|   |   |   |   |   |   |   |   |   |   |   |   |   |   |   |   |   |   |   |   |   |   |   |   |   |   |   |   |   |   |   |   |   |   ID >= 3296.5 : 0.06 (10/0.69) [6/0.68]
|   |   |   |   |   |   |   |   |   |   |   |   |   |   |   |   |   |   |   |   |   |   |   |   |   |   |   |   |   |   |   |   |   ID >= 3312.5 : -0.94 (10/0.09) [6/0.01]
|   |   |   |   |   |   |   |   |   |   |   |   |   |   |   |   |   |   |   |   |   |   |   |   |   |   |   |   |   |   |   |   ID >= 3328.5 : 0.06 (9/0.62) [7/0.83]
|   |   |   |   |   |   |   |   |   |   |   |   |   |   |   |   |   |   |   |   |   |   |   |   |   |   |   |   |   |   |   ID >= 3344.5 : -0.94 (10/0) [6/0.17]
|   |   |   |   |   |   |   |   |   |   |   |   |   |   |   |   |   |   |   |   |   |   |   |   |   |   |   |   |   |   ID >= 3361
|   |   |   |   |   |   |   |   |   |   |   |   |   |   |   |   |   |   |   |   |   |   |   |   |   |   |   |   |   |   |   ID < 3385 : 0.17 (18/0.69) [6/0.81]
|   |   |   |   |   |   |   |   |   |   |   |   |   |   |   |   |   |   |   |   |   |   |   |   |   |   |   |   |   |   |   ID >= 3385
|   |   |   |   |   |   |   |   |   |   |   |   |   |   |   |   |   |   |   |   |   |   |   |   |   |   |   |   |   |   |   |   ID < 3401.5 : -0.94 (11/0.08) [6/0.01]
|   |   |   |   |   |   |   |   |   |   |   |   |   |   |   |   |   |   |   |   |   |   |   |   |   |   |   |   |   |   |   |   ID >= 3401.5
|   |   |   |   |   |   |   |   |   |   |   |   |   |   |   |   |   |   |   |   |   |   |   |   |   |   |   |   |   |   |   |   |   retweeted_status < 0.5 : -0.67 (3/0.22) [0/0]
|   |   |   |   |   |   |   |   |   |   |   |   |   |   |   |   |   |   |   |   |   |   |   |   |   |   |   |   |   |   |   |   |   retweeted_status >= 0.5 : 0.31 (12/0.85) [4/0.31]
|   |   |   |   |   |   |   |   |   |   |   |   |   |   |   |   |   |   |   |   |   |   |   |   |   |   |   |   ID >= 3421
|   |   |   |   |   |   |   |   |   |   |   |   |   |   |   |   |   |   |   |   |   |   |   |   |   |   |   |   |   ID < 3438.5 : -0.89 (15/0) [3/0.67]
|   |   |   |   |   |   |   |   |   |   |   |   |   |   |   |   |   |   |   |   |   |   |   |   |   |   |   |   |   ID >= 3438.5 : -0.17 (3/0.22) [3/1.89]
|   |   |   |   |   |   |   |   |   |   |   |   |   |   |   |   |   |   |   |   |   |   |   |   |   ID >= 3444.5
|   |   |   |   |   |   |   |   |   |   |   |   |   |   |   |   |   |   |   |   |   |   |   |   |   |   ID < 4337
|   |   |   |   |   |   |   |   |   |   |   |   |   |   |   |   |   |   |   |   |   |   |   |   |   |   |   ID < 4313.5
|   |   |   |   |   |   |   |   |   |   |   |   |   |   |   |   |   |   |   |   |   |   |   |   |   |   |   |   ID < 3468.5
|   |   |   |   |   |   |   |   |   |   |   |   |   |   |   |   |   |   |   |   |   |   |   |   |   |   |   |   |   ID < 3464.5
|   |   |   |   |   |   |   |   |   |   |   |   |   |   |   |   |   |   |   |   |   |   |   |   |   |   |   |   |   |   ID < 3462.5
|   |   |   |   |   |   |   |   |   |   |   |   |   |   |   |   |   |   |   |   |   |   |   |   |   |   |   |   |   |   |   ID < 3454.5 : 0.1 (10/0.69) [0/0]
|   |   |   |   |   |   |   |   |   |   |   |   |   |   |   |   |   |   |   |   |   |   |   |   |   |   |   |   |   |   |   ID >= 3454.5 : 0.75 (6/0.22) [2/0.11]
|   |   |   |   |   |   |   |   |   |   |   |   |   |   |   |   |   |   |   |   |   |   |   |   |   |   |   |   |   |   ID >= 3462.5 : -1 (2/0) [0/0]
|   |   |   |   |   |   |   |   |   |   |   |   |   |   |   |   |   |   |   |   |   |   |   |   |   |   |   |   |   ID >= 3464.5 : 1 (3/0) [1/0]
|   |   |   |   |   |   |   |   |   |   |   |   |   |   |   |   |   |   |   |   |   |   |   |   |   |   |   |   ID >= 3468.5
|   |   |   |   |   |   |   |   |   |   |   |   |   |   |   |   |   |   |   |   |   |   |   |   |   |   |   |   |   ID < 3743.5
|   |   |   |   |   |   |   |   |   |   |   |   |   |   |   |   |   |   |   |   |   |   |   |   |   |   |   |   |   |   ID < 3665
|   |   |   |   |   |   |   |   |   |   |   |   |   |   |   |   |   |   |   |   |   |   |   |   |   |   |   |   |   |   |   ID < 3633.5
|   |   |   |   |   |   |   |   |   |   |   |   |   |   |   |   |   |   |   |   |   |   |   |   |   |   |   |   |   |   |   |   ID < 3486.5 : -0.89 (12/0.14) [6/0.03]
|   |   |   |   |   |   |   |   |   |   |   |   |   |   |   |   |   |   |   |   |   |   |   |   |   |   |   |   |   |   |   |   ID >= 3486.5
|   |   |   |   |   |   |   |   |   |   |   |   |   |   |   |   |   |   |   |   |   |   |   |   |   |   |   |   |   |   |   |   |   ID < 3518 : 0.26 (17/0.77) [14/0.64]
|   |   |   |   |   |   |   |   |   |   |   |   |   |   |   |   |   |   |   |   |   |   |   |   |   |   |   |   |   |   |   |   |   ID >= 3518
|   |   |   |   |   |   |   |   |   |   |   |   |   |   |   |   |   |   |   |   |   |   |   |   |   |   |   |   |   |   |   |   |   |   ID < 3541.5
|   |   |   |   |   |   |   |   |   |   |   |   |   |   |   |   |   |   |   |   |   |   |   |   |   |   |   |   |   |   |   |   |   |   |   ID < 3527.5 : -0.9 (6/0) [4/0.25]
|   |   |   |   |   |   |   |   |   |   |   |   |   |   |   |   |   |   |   |   |   |   |   |   |   |   |   |   |   |   |   |   |   |   |   ID >= 3527.5 : -0.57 (10/0.16) [4/1.64]
|   |   |   |   |   |   |   |   |   |   |   |   |   |   |   |   |   |   |   |   |   |   |   |   |   |   |   |   |   |   |   |   |   |   ID >= 3541.5
|   |   |   |   |   |   |   |   |   |   |   |   |   |   |   |   |   |   |   |   |   |   |   |   |   |   |   |   |   |   |   |   |   |   |   ID < 3567.5 : 0.35 (18/0.67) [8/0.49]
|   |   |   |   |   |   |   |   |   |   |   |   |   |   |   |   |   |   |   |   |   |   |   |   |   |   |   |   |   |   |   |   |   |   |   ID >= 3567.5
|   |   |   |   |   |   |   |   |   |   |   |   |   |   |   |   |   |   |   |   |   |   |   |   |   |   |   |   |   |   |   |   |   |   |   |   ID < 3583.5 : -0.94 (12/0.08) [4/0.01]
|   |   |   |   |   |   |   |   |   |   |   |   |   |   |   |   |   |   |   |   |   |   |   |   |   |   |   |   |   |   |   |   |   |   |   |   ID >= 3583.5
|   |   |   |   |   |   |   |   |   |   |   |   |   |   |   |   |   |   |   |   |   |   |   |   |   |   |   |   |   |   |   |   |   |   |   |   |   ID < 3616.5 : 0.21 (17/0.81) [16/0.63]
|   |   |   |   |   |   |   |   |   |   |   |   |   |   |   |   |   |   |   |   |   |   |   |   |   |   |   |   |   |   |   |   |   |   |   |   |   ID >= 3616.5 : -0.94 (7/0.12) [10/0.02]
|   |   |   |   |   |   |   |   |   |   |   |   |   |   |   |   |   |   |   |   |   |   |   |   |   |   |   |   |   |   |   ID >= 3633.5 : 0.26 (20/0.71) [11/0.71]
|   |   |   |   |   |   |   |   |   |   |   |   |   |   |   |   |   |   |   |   |   |   |   |   |   |   |   |   |   |   ID >= 3665 : -0.7 (59/0.42) [20/0.29]
|   |   |   |   |   |   |   |   |   |   |   |   |   |   |   |   |   |   |   |   |   |   |   |   |   |   |   |   |   ID >= 3743.5
|   |   |   |   |   |   |   |   |   |   |   |   |   |   |   |   |   |   |   |   |   |   |   |   |   |   |   |   |   |   ID < 3775.5
|   |   |   |   |   |   |   |   |   |   |   |   |   |   |   |   |   |   |   |   |   |   |   |   |   |   |   |   |   |   |   ID < 3760.5 : 0.06 (9/0.62) [8/0.98]
|   |   |   |   |   |   |   |   |   |   |   |   |   |   |   |   |   |   |   |   |   |   |   |   |   |   |   |   |   |   |   ID >= 3760.5
|   |   |   |   |   |   |   |   |   |   |   |   |   |   |   |   |   |   |   |   |   |   |   |   |   |   |   |   |   |   |   |   ID < 3765.5 : 0.8 (3/0) [2/0.5]
|   |   |   |   |   |   |   |   |   |   |   |   |   |   |   |   |   |   |   |   |   |   |   |   |   |   |   |   |   |   |   |   ID >= 3765.5 : 0.33 (4/0.19) [5/1.36]
|   |   |   |   |   |   |   |   |   |   |   |   |   |   |   |   |   |   |   |   |   |   |   |   |   |   |   |   |   |   ID >= 3775.5
|   |   |   |   |   |   |   |   |   |   |   |   |   |   |   |   |   |   |   |   |   |   |   |   |   |   |   |   |   |   |   ID < 3793 : -0.88 (10/0.09) [7/0.12]
|   |   |   |   |   |   |   |   |   |   |   |   |   |   |   |   |   |   |   |   |   |   |   |   |   |   |   |   |   |   |   ID >= 3793
|   |   |   |   |   |   |   |   |   |   |   |   |   |   |   |   |   |   |   |   |   |   |   |   |   |   |   |   |   |   |   |   ID < 3825.5 : 0.24 (23/0.65) [10/0.93]
|   |   |   |   |   |   |   |   |   |   |   |   |   |   |   |   |   |   |   |   |   |   |   |   |   |   |   |   |   |   |   |   ID >= 3825.5
|   |   |   |   |   |   |   |   |   |   |   |   |   |   |   |   |   |   |   |   |   |   |   |   |   |   |   |   |   |   |   |   |   ID < 3856 : -0.8 (19/0.13) [11/0.39]
|   |   |   |   |   |   |   |   |   |   |   |   |   |   |   |   |   |   |   |   |   |   |   |   |   |   |   |   |   |   |   |   |   ID >= 3856
|   |   |   |   |   |   |   |   |   |   |   |   |   |   |   |   |   |   |   |   |   |   |   |   |   |   |   |   |   |   |   |   |   |   ID < 4290.5
|   |   |   |   |   |   |   |   |   |   |   |   |   |   |   |   |   |   |   |   |   |   |   |   |   |   |   |   |   |   |   |   |   |   |   ID < 4259.5
|   |   |   |   |   |   |   |   |   |   |   |   |   |   |   |   |   |   |   |   |   |   |   |   |   |   |   |   |   |   |   |   |   |   |   |   ID < 4242.5
|   |   |   |   |   |   |   |   |   |   |   |   |   |   |   |   |   |   |   |   |   |   |   |   |   |   |   |   |   |   |   |   |   |   |   |   |   ID < 4210.5
|   |   |   |   |   |   |   |   |   |   |   |   |   |   |   |   |   |   |   |   |   |   |   |   |   |   |   |   |   |   |   |   |   |   |   |   |   |   ID < 4192.5
|   |   |   |   |   |   |   |   |   |   |   |   |   |   |   |   |   |   |   |   |   |   |   |   |   |   |   |   |   |   |   |   |   |   |   |   |   |   |   ID < 4172.5
|   |   |   |   |   |   |   |   |   |   |   |   |   |   |   |   |   |   |   |   |   |   |   |   |   |   |   |   |   |   |   |   |   |   |   |   |   |   |   |   ID < 4144
|   |   |   |   |   |   |   |   |   |   |   |   |   |   |   |   |   |   |   |   |   |   |   |   |   |   |   |   |   |   |   |   |   |   |   |   |   |   |   |   |   ID < 4107.5
|   |   |   |   |   |   |   |   |   |   |   |   |   |   |   |   |   |   |   |   |   |   |   |   |   |   |   |   |   |   |   |   |   |   |   |   |   |   |   |   |   |   ID < 4090.5
|   |   |   |   |   |   |   |   |   |   |   |   |   |   |   |   |   |   |   |   |   |   |   |   |   |   |   |   |   |   |   |   |   |   |   |   |   |   |   |   |   |   |   ID < 4063.5
|   |   |   |   |   |   |   |   |   |   |   |   |   |   |   |   |   |   |   |   |   |   |   |   |   |   |   |   |   |   |   |   |   |   |   |   |   |   |   |   |   |   |   |   ID < 4040.5
|   |   |   |   |   |   |   |   |   |   |   |   |   |   |   |   |   |   |   |   |   |   |   |   |   |   |   |   |   |   |   |   |   |   |   |   |   |   |   |   |   |   |   |   |   ID < 4027.5
|   |   |   |   |   |   |   |   |   |   |   |   |   |   |   |   |   |   |   |   |   |   |   |   |   |   |   |   |   |   |   |   |   |   |   |   |   |   |   |   |   |   |   |   |   |   ID < 3992
|   |   |   |   |   |   |   |   |   |   |   |   |   |   |   |   |   |   |   |   |   |   |   |   |   |   |   |   |   |   |   |   |   |   |   |   |   |   |   |   |   |   |   |   |   |   |   ID < 3962.5
|   |   |   |   |   |   |   |   |   |   |   |   |   |   |   |   |   |   |   |   |   |   |   |   |   |   |   |   |   |   |   |   |   |   |   |   |   |   |   |   |   |   |   |   |   |   |   |   ID < 3942.5
|   |   |   |   |   |   |   |   |   |   |   |   |   |   |   |   |   |   |   |   |   |   |   |   |   |   |   |   |   |   |   |   |   |   |   |   |   |   |   |   |   |   |   |   |   |   |   |   |   ID < 3917.5
|   |   |   |   |   |   |   |   |   |   |   |   |   |   |   |   |   |   |   |   |   |   |   |   |   |   |   |   |   |   |   |   |   |   |   |   |   |   |   |   |   |   |   |   |   |   |   |   |   |   ID < 3888.5 : 0.21 (24/0.69) [9/0.79]
|   |   |   |   |   |   |   |   |   |   |   |   |   |   |   |   |   |   |   |   |   |   |   |   |   |   |   |   |   |   |   |   |   |   |   |   |   |   |   |   |   |   |   |   |   |   |   |   |   |   ID >= 3888.5
|   |   |   |   |   |   |   |   |   |   |   |   |   |   |   |   |   |   |   |   |   |   |   |   |   |   |   |   |   |   |   |   |   |   |   |   |   |   |   |   |   |   |   |   |   |   |   |   |   |   |   ID < 3912.5
|   |   |   |   |   |   |   |   |   |   |   |   |   |   |   |   |   |   |   |   |   |   |   |   |   |   |   |   |   |   |   |   |   |   |   |   |   |   |   |   |   |   |   |   |   |   |   |   |   |   |   |   ID < 3897.5 : -1 (6/0) [3/0]
|   |   |   |   |   |   |   |   |   |   |   |   |   |   |   |   |   |   |   |   |   |   |   |   |   |   |   |   |   |   |   |   |   |   |   |   |   |   |   |   |   |   |   |   |   |   |   |   |   |   |   |   ID >= 3897.5 : -0.47 (8/0.48) [7/0.89]
|   |   |   |   |   |   |   |   |   |   |   |   |   |   |   |   |   |   |   |   |   |   |   |   |   |   |   |   |   |   |   |   |   |   |   |   |   |   |   |   |   |   |   |   |   |   |   |   |   |   |   ID >= 3912.5 : 0 (4/0.5) [1/0]
|   |   |   |   |   |   |   |   |   |   |   |   |   |   |   |   |   |   |   |   |   |   |   |   |   |   |   |   |   |   |   |   |   |   |   |   |   |   |   |   |   |   |   |   |   |   |   |   |   ID >= 3917.5 : 0.4 (16/0.5) [9/0.9]
|   |   |   |   |   |   |   |   |   |   |   |   |   |   |   |   |   |   |   |   |   |   |   |   |   |   |   |   |   |   |   |   |   |   |   |   |   |   |   |   |   |   |   |   |   |   |   |   ID >= 3942.5
|   |   |   |   |   |   |   |   |   |   |   |   |   |   |   |   |   |   |   |   |   |   |   |   |   |   |   |   |   |   |   |   |   |   |   |   |   |   |   |   |   |   |   |   |   |   |   |   |   ID < 3959.5 : -0.94 (13/0.07) [4/0.01]
|   |   |   |   |   |   |   |   |   |   |   |   |   |   |   |   |   |   |   |   |   |   |   |   |   |   |   |   |   |   |   |   |   |   |   |   |   |   |   |   |   |   |   |   |   |   |   |   |   ID >= 3959.5 : 0 (2/1) [1/0]
|   |   |   |   |   |   |   |   |   |   |   |   |   |   |   |   |   |   |   |   |   |   |   |   |   |   |   |   |   |   |   |   |   |   |   |   |   |   |   |   |   |   |   |   |   |   |   ID >= 3962.5 : 0.28 (17/0.56) [12/0.86]
|   |   |   |   |   |   |   |   |   |   |   |   |   |   |   |   |   |   |   |   |   |   |   |   |   |   |   |   |   |   |   |   |   |   |   |   |   |   |   |   |   |   |   |   |   |   ID >= 3992
|   |   |   |   |   |   |   |   |   |   |   |   |   |   |   |   |   |   |   |   |   |   |   |   |   |   |   |   |   |   |   |   |   |   |   |   |   |   |   |   |   |   |   |   |   |   |   ID < 4009 : -0.94 (12/0) [5/0.2]
|   |   |   |   |   |   |   |   |   |   |   |   |   |   |   |   |   |   |   |   |   |   |   |   |   |   |   |   |   |   |   |   |   |   |   |   |   |   |   |   |   |   |   |   |   |   |   ID >= 4009 : 0.11 (15/0.73) [4/0.85]
|   |   |   |   |   |   |   |   |   |   |   |   |   |   |   |   |   |   |   |   |   |   |   |   |   |   |   |   |   |   |   |   |   |   |   |   |   |   |   |   |   |   |   |   |   ID >= 4027.5
|   |   |   |   |   |   |   |   |   |   |   |   |   |   |   |   |   |   |   |   |   |   |   |   |   |   |   |   |   |   |   |   |   |   |   |   |   |   |   |   |   |   |   |   |   |   ID < 4030.5 : 1 (3/0) [0/0]
|   |   |   |   |   |   |   |   |   |   |   |   |   |   |   |   |   |   |   |   |   |   |   |   |   |   |   |   |   |   |   |   |   |   |   |   |   |   |   |   |   |   |   |   |   |   ID >= 4030.5
|   |   |   |   |   |   |   |   |   |   |   |   |   |   |   |   |   |   |   |   |   |   |   |   |   |   |   |   |   |   |   |   |   |   |   |   |   |   |   |   |   |   |   |   |   |   |   ID < 4035 : -0.25 (2/0.25) [2/1.25]
|   |   |   |   |   |   |   |   |   |   |   |   |   |   |   |   |   |   |   |   |   |   |   |   |   |   |   |   |   |   |   |   |   |   |   |   |   |   |   |   |   |   |   |   |   |   |   ID >= 4035
|   |   |   |   |   |   |   |   |   |   |   |   |   |   |   |   |   |   |   |   |   |   |   |   |   |   |   |   |   |   |   |   |   |   |   |   |   |   |   |   |   |   |   |   |   |   |   |   ID < 4037.5 : 1 (2/0) [1/0]
|   |   |   |   |   |   |   |   |   |   |   |   |   |   |   |   |   |   |   |   |   |   |   |   |   |   |   |   |   |   |   |   |   |   |   |   |   |   |   |   |   |   |   |   |   |   |   |   ID >= 4037.5 : 0.33 (3/0.22) [0/0]
|   |   |   |   |   |   |   |   |   |   |   |   |   |   |   |   |   |   |   |   |   |   |   |   |   |   |   |   |   |   |   |   |   |   |   |   |   |   |   |   |   |   |   |   ID >= 4040.5
|   |   |   |   |   |   |   |   |   |   |   |   |   |   |   |   |   |   |   |   |   |   |   |   |   |   |   |   |   |   |   |   |   |   |   |   |   |   |   |   |   |   |   |   |   ID < 4057.5
|   |   |   |   |   |   |   |   |   |   |   |   |   |   |   |   |   |   |   |   |   |   |   |   |   |   |   |   |   |   |   |   |   |   |   |   |   |   |   |   |   |   |   |   |   |   ID < 4049.5 : -1 (6/0) [3/0]
|   |   |   |   |   |   |   |   |   |   |   |   |   |   |   |   |   |   |   |   |   |   |   |   |   |   |   |   |   |   |   |   |   |   |   |   |   |   |   |   |   |   |   |   |   |   ID >= 4049.5 : -0.88 (7/0.12) [1/0.02]
|   |   |   |   |   |   |   |   |   |   |   |   |   |   |   |   |   |   |   |   |   |   |   |   |   |   |   |   |   |   |   |   |   |   |   |   |   |   |   |   |   |   |   |   |   ID >= 4057.5
|   |   |   |   |   |   |   |   |   |   |   |   |   |   |   |   |   |   |   |   |   |   |   |   |   |   |   |   |   |   |   |   |   |   |   |   |   |   |   |   |   |   |   |   |   |   ID < 4061.5 : 0.25 (3/0.67) [1/1]
|   |   |   |   |   |   |   |   |   |   |   |   |   |   |   |   |   |   |   |   |   |   |   |   |   |   |   |   |   |   |   |   |   |   |   |   |   |   |   |   |   |   |   |   |   |   ID >= 4061.5 : -1 (2/0) [0/0]
|   |   |   |   |   |   |   |   |   |   |   |   |   |   |   |   |   |   |   |   |   |   |   |   |   |   |   |   |   |   |   |   |   |   |   |   |   |   |   |   |   |   |   ID >= 4063.5
|   |   |   |   |   |   |   |   |   |   |   |   |   |   |   |   |   |   |   |   |   |   |   |   |   |   |   |   |   |   |   |   |   |   |   |   |   |   |   |   |   |   |   |   ID < 4083.5
|   |   |   |   |   |   |   |   |   |   |   |   |   |   |   |   |   |   |   |   |   |   |   |   |   |   |   |   |   |   |   |   |   |   |   |   |   |   |   |   |   |   |   |   |   ID < 4081.5 : 0.39 (12/0.41) [6/0.9]
|   |   |   |   |   |   |   |   |   |   |   |   |   |   |   |   |   |   |   |   |   |   |   |   |   |   |   |   |   |   |   |   |   |   |   |   |   |   |   |   |   |   |   |   |   ID >= 4081.5 : -1 (2/0) [0/0]
|   |   |   |   |   |   |   |   |   |   |   |   |   |   |   |   |   |   |   |   |   |   |   |   |   |   |   |   |   |   |   |   |   |   |   |   |   |   |   |   |   |   |   |   ID >= 4083.5
|   |   |   |   |   |   |   |   |   |   |   |   |   |   |   |   |   |   |   |   |   |   |   |   |   |   |   |   |   |   |   |   |   |   |   |   |   |   |   |   |   |   |   |   |   ID < 4086.5 : 1 (3/0) [0/0]
|   |   |   |   |   |   |   |   |   |   |   |   |   |   |   |   |   |   |   |   |   |   |   |   |   |   |   |   |   |   |   |   |   |   |   |   |   |   |   |   |   |   |   |   |   ID >= 4086.5 : 0 (3/0.22) [1/1.78]
|   |   |   |   |   |   |   |   |   |   |   |   |   |   |   |   |   |   |   |   |   |   |   |   |   |   |   |   |   |   |   |   |   |   |   |   |   |   |   |   |   |   ID >= 4090.5 : -0.88 (14/0.12) [3/0.02]
|   |   |   |   |   |   |   |   |   |   |   |   |   |   |   |   |   |   |   |   |   |   |   |   |   |   |   |   |   |   |   |   |   |   |   |   |   |   |   |   |   ID >= 4107.5 : 0.28 (23/0.66) [13/0.78]
|   |   |   |   |   |   |   |   |   |   |   |   |   |   |   |   |   |   |   |   |   |   |   |   |   |   |   |   |   |   |   |   |   |   |   |   |   |   |   |   ID >= 4144
|   |   |   |   |   |   |   |   |   |   |   |   |   |   |   |   |   |   |   |   |   |   |   |   |   |   |   |   |   |   |   |   |   |   |   |   |   |   |   |   |   ID < 4163.5 : -0.8 (14/0.07) [6/0.77]
|   |   |   |   |   |   |   |   |   |   |   |   |   |   |   |   |   |   |   |   |   |   |   |   |   |   |   |   |   |   |   |   |   |   |   |   |   |   |   |   |   ID >= 4163.5 : 0 (5/0.64) [4/1.06]
|   |   |   |   |   |   |   |   |   |   |   |   |   |   |   |   |   |   |   |   |   |   |   |   |   |   |   |   |   |   |   |   |   |   |   |   |   |   |   ID >= 4172.5 : 0.4 (13/0.56) [7/0.85]
|   |   |   |   |   |   |   |   |   |   |   |   |   |   |   |   |   |   |   |   |   |   |   |   |   |   |   |   |   |   |   |   |   |   |   |   |   |   ID >= 4192.5 : -0.89 (13/0.07) [5/0.18]
|   |   |   |   |   |   |   |   |   |   |   |   |   |   |   |   |   |   |   |   |   |   |   |   |   |   |   |   |   |   |   |   |   |   |   |   |   ID >= 4210.5
|   |   |   |   |   |   |   |   |   |   |   |   |   |   |   |   |   |   |   |   |   |   |   |   |   |   |   |   |   |   |   |   |   |   |   |   |   |   retweeted_status < 0.5 : -0.08 (11/0.73) [2/0.5]
|   |   |   |   |   |   |   |   |   |   |   |   |   |   |   |   |   |   |   |   |   |   |   |   |   |   |   |   |   |   |   |   |   |   |   |   |   |   retweeted_status >= 0.5 : 0.42 (15/0.52) [4/1.28]
|   |   |   |   |   |   |   |   |   |   |   |   |   |   |   |   |   |   |   |   |   |   |   |   |   |   |   |   |   |   |   |   |   |   |   |   ID >= 4242.5 : -0.88 (12/0.14) [5/0.03]
|   |   |   |   |   |   |   |   |   |   |   |   |   |   |   |   |   |   |   |   |   |   |   |   |   |   |   |   |   |   |   |   |   |   |   ID >= 4259.5 : 0.26 (21/0.53) [10/1.17]
|   |   |   |   |   |   |   |   |   |   |   |   |   |   |   |   |   |   |   |   |   |   |   |   |   |   |   |   |   |   |   |   |   |   ID >= 4290.5
|   |   |   |   |   |   |   |   |   |   |   |   |   |   |   |   |   |   |   |   |   |   |   |   |   |   |   |   |   |   |   |   |   |   |   ID < 4307.5 : -0.94 (12/0.08) [5/0.01]
|   |   |   |   |   |   |   |   |   |   |   |   |   |   |   |   |   |   |   |   |   |   |   |   |   |   |   |   |   |   |   |   |   |   |   ID >= 4307.5 : -0.17 (6/0.81) [0/0]
|   |   |   |   |   |   |   |   |   |   |   |   |   |   |   |   |   |   |   |   |   |   |   |   |   |   |   ID >= 4313.5
|   |   |   |   |   |   |   |   |   |   |   |   |   |   |   |   |   |   |   |   |   |   |   |   |   |   |   |   ID < 4331.5 : 0.39 (14/0.39) [4/1.25]
|   |   |   |   |   |   |   |   |   |   |   |   |   |   |   |   |   |   |   |   |   |   |   |   |   |   |   |   ID >= 4331.5 : -0.4 (3/0.67) [2/1]
|   |   |   |   |   |   |   |   |   |   |   |   |   |   |   |   |   |   |   |   |   |   |   |   |   |   ID >= 4337
|   |   |   |   |   |   |   |   |   |   |   |   |   |   |   |   |   |   |   |   |   |   |   |   |   |   |   ID < 4742.5
|   |   |   |   |   |   |   |   |   |   |   |   |   |   |   |   |   |   |   |   |   |   |   |   |   |   |   |   ID < 4532.5
|   |   |   |   |   |   |   |   |   |   |   |   |   |   |   |   |   |   |   |   |   |   |   |   |   |   |   |   |   ID < 4406
|   |   |   |   |   |   |   |   |   |   |   |   |   |   |   |   |   |   |   |   |   |   |   |   |   |   |   |   |   |   ID < 4368.5
|   |   |   |   |   |   |   |   |   |   |   |   |   |   |   |   |   |   |   |   |   |   |   |   |   |   |   |   |   |   |   ID < 4352 : -0.93 (8/0) [7/0.14]
|   |   |   |   |   |   |   |   |   |   |   |   |   |   |   |   |   |   |   |   |   |   |   |   |   |   |   |   |   |   |   ID >= 4352 : 0.12 (10/0.56) [7/0.9]
|   |   |   |   |   |   |   |   |   |   |   |   |   |   |   |   |   |   |   |   |   |   |   |   |   |   |   |   |   |   ID >= 4368.5 : -0.84 (30/0.23) [7/0.04]
|   |   |   |   |   |   |   |   |   |   |   |   |   |   |   |   |   |   |   |   |   |   |   |   |   |   |   |   |   ID >= 4406
|   |   |   |   |   |   |   |   |   |   |   |   |   |   |   |   |   |   |   |   |   |   |   |   |   |   |   |   |   |   ID < 4436.5 : 0.26 (20/0.63) [11/0.88]
|   |   |   |   |   |   |   |   |   |   |   |   |   |   |   |   |   |   |   |   |   |   |   |   |   |   |   |   |   |   ID >= 4436.5
|   |   |   |   |   |   |   |   |   |   |   |   |   |   |   |   |   |   |   |   |   |   |   |   |   |   |   |   |   |   |   ID < 4460 : -0.7 (20/0.13) [3/2.29]
|   |   |   |   |   |   |   |   |   |   |   |   |   |   |   |   |   |   |   |   |   |   |   |   |   |   |   |   |   |   |   ID >= 4460
|   |   |   |   |   |   |   |   |   |   |   |   |   |   |   |   |   |   |   |   |   |   |   |   |   |   |   |   |   |   |   |   ID < 4468.5
|   |   |   |   |   |   |   |   |   |   |   |   |   |   |   |   |   |   |   |   |   |   |   |   |   |   |   |   |   |   |   |   |   ID < 4466.5 : 0 (4/0.25) [3/1.58]
|   |   |   |   |   |   |   |   |   |   |   |   |   |   |   |   |   |   |   |   |   |   |   |   |   |   |   |   |   |   |   |   |   ID >= 4466.5 : 1 (2/0) [0/0]
|   |   |   |   |   |   |   |   |   |   |   |   |   |   |   |   |   |   |   |   |   |   |   |   |   |   |   |   |   |   |   |   ID >= 4468.5
|   |   |   |   |   |   |   |   |   |   |   |   |   |   |   |   |   |   |   |   |   |   |   |   |   |   |   |   |   |   |   |   |   ID < 4502.5
|   |   |   |   |   |   |   |   |   |   |   |   |   |   |   |   |   |   |   |   |   |   |   |   |   |   |   |   |   |   |   |   |   |   ID < 4485.5
|   |   |   |   |   |   |   |   |   |   |   |   |   |   |   |   |   |   |   |   |   |   |   |   |   |   |   |   |   |   |   |   |   |   |   ID < 4470.5 : -1 (2/0) [0/0]
|   |   |   |   |   |   |   |   |   |   |   |   |   |   |   |   |   |   |   |   |   |   |   |   |   |   |   |   |   |   |   |   |   |   |   ID >= 4470.5 : 0.53 (8/0.73) [7/0.32]
|   |   |   |   |   |   |   |   |   |   |   |   |   |   |   |   |   |   |   |   |   |   |   |   |   |   |   |   |   |   |   |   |   |   ID >= 4485.5 : -0.94 (9/0) [8/0.13]
|   |   |   |   |   |   |   |   |   |   |   |   |   |   |   |   |   |   |   |   |   |   |   |   |   |   |   |   |   |   |   |   |   ID >= 4502.5 : 0.23 (19/0.8) [11/0.57]
|   |   |   |   |   |   |   |   |   |   |   |   |   |   |   |   |   |   |   |   |   |   |   |   |   |   |   |   ID >= 4532.5
|   |   |   |   |   |   |   |   |   |   |   |   |   |   |   |   |   |   |   |   |   |   |   |   |   |   |   |   |   ID < 4549.5 : -0.94 (13/0) [4/0.25]
|   |   |   |   |   |   |   |   |   |   |   |   |   |   |   |   |   |   |   |   |   |   |   |   |   |   |   |   |   ID >= 4549.5
|   |   |   |   |   |   |   |   |   |   |   |   |   |   |   |   |   |   |   |   |   |   |   |   |   |   |   |   |   |   ID < 4560.5 : 0.18 (7/0.53) [4/1.15]
|   |   |   |   |   |   |   |   |   |   |   |   |   |   |   |   |   |   |   |   |   |   |   |   |   |   |   |   |   |   ID >= 4560.5
|   |   |   |   |   |   |   |   |   |   |   |   |   |   |   |   |   |   |   |   |   |   |   |   |   |   |   |   |   |   |   ID < 4597
|   |   |   |   |   |   |   |   |   |   |   |   |   |   |   |   |   |   |   |   |   |   |   |   |   |   |   |   |   |   |   |   ID < 4577 : -0.94 (12/0) [4/0.25]
|   |   |   |   |   |   |   |   |   |   |   |   |   |   |   |   |   |   |   |   |   |   |   |   |   |   |   |   |   |   |   |   ID >= 4577 : -0.75 (12/0.14) [8/0.53]
|   |   |   |   |   |   |   |   |   |   |   |   |   |   |   |   |   |   |   |   |   |   |   |   |   |   |   |   |   |   |   ID >= 4597
|   |   |   |   |   |   |   |   |   |   |   |   |   |   |   |   |   |   |   |   |   |   |   |   |   |   |   |   |   |   |   |   ID < 4603.5 : 0 (4/0.69) [3/1.23]
|   |   |   |   |   |   |   |   |   |   |   |   |   |   |   |   |   |   |   |   |   |   |   |   |   |   |   |   |   |   |   |   ID >= 4603.5
|   |   |   |   |   |   |   |   |   |   |   |   |   |   |   |   |   |   |   |   |   |   |   |   |   |   |   |   |   |   |   |   |   ID < 4701.5
|   |   |   |   |   |   |   |   |   |   |   |   |   |   |   |   |   |   |   |   |   |   |   |   |   |   |   |   |   |   |   |   |   |   ID < 4690.5
|   |   |   |   |   |   |   |   |   |   |   |   |   |   |   |   |   |   |   |   |   |   |   |   |   |   |   |   |   |   |   |   |   |   |   ID < 4674
|   |   |   |   |   |   |   |   |   |   |   |   |   |   |   |   |   |   |   |   |   |   |   |   |   |   |   |   |   |   |   |   |   |   |   |   ID < 4669.5
|   |   |   |   |   |   |   |   |   |   |   |   |   |   |   |   |   |   |   |   |   |   |   |   |   |   |   |   |   |   |   |   |   |   |   |   |   retweeted_status < 0.5 : -1 (13/0) [5/0]
|   |   |   |   |   |   |   |   |   |   |   |   |   |   |   |   |   |   |   |   |   |   |   |   |   |   |   |   |   |   |   |   |   |   |   |   |   retweeted_status >= 0.5
|   |   |   |   |   |   |   |   |   |   |   |   |   |   |   |   |   |   |   |   |   |   |   |   |   |   |   |   |   |   |   |   |   |   |   |   |   |   ID < 4627
|   |   |   |   |   |   |   |   |   |   |   |   |   |   |   |   |   |   |   |   |   |   |   |   |   |   |   |   |   |   |   |   |   |   |   |   |   |   |   ID < 4619.5 : -0.9 (7/0.12) [3/0.02]
|   |   |   |   |   |   |   |   |   |   |   |   |   |   |   |   |   |   |   |   |   |   |   |   |   |   |   |   |   |   |   |   |   |   |   |   |   |   |   ID >= 4619.5 : 0.4 (5/0.64) [0/0]
|   |   |   |   |   |   |   |   |   |   |   |   |   |   |   |   |   |   |   |   |   |   |   |   |   |   |   |   |   |   |   |   |   |   |   |   |   |   ID >= 4627
|   |   |   |   |   |   |   |   |   |   |   |   |   |   |   |   |   |   |   |   |   |   |   |   |   |   |   |   |   |   |   |   |   |   |   |   |   |   |   ID < 4644 : -0.85 (10/0.09) [3/0.28]
|   |   |   |   |   |   |   |   |   |   |   |   |   |   |   |   |   |   |   |   |   |   |   |   |   |   |   |   |   |   |   |   |   |   |   |   |   |   |   ID >= 4644 : -0.5 (11/0.61) [9/0.48]
|   |   |   |   |   |   |   |   |   |   |   |   |   |   |   |   |   |   |   |   |   |   |   |   |   |   |   |   |   |   |   |   |   |   |   |   ID >= 4669.5 : 0.25 (4/0.69) [0/0]
|   |   |   |   |   |   |   |   |   |   |   |   |   |   |   |   |   |   |   |   |   |   |   |   |   |   |   |   |   |   |   |   |   |   |   ID >= 4674
|   |   |   |   |   |   |   |   |   |   |   |   |   |   |   |   |   |   |   |   |   |   |   |   |   |   |   |   |   |   |   |   |   |   |   |   retweeted_status < 0.5 : -0.5 (2/0.25) [0/0]
|   |   |   |   |   |   |   |   |   |   |   |   |   |   |   |   |   |   |   |   |   |   |   |   |   |   |   |   |   |   |   |   |   |   |   |   retweeted_status >= 0.5 : -1 (11/0) [4/0]
|   |   |   |   |   |   |   |   |   |   |   |   |   |   |   |   |   |   |   |   |   |   |   |   |   |   |   |   |   |   |   |   |   |   ID >= 4690.5 : 0.18 (8/0.69) [3/0.73]
|   |   |   |   |   |   |   |   |   |   |   |   |   |   |   |   |   |   |   |   |   |   |   |   |   |   |   |   |   |   |   |   |   ID >= 4701.5
|   |   |   |   |   |   |   |   |   |   |   |   |   |   |   |   |   |   |   |   |   |   |   |   |   |   |   |   |   |   |   |   |   |   ID < 4720 : -0.89 (16/0.06) [2/0.44]
|   |   |   |   |   |   |   |   |   |   |   |   |   |   |   |   |   |   |   |   |   |   |   |   |   |   |   |   |   |   |   |   |   |   ID >= 4720
|   |   |   |   |   |   |   |   |   |   |   |   |   |   |   |   |   |   |   |   |   |   |   |   |   |   |   |   |   |   |   |   |   |   |   ID < 4725 : 0.4 (3/0.89) [2/0.28]
|   |   |   |   |   |   |   |   |   |   |   |   |   |   |   |   |   |   |   |   |   |   |   |   |   |   |   |   |   |   |   |   |   |   |   ID >= 4725
|   |   |   |   |   |   |   |   |   |   |   |   |   |   |   |   |   |   |   |   |   |   |   |   |   |   |   |   |   |   |   |   |   |   |   |   ID < 4735.5 : -0.82 (5/0.16) [6/0.14]
|   |   |   |   |   |   |   |   |   |   |   |   |   |   |   |   |   |   |   |   |   |   |   |   |   |   |   |   |   |   |   |   |   |   |   |   ID >= 4735.5 : -1 (5/0) [2/0]
|   |   |   |   |   |   |   |   |   |   |   |   |   |   |   |   |   |   |   |   |   |   |   |   |   |   |   ID >= 4742.5
|   |   |   |   |   |   |   |   |   |   |   |   |   |   |   |   |   |   |   |   |   |   |   |   |   |   |   |   ID < 5075
|   |   |   |   |   |   |   |   |   |   |   |   |   |   |   |   |   |   |   |   |   |   |   |   |   |   |   |   |   ID < 5049.5
|   |   |   |   |   |   |   |   |   |   |   |   |   |   |   |   |   |   |   |   |   |   |   |   |   |   |   |   |   |   ID < 5026.5
|   |   |   |   |   |   |   |   |   |   |   |   |   |   |   |   |   |   |   |   |   |   |   |   |   |   |   |   |   |   |   ID < 5000
|   |   |   |   |   |   |   |   |   |   |   |   |   |   |   |   |   |   |   |   |   |   |   |   |   |   |   |   |   |   |   |   ID < 4976.5
|   |   |   |   |   |   |   |   |   |   |   |   |   |   |   |   |   |   |   |   |   |   |   |   |   |   |   |   |   |   |   |   |   ID < 4944.5
|   |   |   |   |   |   |   |   |   |   |   |   |   |   |   |   |   |   |   |   |   |   |   |   |   |   |   |   |   |   |   |   |   |   ID < 4922
|   |   |   |   |   |   |   |   |   |   |   |   |   |   |   |   |   |   |   |   |   |   |   |   |   |   |   |   |   |   |   |   |   |   |   ID < 4896.5
|   |   |   |   |   |   |   |   |   |   |   |   |   |   |   |   |   |   |   |   |   |   |   |   |   |   |   |   |   |   |   |   |   |   |   |   ID < 4873.5
|   |   |   |   |   |   |   |   |   |   |   |   |   |   |   |   |   |   |   |   |   |   |   |   |   |   |   |   |   |   |   |   |   |   |   |   |   ID < 4853.5 : -0.37 (68/0.8) [43/0.55]
|   |   |   |   |   |   |   |   |   |   |   |   |   |   |   |   |   |   |   |   |   |   |   |   |   |   |   |   |   |   |   |   |   |   |   |   |   ID >= 4853.5
|   |   |   |   |   |   |   |   |   |   |   |   |   |   |   |   |   |   |   |   |   |   |   |   |   |   |   |   |   |   |   |   |   |   |   |   |   |   ID < 4869.5 : 0 (13/0.69) [3/1.06]
|   |   |   |   |   |   |   |   |   |   |   |   |   |   |   |   |   |   |   |   |   |   |   |   |   |   |   |   |   |   |   |   |   |   |   |   |   |   ID >= 4869.5 : 0.75 (3/0.22) [1/0.11]
|   |   |   |   |   |   |   |   |   |   |   |   |   |   |   |   |   |   |   |   |   |   |   |   |   |   |   |   |   |   |   |   |   |   |   |   ID >= 4873.5
|   |   |   |   |   |   |   |   |   |   |   |   |   |   |   |   |   |   |   |   |   |   |   |   |   |   |   |   |   |   |   |   |   |   |   |   |   ID < 4890.5
|   |   |   |   |   |   |   |   |   |   |   |   |   |   |   |   |   |   |   |   |   |   |   |   |   |   |   |   |   |   |   |   |   |   |   |   |   |   retweeted_status < 0.5
|   |   |   |   |   |   |   |   |   |   |   |   |   |   |   |   |   |   |   |   |   |   |   |   |   |   |   |   |   |   |   |   |   |   |   |   |   |   |   ID < 4882 : -1 (2/0) [2/0]
|   |   |   |   |   |   |   |   |   |   |   |   |   |   |   |   |   |   |   |   |   |   |   |   |   |   |   |   |   |   |   |   |   |   |   |   |   |   |   ID >= 4882 : -0.5 (2/0.25) [0/0]
|   |   |   |   |   |   |   |   |   |   |   |   |   |   |   |   |   |   |   |   |   |   |   |   |   |   |   |   |   |   |   |   |   |   |   |   |   |   retweeted_status >= 0.5 : -1 (7/0) [4/0]
|   |   |   |   |   |   |   |   |   |   |   |   |   |   |   |   |   |   |   |   |   |   |   |   |   |   |   |   |   |   |   |   |   |   |   |   |   ID >= 4890.5 : -0.17 (4/0.69) [2/1.06]
|   |   |   |   |   |   |   |   |   |   |   |   |   |   |   |   |   |   |   |   |   |   |   |   |   |   |   |   |   |   |   |   |   |   |   ID >= 4896.5 : 0.36 (14/0.67) [11/0.59]
|   |   |   |   |   |   |   |   |   |   |   |   |   |   |   |   |   |   |   |   |   |   |   |   |   |   |   |   |   |   |   |   |   |   ID >= 4922 : -0.74 (16/0.46) [7/0.15]
|   |   |   |   |   |   |   |   |   |   |   |   |   |   |   |   |   |   |   |   |   |   |   |   |   |   |   |   |   |   |   |   |   ID >= 4944.5 : 0.34 (23/0.73) [9/0.49]
|   |   |   |   |   |   |   |   |   |   |   |   |   |   |   |   |   |   |   |   |   |   |   |   |   |   |   |   |   |   |   |   ID >= 4976.5
|   |   |   |   |   |   |   |   |   |   |   |   |   |   |   |   |   |   |   |   |   |   |   |   |   |   |   |   |   |   |   |   |   ID < 4994.5 : -0.89 (13/0.07) [5/0.18]
|   |   |   |   |   |   |   |   |   |   |   |   |   |   |   |   |   |   |   |   |   |   |   |   |   |   |   |   |   |   |   |   |   ID >= 4994.5 : 0 (4/0.69) [1/1.56]
|   |   |   |   |   |   |   |   |   |   |   |   |   |   |   |   |   |   |   |   |   |   |   |   |   |   |   |   |   |   |   ID >= 5000 : 0.3 (18/0.56) [9/0.85]
|   |   |   |   |   |   |   |   |   |   |   |   |   |   |   |   |   |   |   |   |   |   |   |   |   |   |   |   |   |   ID >= 5026.5
|   |   |   |   |   |   |   |   |   |   |   |   |   |   |   |   |   |   |   |   |   |   |   |   |   |   |   |   |   |   |   ID < 5043 : -0.94 (12/0) [4/0.25]
|   |   |   |   |   |   |   |   |   |   |   |   |   |   |   |   |   |   |   |   |   |   |   |   |   |   |   |   |   |   |   ID >= 5043
|   |   |   |   |   |   |   |   |   |   |   |   |   |   |   |   |   |   |   |   |   |   |   |   |   |   |   |   |   |   |   |   ID < 5047.5 : 0 (3/0.67) [2/1]
|   |   |   |   |   |   |   |   |   |   |   |   |   |   |   |   |   |   |   |   |   |   |   |   |   |   |   |   |   |   |   |   ID >= 5047.5 : -1 (2/0) [0/0]
|   |   |   |   |   |   |   |   |   |   |   |   |   |   |   |   |   |   |   |   |   |   |   |   |   |   |   |   |   ID >= 5049.5
|   |   |   |   |   |   |   |   |   |   |   |   |   |   |   |   |   |   |   |   |   |   |   |   |   |   |   |   |   |   ID < 5069.5 : 0.25 (15/0.6) [5/0.96]
|   |   |   |   |   |   |   |   |   |   |   |   |   |   |   |   |   |   |   |   |   |   |   |   |   |   |   |   |   |   ID >= 5069.5 : 0.8 (5/0.16) [0/0]
|   |   |   |   |   |   |   |   |   |   |   |   |   |   |   |   |   |   |   |   |   |   |   |   |   |   |   |   ID >= 5075
|   |   |   |   |   |   |   |   |   |   |   |   |   |   |   |   |   |   |   |   |   |   |   |   |   |   |   |   |   ID < 5092.5 : -0.89 (12/0.08) [6/0.15]
|   |   |   |   |   |   |   |   |   |   |   |   |   |   |   |   |   |   |   |   |   |   |   |   |   |   |   |   |   ID >= 5092.5 : 0 (13/0.75) [3/0.9]
|   |   |   |   |   |   |   |   |   |   |   |   ID >= 5108.5
|   |   |   |   |   |   |   |   |   |   |   |   |   ID < 5114 : 0.8 (2/0) [3/0.33]
|   |   |   |   |   |   |   |   |   |   |   |   |   ID >= 5114 : 0.25 (6/0.56) [6/0.83]
|   |   |   |   |   |   |   |   |   |   |   ID >= 5126 : -0.66 (55/0.35) [28/0.62]
|   |   |   |   |   |   |   |   |   |   ID >= 5208.5
|   |   |   |   |   |   |   |   |   |   |   ID < 5234.5
|   |   |   |   |   |   |   |   |   |   |   |   retweeted_status < 0.5 : 0.71 (7/0.2) [0/0]
|   |   |   |   |   |   |   |   |   |   |   |   retweeted_status >= 0.5 : 0.22 (10/0.61) [8/0.89]
|   |   |   |   |   |   |   |   |   |   |   ID >= 5234.5
|   |   |   |   |   |   |   |   |   |   |   |   ID < 5252.5 : -0.89 (11/0.08) [7/0.13]
|   |   |   |   |   |   |   |   |   |   |   |   ID >= 5252.5
|   |   |   |   |   |   |   |   |   |   |   |   |   ID < 5276.5 : 0.25 (18/0.58) [6/1.16]
|   |   |   |   |   |   |   |   |   |   |   |   |   ID >= 5276.5
|   |   |   |   |   |   |   |   |   |   |   |   |   |   ID < 5320.5
|   |   |   |   |   |   |   |   |   |   |   |   |   |   |   ID < 5285.5
|   |   |   |   |   |   |   |   |   |   |   |   |   |   |   |   ID < 5279 : -1 (2/0) [0/0]
|   |   |   |   |   |   |   |   |   |   |   |   |   |   |   |   ID >= 5279 : 0.71 (4/0.25) [3/0.25]
|   |   |   |   |   |   |   |   |   |   |   |   |   |   |   ID >= 5285.5
|   |   |   |   |   |   |   |   |   |   |   |   |   |   |   |   ID < 5294 : -1 (8/0) [0/0]
|   |   |   |   |   |   |   |   |   |   |   |   |   |   |   |   ID >= 5294 : -0.63 (10/0.21) [17/0.61]
|   |   |   |   |   |   |   |   |   |   |   |   |   |   ID >= 5320.5
|   |   |   |   |   |   |   |   |   |   |   |   |   |   |   ID < 5450
|   |   |   |   |   |   |   |   |   |   |   |   |   |   |   |   ID < 5425.5
|   |   |   |   |   |   |   |   |   |   |   |   |   |   |   |   |   ID < 5402.5
|   |   |   |   |   |   |   |   |   |   |   |   |   |   |   |   |   |   ID < 5380.5
|   |   |   |   |   |   |   |   |   |   |   |   |   |   |   |   |   |   |   ID < 5347.5
|   |   |   |   |   |   |   |   |   |   |   |   |   |   |   |   |   |   |   |   ID < 5341.5
|   |   |   |   |   |   |   |   |   |   |   |   |   |   |   |   |   |   |   |   |   ID < 5339.5
|   |   |   |   |   |   |   |   |   |   |   |   |   |   |   |   |   |   |   |   |   |   ID < 5331.5
|   |   |   |   |   |   |   |   |   |   |   |   |   |   |   |   |   |   |   |   |   |   |   ID < 5329.5 : 0.22 (6/0.47) [3/0.92]
|   |   |   |   |   |   |   |   |   |   |   |   |   |   |   |   |   |   |   |   |   |   |   ID >= 5329.5 : -1 (2/0) [0/0]
|   |   |   |   |   |   |   |   |   |   |   |   |   |   |   |   |   |   |   |   |   |   ID >= 5331.5 : 0.75 (5/0.24) [3/0.16]
|   |   |   |   |   |   |   |   |   |   |   |   |   |   |   |   |   |   |   |   |   ID >= 5339.5 : -1 (2/0) [0/0]
|   |   |   |   |   |   |   |   |   |   |   |   |   |   |   |   |   |   |   |   ID >= 5341.5
|   |   |   |   |   |   |   |   |   |   |   |   |   |   |   |   |   |   |   |   |   ID < 5344.5 : 1 (2/0) [1/0]
|   |   |   |   |   |   |   |   |   |   |   |   |   |   |   |   |   |   |   |   |   ID >= 5344.5 : 0.33 (2/0.25) [1/0.25]
|   |   |   |   |   |   |   |   |   |   |   |   |   |   |   |   |   |   |   ID >= 5347.5
|   |   |   |   |   |   |   |   |   |   |   |   |   |   |   |   |   |   |   |   ID < 5364.5 : -0.94 (13/0.07) [4/0.01]
|   |   |   |   |   |   |   |   |   |   |   |   |   |   |   |   |   |   |   |   ID >= 5364.5 : 0 (9/0.67) [7/0.86]
|   |   |   |   |   |   |   |   |   |   |   |   |   |   |   |   |   |   ID >= 5380.5
|   |   |   |   |   |   |   |   |   |   |   |   |   |   |   |   |   |   |   ID < 5398
|   |   |   |   |   |   |   |   |   |   |   |   |   |   |   |   |   |   |   |   ID < 5386.5 : 0.83 (5/0) [1/1]
|   |   |   |   |   |   |   |   |   |   |   |   |   |   |   |   |   |   |   |   ID >= 5386.5 : 0.27 (7/0.2) [4/2.22]
|   |   |   |   |   |   |   |   |   |   |   |   |   |   |   |   |   |   |   ID >= 5398 : 0.2 (3/0.22) [2/1.11]
|   |   |   |   |   |   |   |   |   |   |   |   |   |   |   |   |   ID >= 5402.5
|   |   |   |   |   |   |   |   |   |   |   |   |   |   |   |   |   |   ID < 5418
|   |   |   |   |   |   |   |   |   |   |   |   |   |   |   |   |   |   |   retweeted_status < 0.5 : -0.75 (4/0.19) [0/0]
|   |   |   |   |   |   |   |   |   |   |   |   |   |   |   |   |   |   |   retweeted_status >= 0.5 : -1 (7/0) [4/0]
|   |   |   |   |   |   |   |   |   |   |   |   |   |   |   |   |   |   ID >= 5418 : -0.13 (4/0.69) [4/1.06]
|   |   |   |   |   |   |   |   |   |   |   |   |   |   |   |   ID >= 5425.5 : 0.33 (16/0.5) [8/1]
|   |   |   |   |   |   |   |   |   |   |   |   |   |   |   ID >= 5450
|   |   |   |   |   |   |   |   |   |   |   |   |   |   |   |   ID < 5467.5 : -0.89 (12/0.08) [6/0.15]
|   |   |   |   |   |   |   |   |   |   |   |   |   |   |   |   ID >= 5467.5
|   |   |   |   |   |   |   |   |   |   |   |   |   |   |   |   |   ID < 5499.5
|   |   |   |   |   |   |   |   |   |   |   |   |   |   |   |   |   |   ID < 5473.5
|   |   |   |   |   |   |   |   |   |   |   |   |   |   |   |   |   |   |   ID < 5471.5 : 0.25 (3/0.67) [1/1]
|   |   |   |   |   |   |   |   |   |   |   |   |   |   |   |   |   |   |   ID >= 5471.5 : -1 (2/0) [0/0]
|   |   |   |   |   |   |   |   |   |   |   |   |   |   |   |   |   |   ID >= 5473.5
|   |   |   |   |   |   |   |   |   |   |   |   |   |   |   |   |   |   |   ID < 5476.5 : 0.67 (3/0.22) [0/0]
|   |   |   |   |   |   |   |   |   |   |   |   |   |   |   |   |   |   |   ID >= 5476.5
|   |   |   |   |   |   |   |   |   |   |   |   |   |   |   |   |   |   |   |   ID < 5483.5 : -0.14 (7/0.69) [0/0]
|   |   |   |   |   |   |   |   |   |   |   |   |   |   |   |   |   |   |   |   ID >= 5483.5 : 0.5 (10/0.64) [6/0.29]
|   |   |   |   |   |   |   |   |   |   |   |   |   |   |   |   |   ID >= 5499.5
|   |   |   |   |   |   |   |   |   |   |   |   |   |   |   |   |   |   ID < 5516.5 : -0.94 (12/0.08) [5/0.01]
|   |   |   |   |   |   |   |   |   |   |   |   |   |   |   |   |   |   ID >= 5516.5
|   |   |   |   |   |   |   |   |   |   |   |   |   |   |   |   |   |   |   ID < 5548 : 0.26 (20/0.66) [11/0.8]
|   |   |   |   |   |   |   |   |   |   |   |   |   |   |   |   |   |   |   ID >= 5548
|   |   |   |   |   |   |   |   |   |   |   |   |   |   |   |   |   |   |   |   ID < 5565.5 : -0.89 (12/0.08) [6/0.15]
|   |   |   |   |   |   |   |   |   |   |   |   |   |   |   |   |   |   |   |   ID >= 5565.5
|   |   |   |   |   |   |   |   |   |   |   |   |   |   |   |   |   |   |   |   |   ID < 5600.5 : 0.26 (21/0.82) [14/0.54]
|   |   |   |   |   |   |   |   |   |   |   |   |   |   |   |   |   |   |   |   |   ID >= 5600.5
|   |   |   |   |   |   |   |   |   |   |   |   |   |   |   |   |   |   |   |   |   |   ID < 5619 : -0.78 (13/0.07) [5/0.91]
|   |   |   |   |   |   |   |   |   |   |   |   |   |   |   |   |   |   |   |   |   |   ID >= 5619
|   |   |   |   |   |   |   |   |   |   |   |   |   |   |   |   |   |   |   |   |   |   |   ID < 5652 : 0.21 (19/0.66) [14/0.79]
|   |   |   |   |   |   |   |   |   |   |   |   |   |   |   |   |   |   |   |   |   |   |   ID >= 5652
|   |   |   |   |   |   |   |   |   |   |   |   |   |   |   |   |   |   |   |   |   |   |   |   ID < 5668.5 : -0.94 (12/0) [5/0.2]
|   |   |   |   |   |   |   |   |   |   |   |   |   |   |   |   |   |   |   |   |   |   |   |   ID >= 5668.5
|   |   |   |   |   |   |   |   |   |   |   |   |   |   |   |   |   |   |   |   |   |   |   |   |   ID < 5700.5 : 0.25 (18/0.67) [14/0.73]
|   |   |   |   |   |   |   |   |   |   |   |   |   |   |   |   |   |   |   |   |   |   |   |   |   ID >= 5700.5
|   |   |   |   |   |   |   |   |   |   |   |   |   |   |   |   |   |   |   |   |   |   |   |   |   |   ID < 5814.5
|   |   |   |   |   |   |   |   |   |   |   |   |   |   |   |   |   |   |   |   |   |   |   |   |   |   |   ID < 5794.5
|   |   |   |   |   |   |   |   |   |   |   |   |   |   |   |   |   |   |   |   |   |   |   |   |   |   |   |   ID < 5783
|   |   |   |   |   |   |   |   |   |   |   |   |   |   |   |   |   |   |   |   |   |   |   |   |   |   |   |   |   ID < 5715.5 : -0.93 (9/0.1) [6/0.01]
|   |   |   |   |   |   |   |   |   |   |   |   |   |   |   |   |   |   |   |   |   |   |   |   |   |   |   |   |   ID >= 5715.5
|   |   |   |   |   |   |   |   |   |   |   |   |   |   |   |   |   |   |   |   |   |   |   |   |   |   |   |   |   |   ID < 5741.5
|   |   |   |   |   |   |   |   |   |   |   |   |   |   |   |   |   |   |   |   |   |   |   |   |   |   |   |   |   |   |   ID < 5733.5 : -0.11 (9/0.67) [9/0.96]
|   |   |   |   |   |   |   |   |   |   |   |   |   |   |   |   |   |   |   |   |   |   |   |   |   |   |   |   |   |   |   ID >= 5733.5 : 0.75 (4/0.19) [4/0.19]
|   |   |   |   |   |   |   |   |   |   |   |   |   |   |   |   |   |   |   |   |   |   |   |   |   |   |   |   |   |   ID >= 5741.5
|   |   |   |   |   |   |   |   |   |   |   |   |   |   |   |   |   |   |   |   |   |   |   |   |   |   |   |   |   |   |   ID < 5765.5
|   |   |   |   |   |   |   |   |   |   |   |   |   |   |   |   |   |   |   |   |   |   |   |   |   |   |   |   |   |   |   |   retweeted_status < 0.5 : 0.33 (2/1) [1/1]
|   |   |   |   |   |   |   |   |   |   |   |   |   |   |   |   |   |   |   |   |   |   |   |   |   |   |   |   |   |   |   |   retweeted_status >= 0.5 : -0.67 (12/0.08) [9/1.01]
|   |   |   |   |   |   |   |   |   |   |   |   |   |   |   |   |   |   |   |   |   |   |   |   |   |   |   |   |   |   |   ID >= 5765.5 : -0.06 (11/0.56) [6/1.26]
|   |   |   |   |   |   |   |   |   |   |   |   |   |   |   |   |   |   |   |   |   |   |   |   |   |   |   |   ID >= 5783
|   |   |   |   |   |   |   |   |   |   |   |   |   |   |   |   |   |   |   |   |   |   |   |   |   |   |   |   |   ID < 5790 : 0.71 (4/0.19) [3/0.23]
|   |   |   |   |   |   |   |   |   |   |   |   |   |   |   |   |   |   |   |   |   |   |   |   |   |   |   |   |   ID >= 5790 : 0 (3/0.67) [2/1]
|   |   |   |   |   |   |   |   |   |   |   |   |   |   |   |   |   |   |   |   |   |   |   |   |   |   |   ID >= 5794.5
|   |   |   |   |   |   |   |   |   |   |   |   |   |   |   |   |   |   |   |   |   |   |   |   |   |   |   |   ID < 5811.5 : -0.94 (12/0) [5/0.2]
|   |   |   |   |   |   |   |   |   |   |   |   |   |   |   |   |   |   |   |   |   |   |   |   |   |   |   |   ID >= 5811.5 : 0 (2/0.25) [1/2.25]
|   |   |   |   |   |   |   |   |   |   |   |   |   |   |   |   |   |   |   |   |   |   |   |   |   |   ID >= 5814.5
|   |   |   |   |   |   |   |   |   |   |   |   |   |   |   |   |   |   |   |   |   |   |   |   |   |   |   ID < 5824 : 0 (8/0.61) [1/1.27]
|   |   |   |   |   |   |   |   |   |   |   |   |   |   |   |   |   |   |   |   |   |   |   |   |   |   |   ID >= 5824 : 0.75 (3/0.22) [1/0.11]
|   |   |   |   ID >= 5828
|   |   |   |   |   ID < 5847.5
|   |   |   |   |   |   ID < 5845 : -0.94 (13/0.07) [4/0.01]
|   |   |   |   |   |   ID >= 5845 : 0.33 (2/0.25) [1/0.25]
|   |   |   |   |   ID >= 5847.5 : -0.94 (9/0) [8/0.13]
|   |   |   ID >= 5865 : -0.07 (86/0.8) [40/0.84]
ID >= 5990.5 : -0.57 (186/0.52) [92/0.55]

Size of the tree : 757

FilteredClassifier using weka.classifiers.trees.REPTree -M 2 -V 0.001 -N 3 -S 1919985934 -L -1 -I 0.0 on data filtered through weka.filters.unsupervised.attribute.Remove -V -R 3,4,5

Filtered Header
@relation 'cleaned_demone-weka.filters.unsupervised.attribute.Remove-V-R3,4,5'

@attribute possibly_sensitive numeric
@attribute retweeted_status numeric
@attribute reaction numeric

@data


Classifier Model

REPTree
============
 : -0.27 (4173/0.76) [2087/0.74]

Size of the tree : 1

FilteredClassifier using weka.classifiers.trees.REPTree -M 2 -V 0.001 -N 3 -S 1890548913 -L -1 -I 0.0 on data filtered through weka.filters.unsupervised.attribute.Remove -V -R 1,4,5

Filtered Header
@relation 'cleaned_demone-weka.filters.unsupervised.attribute.Remove-V-R1,4,5'

@attribute ID numeric
@attribute retweeted_status numeric
@attribute reaction numeric

@data


Classifier Model

REPTree
============

ID < 5991.5
|   ID < 5967.5
|   |   ID < 1317.5
|   |   |   ID < 1291
|   |   |   |   ID < 19.5
|   |   |   |   |   ID < 2.5 : 0.5 (2/0.25) [0/0]
|   |   |   |   |   ID >= 2.5 : -0.94 (15/0.06) [2/0]
|   |   |   |   ID >= 19.5
|   |   |   |   |   ID < 1269
|   |   |   |   |   |   ID < 1255.5
|   |   |   |   |   |   |   ID < 1212.5
|   |   |   |   |   |   |   |   ID < 1185.5
|   |   |   |   |   |   |   |   |   ID < 1167.5
|   |   |   |   |   |   |   |   |   |   ID < 1145.5
|   |   |   |   |   |   |   |   |   |   |   ID < 1117
|   |   |   |   |   |   |   |   |   |   |   |   ID < 1100.5
|   |   |   |   |   |   |   |   |   |   |   |   |   ID < 1067
|   |   |   |   |   |   |   |   |   |   |   |   |   |   ID < 1036.5
|   |   |   |   |   |   |   |   |   |   |   |   |   |   |   ID < 1017.5
|   |   |   |   |   |   |   |   |   |   |   |   |   |   |   |   ID < 997.5
|   |   |   |   |   |   |   |   |   |   |   |   |   |   |   |   |   ID < 741.5
|   |   |   |   |   |   |   |   |   |   |   |   |   |   |   |   |   |   ID < 725.5
|   |   |   |   |   |   |   |   |   |   |   |   |   |   |   |   |   |   |   ID < 692.5
|   |   |   |   |   |   |   |   |   |   |   |   |   |   |   |   |   |   |   |   ID < 676
|   |   |   |   |   |   |   |   |   |   |   |   |   |   |   |   |   |   |   |   |   ID < 643
|   |   |   |   |   |   |   |   |   |   |   |   |   |   |   |   |   |   |   |   |   |   ID < 628
|   |   |   |   |   |   |   |   |   |   |   |   |   |   |   |   |   |   |   |   |   |   |   ID < 594
|   |   |   |   |   |   |   |   |   |   |   |   |   |   |   |   |   |   |   |   |   |   |   |   ID < 574.5
|   |   |   |   |   |   |   |   |   |   |   |   |   |   |   |   |   |   |   |   |   |   |   |   |   ID < 545.5
|   |   |   |   |   |   |   |   |   |   |   |   |   |   |   |   |   |   |   |   |   |   |   |   |   |   ID < 366.5
|   |   |   |   |   |   |   |   |   |   |   |   |   |   |   |   |   |   |   |   |   |   |   |   |   |   |   ID < 349.5
|   |   |   |   |   |   |   |   |   |   |   |   |   |   |   |   |   |   |   |   |   |   |   |   |   |   |   |   ID < 329.5
|   |   |   |   |   |   |   |   |   |   |   |   |   |   |   |   |   |   |   |   |   |   |   |   |   |   |   |   |   ID < 299
|   |   |   |   |   |   |   |   |   |   |   |   |   |   |   |   |   |   |   |   |   |   |   |   |   |   |   |   |   |   ID < 284.5
|   |   |   |   |   |   |   |   |   |   |   |   |   |   |   |   |   |   |   |   |   |   |   |   |   |   |   |   |   |   |   ID < 251
|   |   |   |   |   |   |   |   |   |   |   |   |   |   |   |   |   |   |   |   |   |   |   |   |   |   |   |   |   |   |   |   ID < 226.5
|   |   |   |   |   |   |   |   |   |   |   |   |   |   |   |   |   |   |   |   |   |   |   |   |   |   |   |   |   |   |   |   |   ID < 200.5
|   |   |   |   |   |   |   |   |   |   |   |   |   |   |   |   |   |   |   |   |   |   |   |   |   |   |   |   |   |   |   |   |   |   ID < 178.5
|   |   |   |   |   |   |   |   |   |   |   |   |   |   |   |   |   |   |   |   |   |   |   |   |   |   |   |   |   |   |   |   |   |   |   ID < 51
|   |   |   |   |   |   |   |   |   |   |   |   |   |   |   |   |   |   |   |   |   |   |   |   |   |   |   |   |   |   |   |   |   |   |   |   ID < 35.5
|   |   |   |   |   |   |   |   |   |   |   |   |   |   |   |   |   |   |   |   |   |   |   |   |   |   |   |   |   |   |   |   |   |   |   |   |   ID < 33.5 : 0.14 (9/0.67) [5/0.8]
|   |   |   |   |   |   |   |   |   |   |   |   |   |   |   |   |   |   |   |   |   |   |   |   |   |   |   |   |   |   |   |   |   |   |   |   |   ID >= 33.5 : -1 (2/0) [0/0]
|   |   |   |   |   |   |   |   |   |   |   |   |   |   |   |   |   |   |   |   |   |   |   |   |   |   |   |   |   |   |   |   |   |   |   |   ID >= 35.5 : 0.53 (10/0.45) [5/0.65]
|   |   |   |   |   |   |   |   |   |   |   |   |   |   |   |   |   |   |   |   |   |   |   |   |   |   |   |   |   |   |   |   |   |   |   ID >= 51
|   |   |   |   |   |   |   |   |   |   |   |   |   |   |   |   |   |   |   |   |   |   |   |   |   |   |   |   |   |   |   |   |   |   |   |   ID < 69 : -0.89 (14/0) [4/0.5]
|   |   |   |   |   |   |   |   |   |   |   |   |   |   |   |   |   |   |   |   |   |   |   |   |   |   |   |   |   |   |   |   |   |   |   |   ID >= 69
