=== Run information ===

Scheme:       weka.classifiers.trees.REPTree -M 2 -V 0.001 -N 3 -S 1 -L -1 -I 0.0
Relation:     cleaned_demone
Instances:    6268
Attributes:   5
              ID
              TRUNCATED
              possibly_sensitive
              retweeted_status
              reaction
Test mode:    evaluate on training data

=== Classifier model (full training set) ===


REPTree
============

ID < 5991
|   ID < 5973.5
|   |   ID < 19.5 : -0.79 (12/0) [7/0.86]
|   |   ID >= 19.5
|   |   |   ID < 1444.5
|   |   |   |   ID < 1429
|   |   |   |   |   ID < 1411
|   |   |   |   |   |   ID < 50.5
|   |   |   |   |   |   |   possibly_sensitive < 0.5
|   |   |   |   |   |   |   |   ID < 38.5 : -0.45 (6/0.22) [5/0.78]
|   |   |   |   |   |   |   |   ID >= 38.5 : 1 (2/0) [1/0]
|   |   |   |   |   |   |   possibly_sensitive >= 0.5
|   |   |   |   |   |   |   |   ID < 41.5 : 0.9 (7/0.12) [3/0.02]
|   |   |   |   |   |   |   |   ID >= 41.5
|   |   |   |   |   |   |   |   |   ID < 45.5 : -0.25 (3/0.67) [1/1]
|   |   |   |   |   |   |   |   |   ID >= 45.5 : 0.67 (3/0.22) [0/0]
|   |   |   |   |   |   ID >= 50.5
|   |   |   |   |   |   |   ID < 69 : -0.89 (14/0.12) [4/0.02]
|   |   |   |   |   |   |   ID >= 69
|   |   |   |   |   |   |   |   ID < 99.5 : 0.26 (19/0.66) [12/0.84]
|   |   |   |   |   |   |   |   ID >= 99.5
|   |   |   |   |   |   |   |   |   ID < 170.5
|   |   |   |   |   |   |   |   |   |   ID < 149.5
|   |   |   |   |   |   |   |   |   |   |   ID < 117.5 : -0.89 (12/0.14) [6/0.03]
|   |   |   |   |   |   |   |   |   |   |   ID >= 117.5 : 0.23 (20/0.7) [10/0.9]
|   |   |   |   |   |   |   |   |   |   ID >= 149.5 : -0.79 (14/0) [5/1.2]
|   |   |   |   |   |   |   |   |   ID >= 170.5
|   |   |   |   |   |   |   |   |   |   ID < 201.5 : 0.26 (27/0.74) [4/0.53]
|   |   |   |   |   |   |   |   |   |   ID >= 201.5
|   |   |   |   |   |   |   |   |   |   |   ID < 219.5 : -0.89 (11/0.15) [7/0.03]
|   |   |   |   |   |   |   |   |   |   |   ID >= 219.5
|   |   |   |   |   |   |   |   |   |   |   |   ID < 243.5
|   |   |   |   |   |   |   |   |   |   |   |   |   ID < 235.5 : 0 (11/0.74) [5/1]
|   |   |   |   |   |   |   |   |   |   |   |   |   ID >= 235.5 : 0.75 (8/0.19) [0/0]
|   |   |   |   |   |   |   |   |   |   |   |   ID >= 243.5
|   |   |   |   |   |   |   |   |   |   |   |   |   ID < 274.5
|   |   |   |   |   |   |   |   |   |   |   |   |   |   ID < 253.5 : 0 (4/1) [6/0.67]
|   |   |   |   |   |   |   |   |   |   |   |   |   |   ID >= 253.5 : -0.71 (11/0.08) [10/0.82]
|   |   |   |   |   |   |   |   |   |   |   |   |   ID >= 274.5
|   |   |   |   |   |   |   |   |   |   |   |   |   |   ID < 299.5
|   |   |   |   |   |   |   |   |   |   |   |   |   |   |   retweeted_status < 0.5 : -0.33 (4/0.25) [2/1.25]
|   |   |   |   |   |   |   |   |   |   |   |   |   |   |   retweeted_status >= 0.5
|   |   |   |   |   |   |   |   |   |   |   |   |   |   |   |   possibly_sensitive < 0.5
|   |   |   |   |   |   |   |   |   |   |   |   |   |   |   |   |   ID < 293
|   |   |   |   |   |   |   |   |   |   |   |   |   |   |   |   |   |   ID < 286.5 : 0 (2/1) [1/0]
|   |   |   |   |   |   |   |   |   |   |   |   |   |   |   |   |   |   ID >= 286.5 : 1 (3/0) [0/0]
|   |   |   |   |   |   |   |   |   |   |   |   |   |   |   |   |   ID >= 293 : 0 (3/0.67) [0/0]
|   |   |   |   |   |   |   |   |   |   |   |   |   |   |   |   possibly_sensitive >= 0.5
|   |   |   |   |   |   |   |   |   |   |   |   |   |   |   |   |   ID < 287.5 : 0.67 (3/0.22) [3/0.22]
|   |   |   |   |   |   |   |   |   |   |   |   |   |   |   |   |   ID >= 287.5 : 1 (4/0) [0/0]
|   |   |   |   |   |   |   |   |   |   |   |   |   |   ID >= 299.5
|   |   |   |   |   |   |   |   |   |   |   |   |   |   |   ID < 324 : -0.71 (18/0.28) [6/0.66]
|   |   |   |   |   |   |   |   |   |   |   |   |   |   |   ID >= 324
|   |   |   |   |   |   |   |   |   |   |   |   |   |   |   |   possibly_sensitive < 0.5
|   |   |   |   |   |   |   |   |   |   |   |   |   |   |   |   |   ID < 1383.5
|   |   |   |   |   |   |   |   |   |   |   |   |   |   |   |   |   |   ID < 331.5 : 0.6 (4/0.25) [1/0.25]
|   |   |   |   |   |   |   |   |   |   |   |   |   |   |   |   |   |   ID >= 331.5 : -0.3 (263.38/0.75) [132.38/0.71]
|   |   |   |   |   |   |   |   |   |   |   |   |   |   |   |   |   ID >= 1383.5 : 0.8 (7/0.2) [3/0.08]
|   |   |   |   |   |   |   |   |   |   |   |   |   |   |   |   possibly_sensitive >= 0.5
|   |   |   |   |   |   |   |   |   |   |   |   |   |   |   |   |   ID < 596
|   |   |   |   |   |   |   |   |   |   |   |   |   |   |   |   |   |   ID < 588
|   |   |   |   |   |   |   |   |   |   |   |   |   |   |   |   |   |   |   ID < 369.5
|   |   |   |   |   |   |   |   |   |   |   |   |   |   |   |   |   |   |   |   ID < 349.5 : 0.38 (11/0.56) [5/0.75]
|   |   |   |   |   |   |   |   |   |   |   |   |   |   |   |   |   |   |   |   ID >= 349.5
|   |   |   |   |   |   |   |   |   |   |   |   |   |   |   |   |   |   |   |   |   ID < 365.5 : -1 (6/0) [3/0]
|   |   |   |   |   |   |   |   |   |   |   |   |   |   |   |   |   |   |   |   |   ID >= 365.5 : 0 (2/0.25) [1/2.25]
|   |   |   |   |   |   |   |   |   |   |   |   |   |   |   |   |   |   |   ID >= 369.5
|   |   |   |   |   |   |   |   |   |   |   |   |   |   |   |   |   |   |   |   ID < 397
|   |   |   |   |   |   |   |   |   |   |   |   |   |   |   |   |   |   |   |   |   ID < 385.5 : 0.13 (9/0.62) [7/0.91]
|   |   |   |   |   |   |   |   |   |   |   |   |   |   |   |   |   |   |   |   |   ID >= 385.5 : 0.75 (6/0) [2/2]
|   |   |   |   |   |   |   |   |   |   |   |   |   |   |   |   |   |   |   |   ID >= 397
|   |   |   |   |   |   |   |   |   |   |   |   |   |   |   |   |   |   |   |   |   ID < 416.5 : -0.83 (6/0) [6/0.67]
|   |   |   |   |   |   |   |   |   |   |   |   |   |   |   |   |   |   |   |   |   ID >= 416.5
|   |   |   |   |   |   |   |   |   |   |   |   |   |   |   |   |   |   |   |   |   |   ID < 429.5 : 0.5 (3/0) [1/4]
|   |   |   |   |   |   |   |   |   |   |   |   |   |   |   |   |   |   |   |   |   |   ID >= 429.5
|   |   |   |   |   |   |   |   |   |   |   |   |   |   |   |   |   |   |   |   |   |   |   ID < 495
|   |   |   |   |   |   |   |   |   |   |   |   |   |   |   |   |   |   |   |   |   |   |   |   ID < 464.5
|   |   |   |   |   |   |   |   |   |   |   |   |   |   |   |   |   |   |   |   |   |   |   |   |   ID < 448.5 : 0.45 (6/0.56) [5/0.71]
|   |   |   |   |   |   |   |   |   |   |   |   |   |   |   |   |   |   |   |   |   |   |   |   |   ID >= 448.5 : -1 (3.62/0) [3/0]
|   |   |   |   |   |   |   |   |   |   |   |   |   |   |   |   |   |   |   |   |   |   |   |   ID >= 464.5
|   |   |   |   |   |   |   |   |   |   |   |   |   |   |   |   |   |   |   |   |   |   |   |   |   ID < 476.5 : 0.13 (7/0.49) [1/1.65]
|   |   |   |   |   |   |   |   |   |   |   |   |   |   |   |   |   |   |   |   |   |   |   |   |   ID >= 476.5 : 0.8 (5/0.16) [0/0]
|   |   |   |   |   |   |   |   |   |   |   |   |   |   |   |   |   |   |   |   |   |   |   ID >= 495
|   |   |   |   |   |   |   |   |   |   |   |   |   |   |   |   |   |   |   |   |   |   |   |   ID < 513.5 : -0.88 (5/0) [3/0.33]
|   |   |   |   |   |   |   |   |   |   |   |   |   |   |   |   |   |   |   |   |   |   |   |   ID >= 513.5 : -0.04 (35/0.83) [16/0.82]
|   |   |   |   |   |   |   |   |   |   |   |   |   |   |   |   |   |   ID >= 588 : 0.75 (4/0.19) [0/0]
|   |   |   |   |   |   |   |   |   |   |   |   |   |   |   |   |   ID >= 596
|   |   |   |   |   |   |   |   |   |   |   |   |   |   |   |   |   |   ID < 666
|   |   |   |   |   |   |   |   |   |   |   |   |   |   |   |   |   |   |   ID < 643.5
|   |   |   |   |   |   |   |   |   |   |   |   |   |   |   |   |   |   |   |   ID < 623.5 : -0.77 (11/0.33) [2/0.35]
|   |   |   |   |   |   |   |   |   |   |   |   |   |   |   |   |   |   |   |   ID >= 623.5 : 0.3 (7/0.49) [3/0.89]
|   |   |   |   |   |   |   |   |   |   |   |   |   |   |   |   |   |   |   ID >= 643.5 : -0.88 (16/0.11) [0/0]
|   |   |   |   |   |   |   |   |   |   |   |   |   |   |   |   |   |   ID >= 666
|   |   |   |   |   |   |   |   |   |   |   |   |   |   |   |   |   |   |   ID < 741.5
|   |   |   |   |   |   |   |   |   |   |   |   |   |   |   |   |   |   |   |   ID < 715.5
|   |   |   |   |   |   |   |   |   |   |   |   |   |   |   |   |   |   |   |   |   ID < 693 : 0.33 (13/0.7) [11/0.57]
|   |   |   |   |   |   |   |   |   |   |   |   |   |   |   |   |   |   |   |   |   ID >= 693
|   |   |   |   |   |   |   |   |   |   |   |   |   |   |   |   |   |   |   |   |   |   ID < 708 : -1 (6/0) [3/0]
|   |   |   |   |   |   |   |   |   |   |   |   |   |   |   |   |   |   |   |   |   |   ID >= 708 : 0 (4/1) [1/0]
|   |   |   |   |   |   |   |   |   |   |   |   |   |   |   |   |   |   |   |   ID >= 715.5 : 0.56 (15/0.52) [3/0.24]
|   |   |   |   |   |   |   |   |   |   |   |   |   |   |   |   |   |   |   ID >= 741.5
|   |   |   |   |   |   |   |   |   |   |   |   |   |   |   |   |   |   |   |   ID < 821 : -0.7 (32/0.4) [22/0.38]
|   |   |   |   |   |   |   |   |   |   |   |   |   |   |   |   |   |   |   |   ID >= 821
|   |   |   |   |   |   |   |   |   |   |   |   |   |   |   |   |   |   |   |   |   ID < 848.5 : 0.42 (11/0.61) [8/0.74]
|   |   |   |   |   |   |   |   |   |   |   |   |   |   |   |   |   |   |   |   |   ID >= 848.5
|   |   |   |   |   |   |   |   |   |   |   |   |   |   |   |   |   |   |   |   |   |   ID < 1132.5
|   |   |   |   |   |   |   |   |   |   |   |   |   |   |   |   |   |   |   |   |   |   |   ID < 1115.5
|   |   |   |   |   |   |   |   |   |   |   |   |   |   |   |   |   |   |   |   |   |   |   |   ID < 1089
|   |   |   |   |   |   |   |   |   |   |   |   |   |   |   |   |   |   |   |   |   |   |   |   |   ID < 867 : -0.6 (7/0.2) [3/1.03]
|   |   |   |   |   |   |   |   |   |   |   |   |   |   |   |   |   |   |   |   |   |   |   |   |   ID >= 867
|   |   |   |   |   |   |   |   |   |   |   |   |   |   |   |   |   |   |   |   |   |   |   |   |   |   ID < 915
|   |   |   |   |   |   |   |   |   |   |   |   |   |   |   |   |   |   |   |   |   |   |   |   |   |   |   ID < 885.5 : -0.25 (5/0.64) [3/0.83]
|   |   |   |   |   |   |   |   |   |   |   |   |   |   |   |   |   |   |   |   |   |   |   |   |   |   |   ID >= 885.5
|   |   |   |   |   |   |   |   |   |   |   |   |   |   |   |   |   |   |   |   |   |   |   |   |   |   |   |   ID < 899 : 0.88 (7/0.12) [1/0.02]
|   |   |   |   |   |   |   |   |   |   |   |   |   |   |   |   |   |   |   |   |   |   |   |   |   |   |   |   ID >= 899 : -0.14 (4/0.5) [3/1]
|   |   |   |   |   |   |   |   |   |   |   |   |   |   |   |   |   |   |   |   |   |   |   |   |   |   ID >= 915
|   |   |   |   |   |   |   |   |   |   |   |   |   |   |   |   |   |   |   |   |   |   |   |   |   |   |   ID < 934 : -0.87 (11/0.08) [4/0.21]
|   |   |   |   |   |   |   |   |   |   |   |   |   |   |   |   |   |   |   |   |   |   |   |   |   |   |   ID >= 934
|   |   |   |   |   |   |   |   |   |   |   |   |   |   |   |   |   |   |   |   |   |   |   |   |   |   |   |   ID < 964 : 0.32 (18/0.73) [7/0.65]
|   |   |   |   |   |   |   |   |   |   |   |   |   |   |   |   |   |   |   |   |   |   |   |   |   |   |   |   ID >= 964
|   |   |   |   |   |   |   |   |   |   |   |   |   |   |   |   |   |   |   |   |   |   |   |   |   |   |   |   |   ID < 987.5
|   |   |   |   |   |   |   |   |   |   |   |   |   |   |   |   |   |   |   |   |   |   |   |   |   |   |   |   |   |   ID < 973 : -1 (5/0) [1/0]
|   |   |   |   |   |   |   |   |   |   |   |   |   |   |   |   |   |   |   |   |   |   |   |   |   |   |   |   |   |   ID >= 973 : -0.56 (7/0.2) [2/1.51]
|   |   |   |   |   |   |   |   |   |   |   |   |   |   |   |   |   |   |   |   |   |   |   |   |   |   |   |   |   ID >= 987.5
|   |   |   |   |   |   |   |   |   |   |   |   |   |   |   |   |   |   |   |   |   |   |   |   |   |   |   |   |   |   ID < 1001.5 : 0.6 (5/0.24) [0/0]
|   |   |   |   |   |   |   |   |   |   |   |   |   |   |   |   |   |   |   |   |   |   |   |   |   |   |   |   |   |   ID >= 1001.5
|   |   |   |   |   |   |   |   |   |   |   |   |   |   |   |   |   |   |   |   |   |   |   |   |   |   |   |   |   |   |   ID < 1069
|   |   |   |   |   |   |   |   |   |   |   |   |   |   |   |   |   |   |   |   |   |   |   |   |   |   |   |   |   |   |   |   ID < 1046.5
|   |   |   |   |   |   |   |   |   |   |   |   |   |   |   |   |   |   |   |   |   |   |   |   |   |   |   |   |   |   |   |   |   ID < 1016.5 : 0.14 (4/0.5) [3/1]
|   |   |   |   |   |   |   |   |   |   |   |   |   |   |   |   |   |   |   |   |   |   |   |   |   |   |   |   |   |   |   |   |   ID >= 1016.5 : -0.73 (10/0.21) [4.62/0.18]
|   |   |   |   |   |   |   |   |   |   |   |   |   |   |   |   |   |   |   |   |   |   |   |   |   |   |   |   |   |   |   |   ID >= 1046.5
|   |   |   |   |   |   |   |   |   |   |   |   |   |   |   |   |   |   |   |   |   |   |   |   |   |   |   |   |   |   |   |   |   ID < 1049.5 : 0.67 (3/0.22) [0/0]
|   |   |   |   |   |   |   |   |   |   |   |   |   |   |   |   |   |   |   |   |   |   |   |   |   |   |   |   |   |   |   |   |   ID >= 1049.5
|   |   |   |   |   |   |   |   |   |   |   |   |   |   |   |   |   |   |   |   |   |   |   |   |   |   |   |   |   |   |   |   |   |   ID < 1052 : -1 (2/0) [0/0]
|   |   |   |   |   |   |   |   |   |   |   |   |   |   |   |   |   |   |   |   |   |   |   |   |   |   |   |   |   |   |   |   |   |   ID >= 1052 : 0.6 (2/0.25) [3/0.25]
|   |   |   |   |   |   |   |   |   |   |   |   |   |   |   |   |   |   |   |   |   |   |   |   |   |   |   |   |   |   |   ID >= 1069
|   |   |   |   |   |   |   |   |   |   |   |   |   |   |   |   |   |   |   |   |   |   |   |   |   |   |   |   |   |   |   |   ID < 1075 : -1 (2/0) [0/0]
|   |   |   |   |   |   |   |   |   |   |   |   |   |   |   |   |   |   |   |   |   |   |   |   |   |   |   |   |   |   |   |   ID >= 1075 : -0.5 (3/0.22) [3/1]
|   |   |   |   |   |   |   |   |   |   |   |   |   |   |   |   |   |   |   |   |   |   |   |   ID >= 1089 : 0.35 (8/0.48) [12/0.72]
|   |   |   |   |   |   |   |   |   |   |   |   |   |   |   |   |   |   |   |   |   |   |   ID >= 1115.5 : -1 (8/0) [3/0]
|   |   |   |   |   |   |   |   |   |   |   |   |   |   |   |   |   |   |   |   |   |   ID >= 1132.5
|   |   |   |   |   |   |   |   |   |   |   |   |   |   |   |   |   |   |   |   |   |   |   ID < 1169.5 : 0.33 (15/0.51) [9/1.27]
|   |   |   |   |   |   |   |   |   |   |   |   |   |   |   |   |   |   |   |   |   |   |   ID >= 1169.5
|   |   |   |   |   |   |   |   |   |   |   |   |   |   |   |   |   |   |   |   |   |   |   |   ID < 1366.5
|   |   |   |   |   |   |   |   |   |   |   |   |   |   |   |   |   |   |   |   |   |   |   |   |   ID < 1351
|   |   |   |   |   |   |   |   |   |   |   |   |   |   |   |   |   |   |   |   |   |   |   |   |   |   ID < 1187 : -0.43 (6/0.22) [1/2.78]
|   |   |   |   |   |   |   |   |   |   |   |   |   |   |   |   |   |   |   |   |   |   |   |   |   |   ID >= 1187
|   |   |   |   |   |   |   |   |   |   |   |   |   |   |   |   |   |   |   |   |   |   |   |   |   |   |   ID < 1216.5 : 0.36 (8/0.23) [6/1.06]
|   |   |   |   |   |   |   |   |   |   |   |   |   |   |   |   |   |   |   |   |   |   |   |   |   |   |   ID >= 1216.5
|   |   |   |   |   |   |   |   |   |   |   |   |   |   |   |   |   |   |   |   |   |   |   |   |   |   |   |   ID < 1237.5
|   |   |   |   |   |   |   |   |   |   |   |   |   |   |   |   |   |   |   |   |   |   |   |   |   |   |   |   |   ID < 1221.5 : -0.2 (2/0) [3/1]
|   |   |   |   |   |   |   |   |   |   |   |   |   |   |   |   |   |   |   |   |   |   |   |   |   |   |   |   |   ID >= 1221.5 : -0.92 (7/0.12) [5/0.02]
|   |   |   |   |   |   |   |   |   |   |   |   |   |   |   |   |   |   |   |   |   |   |   |   |   |   |   |   ID >= 1237.5
|   |   |   |   |   |   |   |   |   |   |   |   |   |   |   |   |   |   |   |   |   |   |   |   |   |   |   |   |   ID < 1348.5
|   |   |   |   |   |   |   |   |   |   |   |   |   |   |   |   |   |   |   |   |   |   |   |   |   |   |   |   |   |   ID < 1341.5
|   |   |   |   |   |   |   |   |   |   |   |   |   |   |   |   |   |   |   |   |   |   |   |   |   |   |   |   |   |   |   ID < 1317.5
|   |   |   |   |   |   |   |   |   |   |   |   |   |   |   |   |   |   |   |   |   |   |   |   |   |   |   |   |   |   |   |   ID < 1291.5
|   |   |   |   |   |   |   |   |   |   |   |   |   |   |   |   |   |   |   |   |   |   |   |   |   |   |   |   |   |   |   |   |   ID < 1268 : 0.32 (17/0.85) [8/0.44]
|   |   |   |   |   |   |   |   |   |   |   |   |   |   |   |   |   |   |   |   |   |   |   |   |   |   |   |   |   |   |   |   |   ID >= 1268
|   |   |   |   |   |   |   |   |   |   |   |   |   |   |   |   |   |   |   |   |   |   |   |   |   |   |   |   |   |   |   |   |   |   ID < 1288.5
|   |   |   |   |   |   |   |   |   |   |   |   |   |   |   |   |   |   |   |   |   |   |   |   |   |   |   |   |   |   |   |   |   |   |   ID < 1277 : -1 (4/0) [2/0]
|   |   |   |   |   |   |   |   |   |   |   |   |   |   |   |   |   |   |   |   |   |   |   |   |   |   |   |   |   |   |   |   |   |   |   ID >= 1277 : -0.67 (4/0.19) [2/0.31]
|   |   |   |   |   |   |   |   |   |   |   |   |   |   |   |   |   |   |   |   |   |   |   |   |   |   |   |   |   |   |   |   |   |   ID >= 1288.5 : -0.33 (3/0.89) [0/0]
|   |   |   |   |   |   |   |   |   |   |   |   |   |   |   |   |   |   |   |   |   |   |   |   |   |   |   |   |   |   |   |   ID >= 1291.5 : 0.44 (14/0.39) [4/0.75]
|   |   |   |   |   |   |   |   |   |   |   |   |   |   |   |   |   |   |   |   |   |   |   |   |   |   |   |   |   |   |   ID >= 1317.5 : -0.63 (11/0.61) [5/0.3]
|   |   |   |   |   |   |   |   |   |   |   |   |   |   |   |   |   |   |   |   |   |   |   |   |   |   |   |   |   |   ID >= 1341.5 : 0.6 (2/0) [3/0.67]
|   |   |   |   |   |   |   |   |   |   |   |   |   |   |   |   |   |   |   |   |   |   |   |   |   |   |   |   |   ID >= 1348.5 : -1 (2/0) [0/0]
|   |   |   |   |   |   |   |   |   |   |   |   |   |   |   |   |   |   |   |   |   |   |   |   |   ID >= 1351 : 0.55 (7/0.12) [4/1.23]
|   |   |   |   |   |   |   |   |   |   |   |   |   |   |   |   |   |   |   |   |   |   |   |   ID >= 1366.5 : -0.46 (18/0.58) [10/0.65]
|   |   |   |   |   ID >= 1411 : -0.89 (10/0.09) [8/0.11]
|   |   |   |   ID >= 1429 : 0.19 (10/0.24) [6/1.79]
|   |   |   ID >= 1444.5
|   |   |   |   ID < 1905.5
|   |   |   |   |   ID < 1608.5
|   |   |   |   |   |   ID < 1481.5 : -0.84 (24/0.25) [13/0.09]
|   |   |   |   |   |   ID >= 1481.5
|   |   |   |   |   |   |   ID < 1594.5
|   |   |   |   |   |   |   |   ID < 1561
|   |   |   |   |   |   |   |   |   ID < 1546.5
|   |   |   |   |   |   |   |   |   |   ID < 1514
|   |   |   |   |   |   |   |   |   |   |   possibly_sensitive < 0.5
|   |   |   |   |   |   |   |   |   |   |   |   ID < 1493.5 : -0.25 (4/0.69) [0/0]
|   |   |   |   |   |   |   |   |   |   |   |   ID >= 1493.5 : 1 (5/0) [2/0]
|   |   |   |   |   |   |   |   |   |   |   possibly_sensitive >= 0.5 : 0.1 (13/0.69) [8/0.69]
|   |   |   |   |   |   |   |   |   |   ID >= 1514
|   |   |   |   |   |   |   |   |   |   |   ID < 1531
|   |   |   |   |   |   |   |   |   |   |   |   retweeted_status < 0.5 : -0.67 (3/0.22) [0/0]
|   |   |   |   |   |   |   |   |   |   |   |   retweeted_status >= 0.5 : -1 (9/0) [5/0]
|   |   |   |   |   |   |   |   |   |   |   ID >= 1531
|   |   |   |   |   |   |   |   |   |   |   |   ID < 1544.5 : 0.14 (10/0.69) [4/0.71]
|   |   |   |   |   |   |   |   |   |   |   |   ID >= 1544.5 : -1 (2/0) [0/0]
|   |   |   |   |   |   |   |   |   ID >= 1546.5
|   |   |   |   |   |   |   |   |   |   ID < 1556.5
|   |   |   |   |   |   |   |   |   |   |   ID < 1554.5 : 0.75 (7/0.2) [1/0.08]
|   |   |   |   |   |   |   |   |   |   |   ID >= 1554.5 : -1 (2/0) [0/0]
|   |   |   |   |   |   |   |   |   |   ID >= 1556.5 : 1 (3/0) [1/0]
|   |   |   |   |   |   |   |   ID >= 1561
|   |   |   |   |   |   |   |   |   ID < 1578.5 : -0.89 (12/0) [6/0.33]
|   |   |   |   |   |   |   |   |   ID >= 1578.5
|   |   |   |   |   |   |   |   |   |   ID < 1592.5 : 0.14 (10/0.69) [4/0.71]
|   |   |   |   |   |   |   |   |   |   ID >= 1592.5 : -1 (2/0) [0/0]
|   |   |   |   |   |   |   ID >= 1594.5
|   |   |   |   |   |   |   |   ID < 1602.5 : 0.75 (6/0.22) [2/0.11]
|   |   |   |   |   |   |   |   ID >= 1602.5 : 0.17 (4/1) [2/0.5]
|   |   |   |   |   ID >= 1608.5
|   |   |   |   |   |   ID < 1819
|   |   |   |   |   |   |   ID < 1636.5
|   |   |   |   |   |   |   |   ID < 1628.5 : -0.8 (14/0.12) [6/0.59]
|   |   |   |   |   |   |   |   ID >= 1628.5 : 0.25 (6/0.56) [2/1.11]
|   |   |   |   |   |   |   ID >= 1636.5
|   |   |   |   |   |   |   |   retweeted_status < 0.5
|   |   |   |   |   |   |   |   |   possibly_sensitive < 0.5 : -0.4 (13/0.7) [7/0.82]
|   |   |   |   |   |   |   |   |   possibly_sensitive >= 0.5 : -0.84 (21/0.25) [4/0.04]
|   |   |   |   |   |   |   |   retweeted_status >= 0.5
|   |   |   |   |   |   |   |   |   ID < 1743
|   |   |   |   |   |   |   |   |   |   ID < 1678.5
|   |   |   |   |   |   |   |   |   |   |   ID < 1671 : -0.86 (15/0.25) [7/0.12]
|   |   |   |   |   |   |   |   |   |   |   ID >= 1671 : 0.14 (4/0.5) [3/1]
|   |   |   |   |   |   |   |   |   |   ID >= 1678.5 : -0.82 (30/0) [19/0.68]
|   |   |   |   |   |   |   |   |   ID >= 1743 : -0.54 (34/0.4) [25/0.73]
|   |   |   |   |   |   ID >= 1819 : -0.34 (52/0.59) [35/0.84]
|   |   |   |   ID >= 1905.5
|   |   |   |   |   ID < 1911.5 : 0.83 (4/0) [2/0.5]
|   |   |   |   |   ID >= 1911.5
|   |   |   |   |   |   ID < 5321.5
|   |   |   |   |   |   |   ID < 4532.5
|   |   |   |   |   |   |   |   ID < 3862.5
|   |   |   |   |   |   |   |   |   ID < 3080.5
|   |   |   |   |   |   |   |   |   |   ID < 2960
|   |   |   |   |   |   |   |   |   |   |   ID < 2916
|   |   |   |   |   |   |   |   |   |   |   |   ID < 1930 : -0.89 (10/0.16) [8/0.04]
|   |   |   |   |   |   |   |   |   |   |   |   ID >= 1930
|   |   |   |   |   |   |   |   |   |   |   |   |   ID < 1948.5
|   |   |   |   |   |   |   |   |   |   |   |   |   |   ID < 1945.5 : 0 (11/0.81) [5/0.64]
|   |   |   |   |   |   |   |   |   |   |   |   |   |   ID >= 1945.5 : 1 (3/0) [0/0]
|   |   |   |   |   |   |   |   |   |   |   |   |   ID >= 1948.5
|   |   |   |   |   |   |   |   |   |   |   |   |   |   ID < 1966.5 : -0.89 (10/0.09) [8/0.11]
|   |   |   |   |   |   |   |   |   |   |   |   |   |   ID >= 1966.5
|   |   |   |   |   |   |   |   |   |   |   |   |   |   |   ID < 1990.5
|   |   |   |   |   |   |   |   |   |   |   |   |   |   |   |   ID < 1982.5 : 0 (12/0.91) [4/0.3]
|   |   |   |   |   |   |   |   |   |   |   |   |   |   |   |   ID >= 1982.5 : 0.75 (8/0.19) [0/0]
|   |   |   |   |   |   |   |   |   |   |   |   |   |   |   ID >= 1990.5
|   |   |   |   |   |   |   |   |   |   |   |   |   |   |   |   ID < 2013.5
|   |   |   |   |   |   |   |   |   |   |   |   |   |   |   |   |   ID < 1996.5
|   |   |   |   |   |   |   |   |   |   |   |   |   |   |   |   |   |   ID < 1993 : -1 (2/0) [0/0]
|   |   |   |   |   |   |   |   |   |   |   |   |   |   |   |   |   |   ID >= 1993 : 1 (2/0) [2/0]
|   |   |   |   |   |   |   |   |   |   |   |   |   |   |   |   |   ID >= 1996.5 : -0.88 (13/0.07) [4/0.22]
|   |   |   |   |   |   |   |   |   |   |   |   |   |   |   |   ID >= 2013.5
|   |   |   |   |   |   |   |   |   |   |   |   |   |   |   |   |   ID < 2059
|   |   |   |   |   |   |   |   |   |   |   |   |   |   |   |   |   |   ID < 2046.5
|   |   |   |   |   |   |   |   |   |   |   |   |   |   |   |   |   |   |   ID < 2043.5
|   |   |   |   |   |   |   |   |   |   |   |   |   |   |   |   |   |   |   |   ID < 2030.5 : -0.06 (9/0.54) [8/1.01]
|   |   |   |   |   |   |   |   |   |   |   |   |   |   |   |   |   |   |   |   ID >= 2030.5 : 0.54 (7/0.53) [6/0.61]
|   |   |   |   |   |   |   |   |   |   |   |   |   |   |   |   |   |   |   ID >= 2043.5 : -0.67 (2/0) [1/1]
|   |   |   |   |   |   |   |   |   |   |   |   |   |   |   |   |   |   ID >= 2046.5 : 0.75 (10/0.16) [2/0.34]
|   |   |   |   |   |   |   |   |   |   |   |   |   |   |   |   |   ID >= 2059
|   |   |   |   |   |   |   |   |   |   |   |   |   |   |   |   |   |   ID < 2291.5
|   |   |   |   |   |   |   |   |   |   |   |   |   |   |   |   |   |   |   ID < 2213.5
|   |   |   |   |   |   |   |   |   |   |   |   |   |   |   |   |   |   |   |   ID < 2086.5
|   |   |   |   |   |   |   |   |   |   |   |   |   |   |   |   |   |   |   |   |   ID < 2066.5 : 0.25 (2/1) [6/0.67]
|   |   |   |   |   |   |   |   |   |   |   |   |   |   |   |   |   |   |   |   |   ID >= 2066.5 : -0.8 (11/0.08) [9/0.5]
|   |   |   |   |   |   |   |   |   |   |   |   |   |   |   |   |   |   |   |   ID >= 2086.5
|   |   |   |   |   |   |   |   |   |   |   |   |   |   |   |   |   |   |   |   |   ID < 2107.5
|   |   |   |   |   |   |   |   |   |   |   |   |   |   |   |   |   |   |   |   |   |   ID < 2099 : 0.08 (11/0.69) [1/1.4]
|   |   |   |   |   |   |   |   |   |   |   |   |   |   |   |   |   |   |   |   |   |   ID >= 2099 : 0.56 (6/0.22) [3/1]
|   |   |   |   |   |   |   |   |   |   |   |   |   |   |   |   |   |   |   |   |   ID >= 2107.5
|   |   |   |   |   |   |   |   |   |   |   |   |   |   |   |   |   |   |   |   |   |   ID < 2132.5
|   |   |   |   |   |   |   |   |   |   |   |   |   |   |   |   |   |   |   |   |   |   |   ID < 2116.5
|   |   |   |   |   |   |   |   |   |   |   |   |   |   |   |   |   |   |   |   |   |   |   |   ID < 2109.5 : -1 (2/0) [0/0]
|   |   |   |   |   |   |   |   |   |   |   |   |   |   |   |   |   |   |   |   |   |   |   |   ID >= 2109.5 : 0.43 (2/0.25) [5/0.65]
|   |   |   |   |   |   |   |   |   |   |   |   |   |   |   |   |   |   |   |   |   |   |   ID >= 2116.5
|   |   |   |   |   |   |   |   |   |   |   |   |   |   |   |   |   |   |   |   |   |   |   |   possibly_sensitive < 0.5 : -0.83 (6/0.14) [0/0]
|   |   |   |   |   |   |   |   |   |   |   |   |   |   |   |   |   |   |   |   |   |   |   |   possibly_sensitive >= 0.5 : -1 (8/0) [2/0]
|   |   |   |   |   |   |   |   |   |   |   |   |   |   |   |   |   |   |   |   |   |   ID >= 2132.5
|   |   |   |   |   |   |   |   |   |   |   |   |   |   |   |   |   |   |   |   |   |   |   ID < 2197
|   |   |   |   |   |   |   |   |   |   |   |   |   |   |   |   |   |   |   |   |   |   |   |   ID < 2165.5 : 0.21 (25/0.71) [8/0.78]
|   |   |   |   |   |   |   |   |   |   |   |   |   |   |   |   |   |   |   |   |   |   |   |   ID >= 2165.5
|   |   |   |   |   |   |   |   |   |   |   |   |   |   |   |   |   |   |   |   |   |   |   |   |   ID < 2181.5 : -0.94 (12/0.08) [4/0.01]
|   |   |   |   |   |   |   |   |   |   |   |   |   |   |   |   |   |   |   |   |   |   |   |   |   ID >= 2181.5 : 0.07 (12/0.74) [3/0.78]
|   |   |   |   |   |   |   |   |   |   |   |   |   |   |   |   |   |   |   |   |   |   |   ID >= 2197 : 0.41 (10/0.61) [7/0.6]
|   |   |   |   |   |   |   |   |   |   |   |   |   |   |   |   |   |   |   ID >= 2213.5
|   |   |   |   |   |   |   |   |   |   |   |   |   |   |   |   |   |   |   |   ID < 2230.5
|   |   |   |   |   |   |   |   |   |   |   |   |   |   |   |   |   |   |   |   |   possibly_sensitive < 0.5 : -1 (10/0) [2/0]
|   |   |   |   |   |   |   |   |   |   |   |   |   |   |   |   |   |   |   |   |   possibly_sensitive >= 0.5 : -0.8 (5/0.16) [0/0]
|   |   |   |   |   |   |   |   |   |   |   |   |   |   |   |   |   |   |   |   ID >= 2230.5
|   |   |   |   |   |   |   |   |   |   |   |   |   |   |   |   |   |   |   |   |   ID < 2239
|   |   |   |   |   |   |   |   |   |   |   |   |   |   |   |   |   |   |   |   |   |   ID < 2236.5 : -0.17 (4/1) [2/0.5]
|   |   |   |   |   |   |   |   |   |   |   |   |   |   |   |   |   |   |   |   |   |   ID >= 2236.5 : 1 (2/0) [0/0]
|   |   |   |   |   |   |   |   |   |   |   |   |   |   |   |   |   |   |   |   |   ID >= 2239
|   |   |   |   |   |   |   |   |   |   |   |   |   |   |   |   |   |   |   |   |   |   ID < 2248.5 : -0.9 (8/0) [2/0.5]
|   |   |   |   |   |   |   |   |   |   |   |   |   |   |   |   |   |   |   |   |   |   ID >= 2248.5
|   |   |   |   |   |   |   |   |   |   |   |   |   |   |   |   |   |   |   |   |   |   |   ID < 2275
|   |   |   |   |   |   |   |   |   |   |   |   |   |   |   |   |   |   |   |   |   |   |   |   ID < 2270.5
|   |   |   |   |   |   |   |   |   |   |   |   |   |   |   |   |   |   |   |   |   |   |   |   |   ID < 2253.5 : -0.2 (5/0.56) [0/0]
|   |   |   |   |   |   |   |   |   |   |   |   |   |   |   |   |   |   |   |   |   |   |   |   |   ID >= 2253.5 : -0.94 (11/0.08) [6/0.01]
|   |   |   |   |   |   |   |   |   |   |   |   |   |   |   |   |   |   |   |   |   |   |   |   ID >= 2270.5 : 0.5 (4/0.25) [0/0]
|   |   |   |   |   |   |   |   |   |   |   |   |   |   |   |   |   |   |   |   |   |   |   ID >= 2275 : -0.94 (12/0.08) [5/0.01]
|   |   |   |   |   |   |   |   |   |   |   |   |   |   |   |   |   |   ID >= 2291.5
|   |   |   |   |   |   |   |   |   |   |   |   |   |   |   |   |   |   |   TRUNCATED < 0.5
|   |   |   |   |   |   |   |   |   |   |   |   |   |   |   |   |   |   |   |   ID < 2376.5
|   |   |   |   |   |   |   |   |   |   |   |   |   |   |   |   |   |   |   |   |   ID < 2353
|   |   |   |   |   |   |   |   |   |   |   |   |   |   |   |   |   |   |   |   |   |   ID < 2324.5 : 0.25 (21/0.66) [11/0.81]
|   |   |   |   |   |   |   |   |   |   |   |   |   |   |   |   |   |   |   |   |   |   ID >= 2324.5
|   |   |   |   |   |   |   |   |   |   |   |   |   |   |   |   |   |   |   |   |   |   |   ID < 2341.5 : -0.94 (7/0) [9/0.11]
|   |   |   |   |   |   |   |   |   |   |   |   |   |   |   |   |   |   |   |   |   |   |   ID >= 2341.5 : 0 (6/0.81) [5/0.69]
|   |   |   |   |   |   |   |   |   |   |   |   |   |   |   |   |   |   |   |   |   ID >= 2353
|   |   |   |   |   |   |   |   |   |   |   |   |   |   |   |   |   |   |   |   |   |   ID < 2355.5 : 0.67 (2/0) [1/1]
|   |   |   |   |   |   |   |   |   |   |   |   |   |   |   |   |   |   |   |   |   |   ID >= 2355.5 : 0.24 (14/0.54) [7/1.39]
|   |   |   |   |   |   |   |   |   |   |   |   |   |   |   |   |   |   |   |   ID >= 2376.5
|   |   |   |   |   |   |   |   |   |   |   |   |   |   |   |   |   |   |   |   |   ID < 2404.5
|   |   |   |   |   |   |   |   |   |   |   |   |   |   |   |   |   |   |   |   |   |   ID < 2383 : -1 (4/0) [2/0]
|   |   |   |   |   |   |   |   |   |   |   |   |   |   |   |   |   |   |   |   |   |   ID >= 2383
|   |   |   |   |   |   |   |   |   |   |   |   |   |   |   |   |   |   |   |   |   |   |   ID < 2388 : -0.2 (3/0.22) [2/1.11]
|   |   |   |   |   |   |   |   |   |   |   |   |   |   |   |   |   |   |   |   |   |   |   ID >= 2388 : -0.94 (10/0.09) [7/0.01]
|   |   |   |   |   |   |   |   |   |   |   |   |   |   |   |   |   |   |   |   |   ID >= 2404.5
|   |   |   |   |   |   |   |   |   |   |   |   |   |   |   |   |   |   |   |   |   |   ID < 2435.5
|   |   |   |   |   |   |   |   |   |   |   |   |   |   |   |   |   |   |   |   |   |   |   ID < 2430.5
|   |   |   |   |   |   |   |   |   |   |   |   |   |   |   |   |   |   |   |   |   |   |   |   ID < 2428.5
|   |   |   |   |   |   |   |   |   |   |   |   |   |   |   |   |   |   |   |   |   |   |   |   |   ID < 2420.5 : 0 (12/0.83) [4/0.5]
|   |   |   |   |   |   |   |   |   |   |   |   |   |   |   |   |   |   |   |   |   |   |   |   |   ID >= 2420.5 : 0.75 (6/0.22) [2/0.11]
|   |   |   |   |   |   |   |   |   |   |   |   |   |   |   |   |   |   |   |   |   |   |   |   ID >= 2428.5 : -1 (2/0) [0/0]
|   |   |   |   |   |   |   |   |   |   |   |   |   |   |   |   |   |   |   |   |   |   |   ID >= 2430.5 : 0.8 (5/0.16) [0/0]
|   |   |   |   |   |   |   |   |   |   |   |   |   |   |   |   |   |   |   |   |   |   ID >= 2435.5
|   |   |   |   |   |   |   |   |   |   |   |   |   |   |   |   |   |   |   |   |   |   |   ID < 2453.5 : -0.89 (14/0.12) [4/0.02]
|   |   |   |   |   |   |   |   |   |   |   |   |   |   |   |   |   |   |   |   |   |   |   ID >= 2453.5
|   |   |   |   |   |   |   |   |   |   |   |   |   |   |   |   |   |   |   |   |   |   |   |   possibly_sensitive < 0.5
|   |   |   |   |   |   |   |   |   |   |   |   |   |   |   |   |   |   |   |   |   |   |   |   |   ID < 2906.5
|   |   |   |   |   |   |   |   |   |   |   |   |   |   |   |   |   |   |   |   |   |   |   |   |   |   ID < 2849.5
|   |   |   |   |   |   |   |   |   |   |   |   |   |   |   |   |   |   |   |   |   |   |   |   |   |   |   ID < 2818.5
|   |   |   |   |   |   |   |   |   |   |   |   |   |   |   |   |   |   |   |   |   |   |   |   |   |   |   |   ID < 2789.5
|   |   |   |   |   |   |   |   |   |   |   |   |   |   |   |   |   |   |   |   |   |   |   |   |   |   |   |   |   ID < 2769
|   |   |   |   |   |   |   |   |   |   |   |   |   |   |   |   |   |   |   |   |   |   |   |   |   |   |   |   |   |   ID < 2574.5
|   |   |   |   |   |   |   |   |   |   |   |   |   |   |   |   |   |   |   |   |   |   |   |   |   |   |   |   |   |   |   ID < 2483 : 0.2 (4/1) [1/1]
|   |   |   |   |   |   |   |   |   |   |   |   |   |   |   |   |   |   |   |   |   |   |   |   |   |   |   |   |   |   |   ID >= 2483
|   |   |   |   |   |   |   |   |   |   |   |   |   |   |   |   |   |   |   |   |   |   |   |   |   |   |   |   |   |   |   |   ID < 2525.5
|   |   |   |   |   |   |   |   |   |   |   |   |   |   |   |   |   |   |   |   |   |   |   |   |   |   |   |   |   |   |   |   |   ID < 2514 : -1 (6/0) [2/0]
|   |   |   |   |   |   |   |   |   |   |   |   |   |   |   |   |   |   |   |   |   |   |   |   |   |   |   |   |   |   |   |   |   ID >= 2514 : -0.75 (4/0.19) [0/0]
|   |   |   |   |   |   |   |   |   |   |   |   |   |   |   |   |   |   |   |   |   |   |   |   |   |   |   |   |   |   |   |   ID >= 2525.5
|   |   |   |   |   |   |   |   |   |   |   |   |   |   |   |   |   |   |   |   |   |   |   |   |   |   |   |   |   |   |   |   |   ID < 2536.5 : 0.67 (2/0.25) [1/0.25]
|   |   |   |   |   |   |   |   |   |   |   |   |   |   |   |   |   |   |   |   |   |   |   |   |   |   |   |   |   |   |   |   |   ID >= 2536.5 : -0.62 (6/0.14) [7/0.98]
|   |   |   |   |   |   |   |   |   |   |   |   |   |   |   |   |   |   |   |   |   |   |   |   |   |   |   |   |   |   ID >= 2574.5
|   |   |   |   |   |   |   |   |   |   |   |   |   |   |   |   |   |   |   |   |   |   |   |   |   |   |   |   |   |   |   ID < 2588.5 : 0.25 (3/0.22) [1/2.78]
|   |   |   |   |   |   |   |   |   |   |   |   |   |   |   |   |   |   |   |   |   |   |   |   |   |   |   |   |   |   |   ID >= 2588.5
|   |   |   |   |   |   |   |   |   |   |   |   |   |   |   |   |   |   |   |   |   |   |   |   |   |   |   |   |   |   |   |   ID < 2605.5 : -1 (5/0) [6/0]
|   |   |   |   |   |   |   |   |   |   |   |   |   |   |   |   |   |   |   |   |   |   |   |   |   |   |   |   |   |   |   |   ID >= 2605.5 : -0.12 (42/0.72) [23/0.88]
|   |   |   |   |   |   |   |   |   |   |   |   |   |   |   |   |   |   |   |   |   |   |   |   |   |   |   |   |   ID >= 2769 : 0.5 (6/0.58) [2/0.25]
|   |   |   |   |   |   |   |   |   |   |   |   |   |   |   |   |   |   |   |   |   |   |   |   |   |   |   |   ID >= 2789.5
|   |   |   |   |   |   |   |   |   |   |   |   |   |   |   |   |   |   |   |   |   |   |   |   |   |   |   |   |   ID < 2806.5 : -1 (8/0) [4/0]
|   |   |   |   |   |   |   |   |   |   |   |   |   |   |   |   |   |   |   |   |   |   |   |   |   |   |   |   |   ID >= 2806.5 : 0.2 (2/0) [3/1]
|   |   |   |   |   |   |   |   |   |   |   |   |   |   |   |   |   |   |   |   |   |   |   |   |   |   |   ID >= 2818.5 : 0.11 (6/0.58) [3/1.58]
|   |   |   |   |   |   |   |   |   |   |   |   |   |   |   |   |   |   |   |   |   |   |   |   |   |   ID >= 2849.5
|   |   |   |   |   |   |   |   |   |   |   |   |   |   |   |   |   |   |   |   |   |   |   |   |   |   |   ID < 2886 : -0.08 (4/0.19) [9/1.78]
|   |   |   |   |   |   |   |   |   |   |   |   |   |   |   |   |   |   |   |   |   |   |   |   |   |   |   ID >= 2886 : -1 (8/0) [3/0]
|   |   |   |   |   |   |   |   |   |   |   |   |   |   |   |   |   |   |   |   |   |   |   |   |   ID >= 2906.5 : 0.75 (2/0) [2/0.5]
|   |   |   |   |   |   |   |   |   |   |   |   |   |   |   |   |   |   |   |   |   |   |   |   possibly_sensitive >= 0.5
|   |   |   |   |   |   |   |   |   |   |   |   |   |   |   |   |   |   |   |   |   |   |   |   |   ID < 2488 : 0.27 (20/0.69) [6/0.56]
|   |   |   |   |   |   |   |   |   |   |   |   |   |   |   |   |   |   |   |   |   |   |   |   |   ID >= 2488
|   |   |   |   |   |   |   |   |   |   |   |   |   |   |   |   |   |   |   |   |   |   |   |   |   |   ID < 2506.5 : -0.67 (8/0.19) [7/0.56]
|   |   |   |   |   |   |   |   |   |   |   |   |   |   |   |   |   |   |   |   |   |   |   |   |   |   ID >= 2506.5
|   |   |   |   |   |   |   |   |   |   |   |   |   |   |   |   |   |   |   |   |   |   |   |   |   |   |   ID < 2531.5 : 0.57 (10/0.45) [4/0.25]
|   |   |   |   |   |   |   |   |   |   |   |   |   |   |   |   |   |   |   |   |   |   |   |   |   |   |   ID >= 2531.5
|   |   |   |   |   |   |   |   |   |   |   |   |   |   |   |   |   |   |   |   |   |   |   |   |   |   |   |   ID < 2559.5
|   |   |   |   |   |   |   |   |   |   |   |   |   |   |   |   |   |   |   |   |   |   |   |   |   |   |   |   |   ID < 2540.5 : 0 (3/0.67) [5/0.8]
|   |   |   |   |   |   |   |   |   |   |   |   |   |   |   |   |   |   |   |   |   |   |   |   |   |   |   |   |   ID >= 2540.5 : -0.8 (8/0.11) [2/0.39]
|   |   |   |   |   |   |   |   |   |   |   |   |   |   |   |   |   |   |   |   |   |   |   |   |   |   |   |   ID >= 2559.5
|   |   |   |   |   |   |   |   |   |   |   |   |   |   |   |   |   |   |   |   |   |   |   |   |   |   |   |   |   ID < 2637
|   |   |   |   |   |   |   |   |   |   |   |   |   |   |   |   |   |   |   |   |   |   |   |   |   |   |   |   |   |   ID < 2617.5
|   |   |   |   |   |   |   |   |   |   |   |   |   |   |   |   |   |   |   |   |   |   |   |   |   |   |   |   |   |   |   ID < 2588.5 : 0.44 (12/0.69) [6/0.48]
|   |   |   |   |   |   |   |   |   |   |   |   |   |   |   |   |   |   |   |   |   |   |   |   |   |   |   |   |   |   |   ID >= 2588.5 : -0.42 (9/0.67) [3/0.33]
|   |   |   |   |   |   |   |   |   |   |   |   |   |   |   |   |   |   |   |   |   |   |   |   |   |   |   |   |   |   ID >= 2617.5 : 0.88 (7/0.12) [1/0.02]
|   |   |   |   |   |   |   |   |   |   |   |   |   |   |   |   |   |   |   |   |   |   |   |   |   |   |   |   |   ID >= 2637
|   |   |   |   |   |   |   |   |   |   |   |   |   |   |   |   |   |   |   |   |   |   |   |   |   |   |   |   |   |   ID < 2654 : -0.92 (10/0) [3/0.33]
|   |   |   |   |   |   |   |   |   |   |   |   |   |   |   |   |   |   |   |   |   |   |   |   |   |   |   |   |   |   ID >= 2654
|   |   |   |   |   |   |   |   |   |   |   |   |   |   |   |   |   |   |   |   |   |   |   |   |   |   |   |   |   |   |   ID < 2661 : 0.25 (3/0.22) [1/2.78]
|   |   |   |   |   |   |   |   |   |   |   |   |   |   |   |   |   |   |   |   |   |   |   |   |   |   |   |   |   |   |   ID >= 2661
|   |   |   |   |   |   |   |   |   |   |   |   |   |   |   |   |   |   |   |   |   |   |   |   |   |   |   |   |   |   |   |   ID < 2855.5
|   |   |   |   |   |   |   |   |   |   |   |   |   |   |   |   |   |   |   |   |   |   |   |   |   |   |   |   |   |   |   |   |   ID < 2838.5
|   |   |   |   |   |   |   |   |   |   |   |   |   |   |   |   |   |   |   |   |   |   |   |   |   |   |   |   |   |   |   |   |   |   ID < 2823
|   |   |   |   |   |   |   |   |   |   |   |   |   |   |   |   |   |   |   |   |   |   |   |   |   |   |   |   |   |   |   |   |   |   |   ID < 2693
|   |   |   |   |   |   |   |   |   |   |   |   |   |   |   |   |   |   |   |   |   |   |   |   |   |   |   |   |   |   |   |   |   |   |   |   ID < 2670.5
|   |   |   |   |   |   |   |   |   |   |   |   |   |   |   |   |   |   |   |   |   |   |   |   |   |   |   |   |   |   |   |   |   |   |   |   |   ID < 2668.5 : 0 (3/0.67) [1/0]
|   |   |   |   |   |   |   |   |   |   |   |   |   |   |   |   |   |   |   |   |   |   |   |   |   |   |   |   |   |   |   |   |   |   |   |   |   ID >= 2668.5 : -1 (2/0) [0/0]
|   |   |   |   |   |   |   |   |   |   |   |   |   |   |   |   |   |   |   |   |   |   |   |   |   |   |   |   |   |   |   |   |   |   |   |   ID >= 2670.5 : 0.44 (12/0.69) [6/0.48]
|   |   |   |   |   |   |   |   |   |   |   |   |   |   |   |   |   |   |   |   |   |   |   |   |   |   |   |   |   |   |   |   |   |   |   ID >= 2693
|   |   |   |   |   |   |   |   |   |   |   |   |   |   |   |   |   |   |   |   |   |   |   |   |   |   |   |   |   |   |   |   |   |   |   |   ID < 2709 : -1 (5/0) [5/0]
|   |   |   |   |   |   |   |   |   |   |   |   |   |   |   |   |   |   |   |   |   |   |   |   |   |   |   |   |   |   |   |   |   |   |   |   ID >= 2709 : -0.15 (36/0.82) [18/0.85]
|   |   |   |   |   |   |   |   |   |   |   |   |   |   |   |   |   |   |   |   |   |   |   |   |   |   |   |   |   |   |   |   |   |   ID >= 2823 : 0.5 (9/0.47) [1/0.31]
|   |   |   |   |   |   |   |   |   |   |   |   |   |   |   |   |   |   |   |   |   |   |   |   |   |   |   |   |   |   |   |   |   ID >= 2838.5 : -1 (9/0) [2/0]
|   |   |   |   |   |   |   |   |   |   |   |   |   |   |   |   |   |   |   |   |   |   |   |   |   |   |   |   |   |   |   |   ID >= 2855.5 : -0.1 (19/0.73) [12/0.85]
|   |   |   |   |   |   |   |   |   |   |   |   |   |   |   |   |   |   |   TRUNCATED >= 0.5 : 0.25 (18/0.67) [2/0.94]
|   |   |   |   |   |   |   |   |   |   |   ID >= 2916
|   |   |   |   |   |   |   |   |   |   |   |   ID < 2953.5 : -0.82 (26/0.13) [12/0.36]
|   |   |   |   |   |   |   |   |   |   |   |   ID >= 2953.5 : -0.17 (4/0.69) [2/1.06]
|   |   |   |   |   |   |   |   |   |   ID >= 2960
|   |   |   |   |   |   |   |   |   |   |   ID < 2985 : 0.36 (20/0.54) [5/1]
|   |   |   |   |   |   |   |   |   |   |   ID >= 2985
|   |   |   |   |   |   |   |   |   |   |   |   ID < 3001.5 : -0.88 (10/0.09) [7/0.12]
|   |   |   |   |   |   |   |   |   |   |   |   ID >= 3001.5
|   |   |   |   |   |   |   |   |   |   |   |   |   ID < 3032.5 : 0.23 (20/0.64) [11/1.05]
|   |   |   |   |   |   |   |   |   |   |   |   |   ID >= 3032.5
|   |   |   |   |   |   |   |   |   |   |   |   |   |   ID < 3050.5 : -0.89 (10/0.16) [8/0.04]
|   |   |   |   |   |   |   |   |   |   |   |   |   |   ID >= 3050.5
|   |   |   |   |   |   |   |   |   |   |   |   |   |   |   retweeted_status < 0.5 : 0.45 (8/0.48) [3/1.06]
|   |   |   |   |   |   |   |   |   |   |   |   |   |   |   retweeted_status >= 0.5
|   |   |   |   |   |   |   |   |   |   |   |   |   |   |   |   ID < 3076
|   |   |   |   |   |   |   |   |   |   |   |   |   |   |   |   |   ID < 3054.5 : 0.67 (3/0.22) [0/0]
|   |   |   |   |   |   |   |   |   |   |   |   |   |   |   |   |   ID >= 3054.5
|   |   |   |   |   |   |   |   |   |   |   |   |   |   |   |   |   |   ID < 3067 : -0.83 (4/0.19) [2/0.06]
|   |   |   |   |   |   |   |   |   |   |   |   |   |   |   |   |   |   ID >= 3067 : 0.33 (4/0.5) [2/1]
|   |   |   |   |   |   |   |   |   |   |   |   |   |   |   |   ID >= 3076 : 0.75 (2/0) [2/0.5]
|   |   |   |   |   |   |   |   |   ID >= 3080.5
|   |   |   |   |   |   |   |   |   |   ID < 3290.5 : -0.63 (134/0.47) [76/0.46]
|   |   |   |   |   |   |   |   |   |   ID >= 3290.5
|   |   |   |   |   |   |   |   |   |   |   ID < 3840
|   |   |   |   |   |   |   |   |   |   |   |   ID < 3566.5
|   |   |   |   |   |   |   |   |   |   |   |   |   ID < 3444.5
|   |   |   |   |   |   |   |   |   |   |   |   |   |   ID < 3421.5 : -0.29 (76/0.75) [55/0.69]
|   |   |   |   |   |   |   |   |   |   |   |   |   |   ID >= 3421.5
|   |   |   |   |   |   |   |   |   |   |   |   |   |   |   ID < 3438.5 : -0.94 (13/0.07) [4/0.01]
|   |   |   |   |   |   |   |   |   |   |   |   |   |   |   ID >= 3438.5 : -0.17 (3/0.22) [3/1.89]
|   |   |   |   |   |   |   |   |   |   |   |   |   ID >= 3444.5
|   |   |   |   |   |   |   |   |   |   |   |   |   |   ID < 3551.5
|   |   |   |   |   |   |   |   |   |   |   |   |   |   |   ID < 3518
|   |   |   |   |   |   |   |   |   |   |   |   |   |   |   |   ID < 3502.5
|   |   |   |   |   |   |   |   |   |   |   |   |   |   |   |   |   ID < 3468.5
|   |   |   |   |   |   |   |   |   |   |   |   |   |   |   |   |   |   ID < 3464.5
|   |   |   |   |   |   |   |   |   |   |   |   |   |   |   |   |   |   |   ID < 3462.5 : 0.39 (12/0.72) [6/0.28]
|   |   |   |   |   |   |   |   |   |   |   |   |   |   |   |   |   |   |   ID >= 3462.5 : -1 (2/0) [0/0]
|   |   |   |   |   |   |   |   |   |   |   |   |   |   |   |   |   |   ID >= 3464.5 : 1 (3/0) [1/0]
|   |   |   |   |   |   |   |   |   |   |   |   |   |   |   |   |   ID >= 3468.5 : -0.47 (22/0.74) [12/0.45]
|   |   |   |   |   |   |   |   |   |   |   |   |   |   |   |   ID >= 3502.5 : 0.53 (11/0.15) [4/1.83]
|   |   |   |   |   |   |   |   |   |   |   |   |   |   |   ID >= 3518
|   |   |   |   |   |   |   |   |   |   |   |   |   |   |   |   ID < 3535.5 : -0.89 (10/0) [8/0.25]
|   |   |   |   |   |   |   |   |   |   |   |   |   |   |   |   ID >= 3535.5
|   |   |   |   |   |   |   |   |   |   |   |   |   |   |   |   |   possibly_sensitive < 0.5 : 0.6 (3/0.22) [2/0.28]
|   |   |   |   |   |   |   |   |   |   |   |   |   |   |   |   |   possibly_sensitive >= 0.5
|   |   |   |   |   |   |   |   |   |   |   |   |   |   |   |   |   |   ID < 3542 : -1 (2/0) [1/0]
|   |   |   |   |   |   |   |   |   |   |   |   |   |   |   |   |   |   ID >= 3542
|   |   |   |   |   |   |   |   |   |   |   |   |   |   |   |   |   |   |   ID < 3549.5 : 0.33 (3/0.89) [3/0.22]
|   |   |   |   |   |   |   |   |   |   |   |   |   |   |   |   |   |   |   ID >= 3549.5 : -1 (2/0) [0/0]
|   |   |   |   |   |   |   |   |   |   |   |   |   |   ID >= 3551.5 : 0.53 (12/0.58) [3/0.25]
|   |   |   |   |   |   |   |   |   |   |   |   ID >= 3566.5
|   |   |   |   |   |   |   |   |   |   |   |   |   ID < 3745
|   |   |   |   |   |   |   |   |   |   |   |   |   |   ID < 3667
|   |   |   |   |   |   |   |   |   |   |   |   |   |   |   ID < 3586
|   |   |   |   |   |   |   |   |   |   |   |   |   |   |   |   possibly_sensitive < 0.5
|   |   |   |   |   |   |   |   |   |   |   |   |   |   |   |   |   ID < 3576 : -1 (3/0) [0/0]
|   |   |   |   |   |   |   |   |   |   |   |   |   |   |   |   |   ID >= 3576 : -0.6 (3/0.22) [2/0.28]
|   |   |   |   |   |   |   |   |   |   |   |   |   |   |   |   possibly_sensitive >= 0.5 : -0.91 (8/0) [3/0.33]
|   |   |   |   |   |   |   |   |   |   |   |   |   |   |   ID >= 3586
|   |   |   |   |   |   |   |   |   |   |   |   |   |   |   |   ID < 3616.5 : 0.26 (20/0.63) [11/0.89]
|   |   |   |   |   |   |   |   |   |   |   |   |   |   |   |   ID >= 3616.5
|   |   |   |   |   |   |   |   |   |   |   |   |   |   |   |   |   ID < 3633.5 : -0.94 (14/0.07) [3/0.01]
|   |   |   |   |   |   |   |   |   |   |   |   |   |   |   |   |   ID >= 3633.5 : 0.21 (16/0.75) [17/0.76]
|   |   |   |   |   |   |   |   |   |   |   |   |   |   ID >= 3667
|   |   |   |   |   |   |   |   |   |   |   |   |   |   |   ID < 3682.5 : -0.94 (10/0) [6/0.17]
|   |   |   |   |   |   |   |   |   |   |   |   |   |   |   ID >= 3682.5 : -0.63 (34/0.46) [28/0.45]
|   |   |   |   |   |   |   |   |   |   |   |   |   ID >= 3745
|   |   |   |   |   |   |   |   |   |   |   |   |   |   ID < 3776 : 0.27 (22/0.65) [8/0.94]
|   |   |   |   |   |   |   |   |   |   |   |   |   |   ID >= 3776
|   |   |   |   |   |   |   |   |   |   |   |   |   |   |   ID < 3793.5 : -0.89 (12/0) [6/0.33]
|   |   |   |   |   |   |   |   |   |   |   |   |   |   |   ID >= 3793.5
|   |   |   |   |   |   |   |   |   |   |   |   |   |   |   |   ID < 3826.5 : 0.27 (18/0.62) [15/0.77]
|   |   |   |   |   |   |   |   |   |   |   |   |   |   |   |   ID >= 3826.5
|   |   |   |   |   |   |   |   |   |   |   |   |   |   |   |   |   ID < 3837.5 : -0.91 (7/0.12) [4/0.02]
|   |   |   |   |   |   |   |   |   |   |   |   |   |   |   |   |   ID >= 3837.5 : 0.5 (2/0.25) [0/0]
|   |   |   |   |   |   |   |   |   |   |   ID >= 3840 : -0.74 (16/0.06) [7/1.2]
|   |   |   |   |   |   |   |   ID >= 3862.5
|   |   |   |   |   |   |   |   |   ID < 4192.5
|   |   |   |   |   |   |   |   |   |   ID < 4163.5
|   |   |   |   |   |   |   |   |   |   |   ID < 4143
|   |   |   |   |   |   |   |   |   |   |   |   ID < 3885 : 0.32 (15/0.65) [7/0.79]
|   |   |   |   |   |   |   |   |   |   |   |   ID >= 3885
|   |   |   |   |   |   |   |   |   |   |   |   |   ID < 3905.5
|   |   |   |   |   |   |   |   |   |   |   |   |   |   ID < 3889 : 0.5 (2/0) [2/1]
|   |   |   |   |   |   |   |   |   |   |   |   |   |   ID >= 3889 : -0.94 (11/0.08) [6/0.01]
|   |   |   |   |   |   |   |   |   |   |   |   |   ID >= 3905.5
|   |   |   |   |   |   |   |   |   |   |   |   |   |   ID < 3942
|   |   |   |   |   |   |   |   |   |   |   |   |   |   |   ID < 3936.5 : 0.19 (23/0.71) [8/0.82]
|   |   |   |   |   |   |   |   |   |   |   |   |   |   |   ID >= 3936.5 : 0.8 (5/0.16) [0/0]
|   |   |   |   |   |   |   |   |   |   |   |   |   |   ID >= 3942
|   |   |   |   |   |   |   |   |   |   |   |   |   |   |   ID < 3960
|   |   |   |   |   |   |   |   |   |   |   |   |   |   |   |   possibly_sensitive < 0.5 : -0.8 (5/0.16) [5/0.16]
|   |   |   |   |   |   |   |   |   |   |   |   |   |   |   |   possibly_sensitive >= 0.5 : -1 (6/0) [2/0]
|   |   |   |   |   |   |   |   |   |   |   |   |   |   |   ID >= 3960
|   |   |   |   |   |   |   |   |   |   |   |   |   |   |   |   ID < 4124
|   |   |   |   |   |   |   |   |   |   |   |   |   |   |   |   |   ID < 3991 : 0.26 (21/0.7) [10/0.74]
|   |   |   |   |   |   |   |   |   |   |   |   |   |   |   |   |   ID >= 3991
|   |   |   |   |   |   |   |   |   |   |   |   |   |   |   |   |   |   ID < 4008.5 : -0.89 (10/0) [8/0.25]
|   |   |   |   |   |   |   |   |   |   |   |   |   |   |   |   |   |   ID >= 4008.5 : -0.13 (82/0.81) [33/0.75]
|   |   |   |   |   |   |   |   |   |   |   |   |   |   |   |   ID >= 4124 : 0.47 (16/0.62) [3/0.27]
|   |   |   |   |   |   |   |   |   |   |   ID >= 4143
|   |   |   |   |   |   |   |   |   |   |   |   ID < 4160 : -0.88 (9/0.1) [8/0.11]
|   |   |   |   |   |   |   |   |   |   |   |   ID >= 4160 : -0.25 (2/0.25) [2/1.25]
|   |   |   |   |   |   |   |   |   |   ID >= 4163.5 : 0.28 (21/0.63) [8/0.92]
|   |   |   |   |   |   |   |   |   ID >= 4192.5
|   |   |   |   |   |   |   |   |   |   ID < 4209.5 : -0.94 (15/0.06) [2/0]
|   |   |   |   |   |   |   |   |   |   ID >= 4209.5
|   |   |   |   |   |   |   |   |   |   |   ID < 4510.5
|   |   |   |   |   |   |   |   |   |   |   |   ID < 4335
|   |   |   |   |   |   |   |   |   |   |   |   |   ID < 4313.5
|   |   |   |   |   |   |   |   |   |   |   |   |   |   ID < 4290
|   |   |   |   |   |   |   |   |   |   |   |   |   |   |   ID < 4264.5
|   |   |   |   |   |   |   |   |   |   |   |   |   |   |   |   ID < 4240.5 : 0.26 (16/0.86) [15/0.58]
|   |   |   |   |   |   |   |   |   |   |   |   |   |   |   |   ID >= 4240.5 : -0.71 (18/0.44) [6/0.17]
|   |   |   |   |   |   |   |   |   |   |   |   |   |   |   ID >= 4264.5 : 0.36 (15/0.51) [10/0.82]
|   |   |   |   |   |   |   |   |   |   |   |   |   |   ID >= 4290
|   |   |   |   |   |   |   |   |   |   |   |   |   |   |   ID < 4306.5 : -0.88 (7/0) [10/0.2]
|   |   |   |   |   |   |   |   |   |   |   |   |   |   |   ID >= 4306.5 : -0.29 (3/0.89) [4/0.69]
|   |   |   |   |   |   |   |   |   |   |   |   |   ID >= 4313.5
|   |   |   |   |   |   |   |   |   |   |   |   |   |   possibly_sensitive < 0.5
|   |   |   |   |   |   |   |   |   |   |   |   |   |   |   ID < 4324.5 : 0.17 (4/0.69) [2/1.06]
|   |   |   |   |   |   |   |   |   |   |   |   |   |   |   ID >= 4324.5 : 1 (3/0) [1/0]
|   |   |   |   |   |   |   |   |   |   |   |   |   |   possibly_sensitive >= 0.5 : 0.09 (9/0.54) [2/1.01]
|   |   |   |   |   |   |   |   |   |   |   |   ID >= 4335
|   |   |   |   |   |   |   |   |   |   |   |   |   ID < 4407
|   |   |   |   |   |   |   |   |   |   |   |   |   |   ID < 4368.5
|   |   |   |   |   |   |   |   |   |   |   |   |   |   |   ID < 4352.5 : -0.89 (12/0.08) [6/0.15]
|   |   |   |   |   |   |   |   |   |   |   |   |   |   |   ID >= 4352.5
|   |   |   |   |   |   |   |   |   |   |   |   |   |   |   |   retweeted_status < 0.5 : 0.67 (6/0.22) [0/0]
|   |   |   |   |   |   |   |   |   |   |   |   |   |   |   |   retweeted_status >= 0.5 : -0.1 (5/0.56) [5/0.84]
|   |   |   |   |   |   |   |   |   |   |   |   |   |   ID >= 4368.5
|   |   |   |   |   |   |   |   |   |   |   |   |   |   |   ID < 4385.5 : -0.94 (13/0) [4/0.25]
|   |   |   |   |   |   |   |   |   |   |   |   |   |   |   ID >= 4385.5 : -0.71 (11/0.15) [10/0.49]
|   |   |   |   |   |   |   |   |   |   |   |   |   ID >= 4407
|   |   |   |   |   |   |   |   |   |   |   |   |   |   ID < 4437 : 0.27 (20/0.73) [10/0.75]
|   |   |   |   |   |   |   |   |   |   |   |   |   |   ID >= 4437
|   |   |   |   |   |   |   |   |   |   |   |   |   |   |   ID < 4454.5 : -0.89 (12/0) [6/0.33]
|   |   |   |   |   |   |   |   |   |   |   |   |   |   |   ID >= 4454.5
|   |   |   |   |   |   |   |   |   |   |   |   |   |   |   |   ID < 4485.5 : 0.26 (18/0.76) [13/0.64]
|   |   |   |   |   |   |   |   |   |   |   |   |   |   |   |   ID >= 4485.5
|   |   |   |   |   |   |   |   |   |   |   |   |   |   |   |   |   ID < 4502.5 : -0.94 (12/0.08) [5/0.01]
|   |   |   |   |   |   |   |   |   |   |   |   |   |   |   |   |   ID >= 4502.5 : 0 (7/0.69) [1/1.31]
|   |   |   |   |   |   |   |   |   |   |   ID >= 4510.5 : 0.32 (19/0.64) [3/0.89]
|   |   |   |   |   |   |   ID >= 4532.5
|   |   |   |   |   |   |   |   ID < 4742.5
|   |   |   |   |   |   |   |   |   ID < 4549.5
|   |   |   |   |   |   |   |   |   |   possibly_sensitive < 0.5 : -0.8 (5/0.16) [0/0]
|   |   |   |   |   |   |   |   |   |   possibly_sensitive >= 0.5 : -1 (10/0) [2/0]
|   |   |   |   |   |   |   |   |   ID >= 4549.5 : -0.61 (135/0.51) [58/0.48]
|   |   |   |   |   |   |   |   ID >= 4742.5
|   |   |   |   |   |   |   |   |   ID < 5286.5
|   |   |   |   |   |   |   |   |   |   ID < 5264
|   |   |   |   |   |   |   |   |   |   |   ID < 5124.5
|   |   |   |   |   |   |   |   |   |   |   |   ID < 5108.5
|   |   |   |   |   |   |   |   |   |   |   |   |   ID < 5076
|   |   |   |   |   |   |   |   |   |   |   |   |   |   ID < 5049.5
|   |   |   |   |   |   |   |   |   |   |   |   |   |   |   ID < 5026.5
|   |   |   |   |   |   |   |   |   |   |   |   |   |   |   |   ID < 4995
|   |   |   |   |   |   |   |   |   |   |   |   |   |   |   |   |   ID < 4977
|   |   |   |   |   |   |   |   |   |   |   |   |   |   |   |   |   |   ID < 4944.5
|   |   |   |   |   |   |   |   |   |   |   |   |   |   |   |   |   |   |   ID < 4921.5
|   |   |   |   |   |   |   |   |   |   |   |   |   |   |   |   |   |   |   |   ID < 4892.5
|   |   |   |   |   |   |   |   |   |   |   |   |   |   |   |   |   |   |   |   |   ID < 4764.5 : 0 (14/0.69) [8/0.84]
|   |   |   |   |   |   |   |   |   |   |   |   |   |   |   |   |   |   |   |   |   ID >= 4764.5
|   |   |   |   |   |   |   |   |   |   |   |   |   |   |   |   |   |   |   |   |   |   ID < 4781 : -0.94 (11/0.08) [5/0.01]
|   |   |   |   |   |   |   |   |   |   |   |   |   |   |   |   |   |   |   |   |   |   ID >= 4781
|   |   |   |   |   |   |   |   |   |   |   |   |   |   |   |   |   |   |   |   |   |   |   ID < 4872.5
|   |   |   |   |   |   |   |   |   |   |   |   |   |   |   |   |   |   |   |   |   |   |   |   ID < 4865.5
|   |   |   |   |   |   |   |   |   |   |   |   |   |   |   |   |   |   |   |   |   |   |   |   |   ID < 4797.5 : 0 (10/0.56) [7/1.01]
|   |   |   |   |   |   |   |   |   |   |   |   |   |   |   |   |   |   |   |   |   |   |   |   |   ID >= 4797.5
|   |   |   |   |   |   |   |   |   |   |   |   |   |   |   |   |   |   |   |   |   |   |   |   |   |   ID < 4813.5 : -0.94 (9/0) [7/0.14]
|   |   |   |   |   |   |   |   |   |   |   |   |   |   |   |   |   |   |   |   |   |   |   |   |   |   ID >= 4813.5
|   |   |   |   |   |   |   |   |   |   |   |   |   |   |   |   |   |   |   |   |   |   |   |   |   |   |   ID < 4835.5 : 0.23 (13/0.64) [9/0.84]
|   |   |   |   |   |   |   |   |   |   |   |   |   |   |   |   |   |   |   |   |   |   |   |   |   |   |   ID >= 4835.5 : -0.53 (20/0.65) [10/0.27]
|   |   |   |   |   |   |   |   |   |   |   |   |   |   |   |   |   |   |   |   |   |   |   |   ID >= 4865.5 : 0.43 (3/0) [4/2]
|   |   |   |   |   |   |   |   |   |   |   |   |   |   |   |   |   |   |   |   |   |   |   ID >= 4872.5 : -0.75 (10/0.16) [10/0.42]
|   |   |   |   |   |   |   |   |   |   |   |   |   |   |   |   |   |   |   |   ID >= 4892.5
|   |   |   |   |   |   |   |   |   |   |   |   |   |   |   |   |   |   |   |   |   TRUNCATED < 0.5
|   |   |   |   |   |   |   |   |   |   |   |   |   |   |   |   |   |   |   |   |   |   retweeted_status < 0.5 : 1 (5/0) [0/0]
|   |   |   |   |   |   |   |   |   |   |   |   |   |   |   |   |   |   |   |   |   |   retweeted_status >= 0.5
|   |   |   |   |   |   |   |   |   |   |   |   |   |   |   |   |   |   |   |   |   |   |   ID < 4904.5
|   |   |   |   |   |   |   |   |   |   |   |   |   |   |   |   |   |   |   |   |   |   |   |   ID < 4902.5 : -0.29 (3/0.22) [4/1.36]
|   |   |   |   |   |   |   |   |   |   |   |   |   |   |   |   |   |   |   |   |   |   |   |   ID >= 4902.5 : 1 (2/0) [0/0]
|   |   |   |   |   |   |   |   |   |   |   |   |   |   |   |   |   |   |   |   |   |   |   ID >= 4904.5
|   |   |   |   |   |   |   |   |   |   |   |   |   |   |   |   |   |   |   |   |   |   |   |   ID < 4907 : -1 (2/0) [0/0]
|   |   |   |   |   |   |   |   |   |   |   |   |   |   |   |   |   |   |   |   |   |   |   |   ID >= 4907 : 0.55 (8/0.5) [3/0.25]
|   |   |   |   |   |   |   |   |   |   |   |   |   |   |   |   |   |   |   |   |   TRUNCATED >= 0.5 : -1 (2/0) [0/0]
|   |   |   |   |   |   |   |   |   |   |   |   |   |   |   |   |   |   |   ID >= 4921.5
|   |   |   |   |   |   |   |   |   |   |   |   |   |   |   |   |   |   |   |   possibly_sensitive < 0.5 : -1 (12/0) [0/0]
|   |   |   |   |   |   |   |   |   |   |   |   |   |   |   |   |   |   |   |   possibly_sensitive >= 0.5
|   |   |   |   |   |   |   |   |   |   |   |   |   |   |   |   |   |   |   |   |   ID < 4930.5 : -1 (3/0) [4/0]
|   |   |   |   |   |   |   |   |   |   |   |   |   |   |   |   |   |   |   |   |   ID >= 4930.5 : 0.5 (3/0.22) [1/0.44]
|   |   |   |   |   |   |   |   |   |   |   |   |   |   |   |   |   |   ID >= 4944.5
|   |   |   |   |   |   |   |   |   |   |   |   |   |   |   |   |   |   |   ID < 4962.5 : 0.39 (13/0.56) [5/0.69]
|   |   |   |   |   |   |   |   |   |   |   |   |   |   |   |   |   |   |   ID >= 4962.5
|   |   |   |   |   |   |   |   |   |   |   |   |   |   |   |   |   |   |   |   ID < 4964.5 : -1 (2/0) [0/0]
|   |   |   |   |   |   |   |   |   |   |   |   |   |   |   |   |   |   |   |   ID >= 4964.5
|   |   |   |   |   |   |   |   |   |   |   |   |   |   |   |   |   |   |   |   |   ID < 4969.5 : 0.8 (3/0.22) [2/0.11]
|   |   |   |   |   |   |   |   |   |   |   |   |   |   |   |   |   |   |   |   |   ID >= 4969.5
|   |   |   |   |   |   |   |   |   |   |   |   |   |   |   |   |   |   |   |   |   |   ID < 4972 : -1 (2/0) [0/0]
|   |   |   |   |   |   |   |   |   |   |   |   |   |   |   |   |   |   |   |   |   |   ID >= 4972 : 0.8 (3/0.22) [2/0.11]
|   |   |   |   |   |   |   |   |   |   |   |   |   |   |   |   |   ID >= 4977 : -0.89 (11/0) [7/0.29]
|   |   |   |   |   |   |   |   |   |   |   |   |   |   |   |   ID >= 4995 : 0.25 (21/0.73) [11/0.63]
|   |   |   |   |   |   |   |   |   |   |   |   |   |   |   ID >= 5026.5
|   |   |   |   |   |   |   |   |   |   |   |   |   |   |   |   ID < 5043.5 : -0.94 (10/0.09) [7/0.01]
|   |   |   |   |   |   |   |   |   |   |   |   |   |   |   |   ID >= 5043.5 : -0.17 (4/0.69) [2/1.06]
|   |   |   |   |   |   |   |   |   |   |   |   |   |   ID >= 5049.5 : 0.35 (21/0.53) [5/0.98]
|   |   |   |   |   |   |   |   |   |   |   |   |   ID >= 5076
|   |   |   |   |   |   |   |   |   |   |   |   |   |   ID < 5098.5
|   |   |   |   |   |   |   |   |   |   |   |   |   |   |   possibly_sensitive < 0.5
|   |   |   |   |   |   |   |   |   |   |   |   |   |   |   |   ID < 5084.5 : -1 (2/0) [3/0]
|   |   |   |   |   |   |   |   |   |   |   |   |   |   |   |   ID >= 5084.5 : -0.33 (3/0.22) [3/1.11]
|   |   |   |   |   |   |   |   |   |   |   |   |   |   |   possibly_sensitive >= 0.5 : -0.83 (9/0) [3/1.33]
|   |   |   |   |   |   |   |   |   |   |   |   |   |   ID >= 5098.5 : 0.1 (7/0.69) [3/0.88]
|   |   |   |   |   |   |   |   |   |   |   |   ID >= 5108.5 : 0.5 (11/0.43) [5/0.66]
|   |   |   |   |   |   |   |   |   |   |   ID >= 5124.5
|   |   |   |   |   |   |   |   |   |   |   |   ID < 5202.5
|   |   |   |   |   |   |   |   |   |   |   |   |   ID < 5142
|   |   |   |   |   |   |   |   |   |   |   |   |   |   retweeted_status < 0.5 : -0.8 (5/0.16) [0/0]
|   |   |   |   |   |   |   |   |   |   |   |   |   |   retweeted_status >= 0.5 : -1 (9/0) [3/0]
|   |   |   |   |   |   |   |   |   |   |   |   |   ID >= 5142 : -0.64 (40/0.43) [21/0.52]
|   |   |   |   |   |   |   |   |   |   |   |   ID >= 5202.5
|   |   |   |   |   |   |   |   |   |   |   |   |   ID < 5235.5
|   |   |   |   |   |   |   |   |   |   |   |   |   |   ID < 5218.5 : 0 (8/0.75) [8/0.75]
|   |   |   |   |   |   |   |   |   |   |   |   |   |   ID >= 5218.5
|   |   |   |   |   |   |   |   |   |   |   |   |   |   |   ID < 5224.5 : 0.83 (6/0.14) [0/0]
|   |   |   |   |   |   |   |   |   |   |   |   |   |   |   ID >= 5224.5 : 0.3 (5/0.24) [5/1]
|   |   |   |   |   |   |   |   |   |   |   |   |   ID >= 5235.5
|   |   |   |   |   |   |   |   |   |   |   |   |   |   ID < 5254 : -0.89 (9/0.1) [9/0.1]
|   |   |   |   |   |   |   |   |   |   |   |   |   |   ID >= 5254 : 0 (4/0.69) [6/0.98]
|   |   |   |   |   |   |   |   |   |   ID >= 5264 : 0.35 (14/0.67) [9/0.66]
|   |   |   |   |   |   |   |   |   ID >= 5286.5
|   |   |   |   |   |   |   |   |   |   ID < 5315.5
|   |   |   |   |   |   |   |   |   |   |   ID < 5298.5
|   |   |   |   |   |   |   |   |   |   |   |   ID < 5296.5
|   |   |   |   |   |   |   |   |   |   |   |   |   ID < 5294.5 : -1 (5/0) [3/0]
|   |   |   |   |   |   |   |   |   |   |   |   |   ID >= 5294.5 : -0.5 (2/0.25) [0/0]
|   |   |   |   |   |   |   |   |   |   |   |   ID >= 5296.5 : 0.5 (2/0.25) [0/0]
|   |   |   |   |   |   |   |   |   |   |   ID >= 5298.5 : -0.94 (15/0.06) [2/0]
|   |   |   |   |   |   |   |   |   |   ID >= 5315.5 : -0.17 (4/0.69) [2/1.06]
|   |   |   |   |   |   ID >= 5321.5
|   |   |   |   |   |   |   ID < 5346.5 : 0.36 (19/0.57) [6/0.89]
|   |   |   |   |   |   |   ID >= 5346.5
|   |   |   |   |   |   |   |   ID < 5365 : -0.89 (15/0.12) [3/0.02]
|   |   |   |   |   |   |   |   ID >= 5365
|   |   |   |   |   |   |   |   |   ID < 5401 : 0.28 (21/0.71) [15/0.71]
|   |   |   |   |   |   |   |   |   ID >= 5401
|   |   |   |   |   |   |   |   |   |   ID < 5418 : -0.88 (11/0.08) [6/0.14]
|   |   |   |   |   |   |   |   |   |   ID >= 5418
|   |   |   |   |   |   |   |   |   |   |   ID < 5790.5
|   |   |   |   |   |   |   |   |   |   |   |   ID < 5782.5
|   |   |   |   |   |   |   |   |   |   |   |   |   ID < 5449.5 : 0.22 (13/0.4) [19/1.06]
|   |   |   |   |   |   |   |   |   |   |   |   |   ID >= 5449.5
|   |   |   |   |   |   |   |   |   |   |   |   |   |   ID < 5467.5 : -0.89 (17/0.1) [1/0.01]
|   |   |   |   |   |   |   |   |   |   |   |   |   |   ID >= 5467.5
|   |   |   |   |   |   |   |   |   |   |   |   |   |   |   ID < 5499 : 0.26 (20/0.63) [11/0.88]
|   |   |   |   |   |   |   |   |   |   |   |   |   |   |   ID >= 5499
|   |   |   |   |   |   |   |   |   |   |   |   |   |   |   |   ID < 5516.5 : -0.89 (15/0.06) [3/0.29]
|   |   |   |   |   |   |   |   |   |   |   |   |   |   |   |   ID >= 5516.5
|   |   |   |   |   |   |   |   |   |   |   |   |   |   |   |   |   ID < 5547.5 : 0.26 (22/0.52) [9/1.3]
|   |   |   |   |   |   |   |   |   |   |   |   |   |   |   |   |   ID >= 5547.5
|   |   |   |   |   |   |   |   |   |   |   |   |   |   |   |   |   |   ID < 5565.5 : -0.89 (15/0.12) [3/0.02]
|   |   |   |   |   |   |   |   |   |   |   |   |   |   |   |   |   |   ID >= 5565.5
|   |   |   |   |   |   |   |   |   |   |   |   |   |   |   |   |   |   |   ID < 5750
|   |   |   |   |   |   |   |   |   |   |   |   |   |   |   |   |   |   |   |   ID < 5723.5
|   |   |   |   |   |   |   |   |   |   |   |   |   |   |   |   |   |   |   |   |   ID < 5701
|   |   |   |   |   |   |   |   |   |   |   |   |   |   |   |   |   |   |   |   |   |   ID < 5684.5
|   |   |   |   |   |   |   |   |   |   |   |   |   |   |   |   |   |   |   |   |   |   |   ID < 5601.5 : 0.28 (22/0.72) [14/0.68]
|   |   |   |   |   |   |   |   |   |   |   |   |   |   |   |   |   |   |   |   |   |   |   ID >= 5601.5
|   |   |   |   |   |   |   |   |   |   |   |   |   |   |   |   |   |   |   |   |   |   |   |   ID < 5625.5 : -0.71 (13/0.18) [11/0.61]
|   |   |   |   |   |   |   |   |   |   |   |   |   |   |   |   |   |   |   |   |   |   |   |   ID >= 5625.5
|   |   |   |   |   |   |   |   |   |   |   |   |   |   |   |   |   |   |   |   |   |   |   |   |   ID < 5650.5 : 0.36 (16/0.62) [9/0.66]
|   |   |   |   |   |   |   |   |   |   |   |   |   |   |   |   |   |   |   |   |   |   |   |   |   ID >= 5650.5
|   |   |   |   |   |   |   |   |   |   |   |   |   |   |   |   |   |   |   |   |   |   |   |   |   |   ID < 5668
|   |   |   |   |   |   |   |   |   |   |   |   |   |   |   |   |   |   |   |   |   |   |   |   |   |   |   possibly_sensitive < 0.5 : -1 (4.57/0) [5/0]
|   |   |   |   |   |   |   |   |   |   |   |   |   |   |   |   |   |   |   |   |   |   |   |   |   |   |   possibly_sensitive >= 0.5 : -0.73 (3.43/0.21) [4/0.19]
|   |   |   |   |   |   |   |   |   |   |   |   |   |   |   |   |   |   |   |   |   |   |   |   |   |   ID >= 5668 : -0.06 (12/0.83) [5/0.6]
|   |   |   |   |   |   |   |   |   |   |   |   |   |   |   |   |   |   |   |   |   |   ID >= 5684.5
|   |   |   |   |   |   |   |   |   |   |   |   |   |   |   |   |   |   |   |   |   |   |   ID < 5692.5 : 0.75 (8/0.19) [0/0]
|   |   |   |   |   |   |   |   |   |   |   |   |   |   |   |   |   |   |   |   |   |   |   ID >= 5692.5
|   |   |   |   |   |   |   |   |   |   |   |   |   |   |   |   |   |   |   |   |   |   |   |   ID < 5694.5 : -1 (2/0) [0/0]
|   |   |   |   |   |   |   |   |   |   |   |   |   |   |   |   |   |   |   |   |   |   |   |   ID >= 5694.5 : 0.67 (5/0.24) [1/0.16]
|   |   |   |   |   |   |   |   |   |   |   |   |   |   |   |   |   |   |   |   |   ID >= 5701
|   |   |   |   |   |   |   |   |   |   |   |   |   |   |   |   |   |   |   |   |   |   ID < 5718.5 : -0.89 (6/0.14) [12/0.08]
|   |   |   |   |   |   |   |   |   |   |   |   |   |   |   |   |   |   |   |   |   |   ID >= 5718.5 : -0.2 (3/0.89) [2/1.11]
|   |   |   |   |   |   |   |   |   |   |   |   |   |   |   |   |   |   |   |   ID >= 5723.5 : 0.35 (17/0.36) [9/1.25]
|   |   |   |   |   |   |   |   |   |   |   |   |   |   |   |   |   |   |   ID >= 5750 : -0.48 (14/0.54) [19/0.67]
|   |   |   |   |   |   |   |   |   |   |   |   ID >= 5782.5 : 0.75 (6/0.14) [2/0.36]
|   |   |   |   |   |   |   |   |   |   |   ID >= 5790.5
|   |   |   |   |   |   |   |   |   |   |   |   ID < 5867.5
|   |   |   |   |   |   |   |   |   |   |   |   |   ID < 5811.5 : -0.81 (21/0.25) [0/0]
|   |   |   |   |   |   |   |   |   |   |   |   |   ID >= 5811.5
|   |   |   |   |   |   |   |   |   |   |   |   |   |   ID < 5827.5 : 0.19 (12/0.64) [4/0.69]
|   |   |   |   |   |   |   |   |   |   |   |   |   |   ID >= 5827.5 : -0.78 (22/0.27) [18/0.28]
|   |   |   |   |   |   |   |   |   |   |   |   ID >= 5867.5 : -0.15 (71/0.83) [35/0.7]
|   ID >= 5973.5 : 0.41 (10/0.41) [7/1.35]
ID >= 5991 : -0.57 (187/0.55) [91/0.46]

Size of the tree : 689

Time taken to build model: 0.1 seconds

=== Predictions on training set ===

    inst#     actual  predicted      error
        1      1         -0.789     -1.789 
        2      0         -0.789     -0.789 
        3     -1         -0.789      0.211 
        4     -1         -0.789      0.211 
        5     -1         -0.789      0.211 
        6     -1         -0.789      0.211 
        7     -1         -0.789      0.211 
        8     -1         -0.789      0.211 
        9     -1         -0.789      0.211 
       10     -1         -0.789      0.211 
       11     -1         -0.789      0.211 
       12      0         -0.789     -0.789 
       13     -1         -0.789      0.211 
       14     -1         -0.789      0.211 
       15     -1         -0.789      0.211 
       16     -1         -0.789      0.211 
       17     -1         -0.789      0.211 
       18     -1         -0.789      0.211 
       19     -1         -0.789      0.211 
       20      0         -0.455     -0.455 
       21      1          0.9       -0.1   
       22     -1         -0.455      0.545 
       23      1          0.9       -0.1   
       24     -1         -0.455      0.545 
       25     -1         -0.455      0.545 
       26      1          0.9       -0.1   
       27      0          0.9        0.9   
       28      1         -0.455     -1.455 
       29      0         -0.455     -0.455 
       30     -1         -0.455      0.545 
       31      0         -0.455     -0.455 
       32      1          0.9       -0.1   
       33      1          0.9       -0.1   
       34     -1         -0.455      0.545 
       35     -1         -0.455      0.545 
       36      1          0.9       -0.1   
       37      1          0.9       -0.1   
       38      0         -0.455     -0.455 
       39      1          1          0     
       40      1          0.9       -0.1   
       41      1          0.9       -0.1   
       42      0         -0.25      -0.25  
       43      1         -0.25      -1.25  
       44     -1         -0.25       0.75  
       45     -1         -0.25       0.75  
       46      1          0.667     -0.333 
       47      1          1          0     
       48      1          0.667     -0.333 
       49      0          0.667      0.667 
       50      1          1          0     
       51      0         -0.889     -0.889 
       52     -1         -0.889      0.111 
       53     -1         -0.889      0.111 
       54     -1         -0.889      0.111 
       55     -1         -0.889      0.111 
       56     -1         -0.889      0.111 
       57     -1         -0.889      0.111 
       58     -1         -0.889      0.111 
       59     -1         -0.889      0.111 
       60     -1         -0.889      0.111 
       61      0         -0.889     -0.889 
       62     -1         -0.889      0.111 
       63     -1         -0.889      0.111 
       64     -1         -0.889      0.111 
       65     -1         -0.889      0.111 
       66     -1         -0.889      0.111 
       67     -1         -0.889      0.111 
       68     -1         -0.889      0.111 
       69      0          0.258      0.258 
       70      1          0.258     -0.742 
       71     -1          0.258      1.258 
       72      1          0.258     -0.742 
       73     -1          0.258      1.258 
       74     -1          0.258      1.258 
       75      1          0.258     -0.742 
       76      0          0.258      0.258 
       77      1          0.258     -0.742 
       78      0          0.258      0.258 
       79     -1          0.258      1.258 
       80      0          0.258      0.258 
       81      1          0.258     -0.742 
       82      1          0.258     -0.742 
       83     -1          0.258      1.258 
       84     -1          0.258      1.258 
       85      1          0.258     -0.742 
       86      1          0.258     -0.742 
       87      0          0.258      0.258 
       88      1          0.258     -0.742 
       89      1          0.258     -0.742 
       90      1          0.258     -0.742 
       91      0          0.258      0.258 
       92      1          0.258     -0.742 
       93     -1          0.258      1.258 
       94     -1          0.258      1.258 
       95      1          0.258     -0.742 
       96      1          0.258     -0.742 
       97      1          0.258     -0.742 
       98      0          0.258      0.258 
       99      1          0.258     -0.742 
      100      0         -0.889     -0.889 
      101     -1         -0.889      0.111 
      102     -1         -0.889      0.111 
      103     -1         -0.889      0.111 
      104     -1         -0.889      0.111 
      105     -1         -0.889      0.111 
      106     -1         -0.889      0.111 
      107     -1         -0.889      0.111 
      108     -1         -0.889      0.111 
      109     -1         -0.889      0.111 
      110      0         -0.889     -0.889 
      111     -1         -0.889      0.111 
      112     -1         -0.889      0.111 
      113     -1         -0.889      0.111 
      114     -1         -0.889      0.111 
      115     -1         -0.889      0.111 
      116     -1         -0.889      0.111 
      117     -1         -0.889      0.111 
      118      0          0.233      0.233 
      119      1          0.233     -0.767 
      120     -1          0.233      1.233 
      121      1          0.233     -0.767 
      122     -1          0.233      1.233 
      123     -1          0.233      1.233 
      124      1          0.233     -0.767 
      125      0          0.233      0.233 
      126      1          0.233     -0.767 
      127      0          0.233      0.233 
      128     -1          0.233      1.233 
      129      0          0.233      0.233 
      130      1          0.233     -0.767 
      131      1          0.233     -0.767 
      132     -1          0.233      1.233 
      133     -1          0.233      1.233 
      134      1          0.233     -0.767 
      135      1          0.233     -0.767 
      136      0          0.233      0.233 
      137      1          0.233     -0.767 
      138      1          0.233     -0.767 
      139      1          0.233     -0.767 
      140      0          0.233      0.233 
      141      1          0.233     -0.767 
      142     -1          0.233      1.233 
      143     -1          0.233      1.233 
      144      1          0.233     -0.767 
      145      1          0.233     -0.767 
      146      1          0.233     -0.767 
      147      0          0.233      0.233 
      148          ?      0.233          ? 
      149          ?      0.233          ? 
      150          ?     -0.789          ? 
      151          ?     -0.789          ? 
      152      1         -0.789     -1.789 
      153      0         -0.789     -0.789 
      154     -1         -0.789      0.211 
      155     -1         -0.789      0.211 
      156     -1         -0.789      0.211 
      157     -1         -0.789      0.211 
      158     -1         -0.789      0.211 
      159     -1         -0.789      0.211 
      160     -1         -0.789      0.211 
      161     -1         -0.789      0.211 
      162     -1         -0.789      0.211 
      163      0         -0.789     -0.789 
      164     -1         -0.789      0.211 
      165     -1         -0.789      0.211 
      166     -1         -0.789      0.211 
      167     -1         -0.789      0.211 
      168     -1         -0.789      0.211 
      169     -1         -0.789      0.211 
      170     -1         -0.789      0.211 
      171      0          0.258      0.258 
      172      1          0.258     -0.742 
      173     -1          0.258      1.258 
      174      1          0.258     -0.742 
      175     -1          0.258      1.258 
      176     -1          0.258      1.258 
      177      1          0.258     -0.742 
      178      0          0.258      0.258 
      179      1          0.258     -0.742 
      180      0          0.258      0.258 
      181     -1          0.258      1.258 
      182      0          0.258      0.258 
      183      1          0.258     -0.742 
      184      1          0.258     -0.742 
      185     -1          0.258      1.258 
      186     -1          0.258      1.258 
      187      1          0.258     -0.742 
      188      1          0.258     -0.742 
      189      0          0.258      0.258 
      190      1          0.258     -0.742 
      191      1          0.258     -0.742 
      192      1          0.258     -0.742 
      193      0          0.258      0.258 
      194      1          0.258     -0.742 
      195     -1          0.258      1.258 
      196     -1          0.258      1.258 
      197      1          0.258     -0.742 
      198      1          0.258     -0.742 
      199      1          0.258     -0.742 
      200      0          0.258      0.258 
      201      1          0.258     -0.742 
      202      0         -0.889     -0.889 
      203     -1         -0.889      0.111 
      204     -1         -0.889      0.111 
      205     -1         -0.889      0.111 
      206     -1         -0.889      0.111 
      207     -1         -0.889      0.111 
      208     -1         -0.889      0.111 
      209     -1         -0.889      0.111 
      210     -1         -0.889      0.111 
      211     -1         -0.889      0.111 
      212      0         -0.889     -0.889 
      213     -1         -0.889      0.111 
      214     -1         -0.889      0.111 
      215     -1         -0.889      0.111 
      216     -1         -0.889      0.111 
      217     -1         -0.889      0.111 
      218     -1         -0.889      0.111 
      219     -1         -0.889      0.111 
      220      0              ?          ? 
      221      1              ?          ? 
      222     -1              ?          ? 
      223      1              ?          ? 
      224     -1              ?          ? 
      225     -1              ?          ? 
      226      1              ?          ? 
      227      0              ?          ? 
      228      1              ?          ? 
      229      0              ?          ? 
      230     -1              ?          ? 
      231      0              ?          ? 
      232      1              ?          ? 
      233      1              ?          ? 
      234     -1              ?          ? 
      235     -1              ?          ? 
      236      1          0.75      -0.25  
      237      1          0.75      -0.25  
      238      0          0.75       0.75  
      239      1          0.75      -0.25  
      240      1          0.75      -0.25  
      241      1          0.75      -0.25  
      242      0          0.75       0.75  
      243      1          0.75      -0.25  
      244     -1              ?          ? 
      245     -1              ?          ? 
      246      1              ?          ? 
      247      1              ?          ? 
      248      1              ?          ? 
      249      0              ?          ? 
      250      1              ?          ? 
      251      0              ?          ? 
      252     -1              ?          ? 
      253     -1              ?          ? 
      254     -1         -0.714      0.286 
      255     -1         -0.714      0.286 
      256     -1         -0.714      0.286 
      257     -1         -0.714      0.286 
      258     -1         -0.714      0.286 
      259     -1         -0.714      0.286 
      260     -1         -0.714      0.286 
      261      0         -0.714     -0.714 
      262     -1         -0.714      0.286 
      263     -1         -0.714      0.286 
      264     -1         -0.714      0.286 
      265     -1         -0.714      0.286 
      266     -1         -0.714      0.286 
      267     -1         -0.714      0.286 
      268     -1         -0.714      0.286 
      269      0         -0.714     -0.714 
      270      1         -0.714     -1.714 
      271     -1         -0.714      0.286 
      272      1         -0.714     -1.714 
      273     -1         -0.714      0.286 
      274     -1         -0.714      0.286 
      275      1          0.667     -0.333 
      276      0          0.667      0.667 
      277      1              ?          ? 
      278      0         -0.333     -0.333 
      279     -1         -0.333      0.667 
      280      0              ?          ? 
      281      1         -0.333     -1.333 
      282      1          0.667     -0.333 
      283     -1         -0.333      0.667 
      284     -1              ?          ? 
      285      1          0.667     -0.333 
      286      1          0.667     -0.333 
      287      0          0.667      0.667 
      288      1          1          0     
      289      1          1          0     
      290      1          1          0     
      291      0         -0.333     -0.333 
      292      1          1          0     
      293     -1         -0.333      0.667 
      294     -1              ?          ? 
      295      1              ?          ? 
      296      1          1          0     
      297      1          1          0     
      298      0              ?          ? 
      299      1          1          0     
      300      0         -0.708     -0.708 
      301     -1         -0.708      0.292 
      302     -1         -0.708      0.292 
      303     -1         -0.708      0.292 
      304     -1         -0.708      0.292 
      305     -1         -0.708      0.292 
      306     -1         -0.708      0.292 
      307     -1         -0.708      0.292 
      308     -1         -0.708      0.292 
      309     -1         -0.708      0.292 
      310      0         -0.708     -0.708 
      311     -1         -0.708      0.292 
      312     -1         -0.708      0.292 
      313     -1         -0.708      0.292 
      314     -1         -0.708      0.292 
      315     -1         -0.708      0.292 
      316     -1         -0.708      0.292 
      317     -1         -0.708      0.292 
      318      0         -0.708     -0.708 
      319      1         -0.708     -1.708 
      320     -1         -0.708      0.292 
      321      1         -0.708     -1.708 
      322     -1         -0.708      0.292 
      323     -1         -0.708      0.292 
      324      1          0.6       -0.4   
      325      0          0.375      0.375 
      326      1          0.375     -0.625 
      327      0          0.6        0.6   
      328     -1          0.375      1.375 
      329      0          0.6        0.6   
      330      1          0.6       -0.4   
      331      1          0.6       -0.4   
      332     -1         -0.295      0.705 
      333     -1         -0.295      0.705 
      334      1         -0.295     -1.295 
      335      1          0.375     -0.625 
      336      0         -0.295     -0.295 
      337      1          0.375     -0.625 
      338      1          0.375     -0.625 
      339      1          0.375     -0.625 
      340      0          0.375      0.375 
      341      1          0.375     -0.625 
      342     -1          0.375      1.375 
      343     -1          0.375      1.375 
      344      1         -0.295     -1.295 
      345      1          0.375     -0.625 
      346      1          0.375     -0.625 
      347      0          0.375      0.375 
      348      1          0.375     -0.625 
      349      0          0.375      0.375 
      350     -1         -1          0     
      351     -1         -0.295      0.705 
      352     -1         -1          0     
      353     -1         -0.295      0.705 
      354     -1         -1          0     
      355     -1         -1          0     
      356     -1         -1          0     
      357     -1         -1          0     
      358     -1         -0.295      0.705 
      359      0         -0.295     -0.295 
      360     -1         -0.295      0.705 
      361     -1         -1          0     
      362     -1         -0.295      0.705 
      363     -1         -1          0     
      364     -1         -1          0     
      365     -1         -0.295      0.705 
      366     -1         -0.295      0.705 
      367      0              ?          ? 
      368      1              ?          ? 
      369     -1              ?          ? 
      370      1          0.125     -0.875 
      371     -1          0.125      1.125 
      372     -1          0.125      1.125 
      373      1          0.125     -0.875 
      374      0          0.125      0.125 
      375      1          0.125     -0.875 
      376      0          0.125      0.125 
      377     -1          0.125      1.125 
      378      0          0.125      0.125 
      379      1          0.125     -0.875 
      380      1          0.125     -0.875 
      381     -1          0.125      1.125 
      382     -1          0.125      1.125 
      383      1          0.125     -0.875 
      384      1          0.125     -0.875 
      385      0          0.125      0.125 
      386      1          0.75      -0.25  
      387      1          0.75      -0.25  
      388      1          0.75      -0.25  
      389      0         -0.295     -0.295 
      390      1          0.75      -0.25  
      391     -1         -0.295      0.705 
      392     -1          0.75       1.75  
      393      1          0.75      -0.25  
      394      1          0.75      -0.25  
      395      1          0.75      -0.25  
      396      0         -0.295     -0.295 
      397      1         -0.833     -1.833 
      398      0         -0.295     -0.295 
      399     -1         -0.833      0.167 
      400     -1         -0.295      0.705 
      401     -1         -0.833      0.167 
      402     -1         -0.833      0.167 
      403     -1         -0.295      0.705 
      404     -1         -0.295      0.705 
      405     -1         -0.295      0.705 
      406     -1         -0.833      0.167 
      407     -1         -0.833      0.167 
      408      0         -0.295     -0.295 
      409     -1         -0.833      0.167 
      410     -1         -0.833      0.167 
      411     -1         -0.833      0.167 
      412     -1         -0.833      0.167 
      413     -1         -0.833      0.167 
      414     -1         -0.833      0.167 
      415     -1         -0.295      0.705 
      416      0         -0.295     -0.295 
      417      1         -0.295     -1.295 
      418     -1          0.5        1.5   
      419      1          0.5       -0.5   
      420     -1         -0.295      0.705 
      421     -1         -0.295      0.705 
      422      1         -0.295     -1.295 
      423      0         -0.295     -0.295 
      424      1          0.5       -0.5   
      425      0         -0.295     -0.295 
      426     -1         -0.295      0.705 
      427      0         -0.295     -0.295 
      428      1         -0.295     -1.295 
      429      1          0.5       -0.5   
      430     -1          0.455      1.455 
      431     -1         -0.295      0.705 
      432      1          0.455     -0.545 
      433      1         -0.295     -1.295 
      434      0         -0.295     -0.295 
      435      1         -0.295     -1.295 
      436      1          0.455     -0.545 
      437      1          0.455     -0.545 
      438      0          0.455      0.455 
      439      1          0.455     -0.545 
      440     -1         -0.295      0.705 
      441     -1         -0.295      0.705 
      442      1         -0.295     -1.295 
      443      1          0.455     -0.545 
      444      1          0.455     -0.545 
      445      0          0.455      0.455 
      446      1          0.455     -0.545 
      447      0         -0.295     -0.295 
      448     -1          0.455      1.455 
      449     -1         -0.295      0.705 
      450     -1         -0.295      0.705 
      451     -1         -0.735      0.265 
      452     -1         -0.295      0.705 
      453     -1         -0.295      0.705 
      454     -1         -1          0     
      455     -1         -1          0     
      456     -1         -1          0     
      457      0         -0.295     -0.295 
      458     -1         -1          0     
      459     -1         -1          0     
      460     -1         -0.295      0.705 
      461     -1         -1          0     
      462     -1         -0.295      0.705 
      463     -1         -0.295      0.705 
      464     -1         -0.295      0.705 
      465      0         -0.295     -0.295 
      466      1         -0.295     -1.295 
      467     -1         -0.295      0.705 
      468      1          0.125     -0.875 
      469     -1         -0.295      0.705 
      470     -1          0.125      1.125 
      471      1          0.125     -0.875 
      472      0          0.125      0.125 
      473      1          0.125     -0.875 
      474      0          0.125      0.125 
      475     -1          0.125      1.125 
      476      0          0.125      0.125 
      477      1          0.8       -0.2   
      478      1          0.8       -0.2   
      479     -1         -0.295      0.705 
      480     -1         -0.295      0.705 
      481      1          0.8       -0.2   
      482      1         -0.295     -1.295 
      483      0          0.8        0.8   
      484      1         -0.295     -1.295 
      485      1         -0.295     -1.295 
      486      1         -0.295     -1.295 
      487      0         -0.295     -0.295 
      488      1         -0.295     -1.295 
      489     -1         -0.295      0.705 
      490     -1         -0.295      0.705 
      491      1         -0.295     -1.295 
      492      1          0.8       -0.2   
      493      1         -0.295     -1.295 
      494      0         -0.295     -0.295 
      495      1         -0.295     -1.295 
      496      0         -0.875     -0.875 
      497     -1         -0.295      0.705 
      498     -1         -0.875      0.125 
      499     -1         -0.295      0.705 
      500     -1         -0.295      0.705 
      501     -1         -0.875      0.125 
      502     -1         -0.875      0.125 
      503     -1         -0.295      0.705 
      504     -1         -0.295      0.705 
      505     -1         -0.295      0.705 
      506      0         -0.295     -0.295 
      507     -1         -0.875      0.125 
      508     -1         -0.875      0.125 
      509     -1         -0.295      0.705 
      510     -1         -0.295      0.705 
      511     -1         -0.875      0.125 
      512     -1         -0.875      0.125 
      513     -1         -0.295      0.705 
      514      0         -0.295     -0.295 
      515      1         -0.039     -1.039 
      516     -1         -0.039      0.961 
      517      1         -0.039     -1.039 
      518     -1         -0.039      0.961 
      519     -1         -0.039      0.961 
      520      1         -0.039     -1.039 
      521      0         -0.039     -0.039 
      522      1         -0.295     -1.295 
      523      0         -0.039     -0.039 
      524     -1         -0.039      0.961 
      525      0         -0.295     -0.295 
      526      1         -0.295     -1.295 
      527      1         -0.039     -1.039 
      528     -1         -0.039      0.961 
      529     -1         -0.039      0.961 
      530      1         -0.295     -1.295 
      531      1         -0.039     -1.039 
      532      0         -0.295     -0.295 
      533      1         -0.039     -1.039 
      534      1         -0.039     -1.039 
      535      1         -0.295     -1.295 
      536      0         -0.039     -0.039 
      537      1         -0.039     -1.039 
      538     -1         -0.039      0.961 
      539     -1         -0.039      0.961 
      540      1         -0.039     -1.039 
      541      1         -0.295     -1.295 
      542      1         -0.039     -1.039 
      543      0         -0.039     -0.039 
      544      1         -0.039     -1.039 
      545      0         -0.039     -0.039 
      546     -1         -0.295      0.705 
      547     -1         -0.295      0.705 
      548     -1         -0.039      0.961 
      549     -1         -0.295      0.705 
      550     -1         -0.295      0.705 
      551     -1         -0.295      0.705 
      552     -1         -0.039      0.961 
      553     -1         -0.039      0.961 
      554     -1         -0.039      0.961 
      555      0         -0.039     -0.039 
      556     -1         -0.039      0.961 
      557     -1         -0.039      0.961 
      558     -1         -0.295      0.705 
      559     -1         -0.295      0.705 
      560     -1         -0.039      0.961 
      561     -1         -0.295      0.705 
      562     -1         -0.039      0.961 
      563      0         -0.039     -0.039 
      564      1         -0.295     -1.295 
      565     -1         -0.039      0.961 
      566      1         -0.039     -1.039 
      567     -1         -0.295      0.705 
      568     -1         -0.039      0.961 
      569      1         -0.039     -1.039 
      570      0         -0.295     -0.295 
      571      1         -0.039     -1.039 
      572      0         -0.039     -0.039 
      573     -1         -0.039      0.961 
      574      0         -0.295     -0.295 
      575      1         -0.039     -1.039 
      576      1         -0.039     -1.039 
      577     -1         -0.039      0.961 
      578     -1         -0.039      0.961 
      579      1         -0.039     -1.039 
      580      1         -0.039     -1.039 
      581      0         -0.295     -0.295 
      582      1         -0.295     -1.295 
      583      1         -0.039     -1.039 
      584      1         -0.295     -1.295 
      585      0         -0.039     -0.039 
      586      1         -0.039     -1.039 
      587     -1         -0.039      0.961 
      588     -1         -0.295      0.705 
      589      1          0.75      -0.25  
      590      1          0.75      -0.25  
      591      1          0.75      -0.25  
      592      0          0.75       0.75  
      593      1         -0.295     -1.295 
      594      0         -0.295     -0.295 
      595     -1         -0.295      0.705 
      596     -1         -0.295      0.705 
      597     -1         -0.295      0.705 
      598     -1         -0.295      0.705 
      599     -1         -0.295      0.705 
      600     -1         -0.769      0.231 
      601     -1         -0.769      0.231 
      602     -1         -0.295      0.705 
      603     -1         -0.769      0.231 
      604      0         -0.295     -0.295 
      605     -1         -0.295      0.705 
      606     -1         -0.295      0.705 
      607     -1         -0.769      0.231 
      608     -1         -0.769      0.231 
      609     -1         -0.769      0.231 
      610     -1         -0.769      0.231 
      611     -1         -0.295      0.705 
      612      0         -0.295     -0.295 
      613      1         -0.295     -1.295 
      614     -1         -0.769      0.231 
      615      1         -0.769     -1.769 
      616     -1         -0.769      0.231 
      617     -1         -0.769      0.231 
      618      1         -0.295     -1.295 
      619      0         -0.769     -0.769 
      620      1         -0.295     -1.295 
      621      0         -0.295     -0.295 
      622     -1         -0.769      0.231 
      623      0         -0.295     -0.295 
      624      1         -0.295     -1.295 
      625      1          0.3       -0.7   
      626     -1          0.3        1.3   
      627     -1          0.3        1.3   
      628      1         -0.295     -1.295 
      629      1          0.3       -0.7   
      630      0          0.3        0.3   
      631      1         -0.295     -1.295 
      632      1          0.3       -0.7   
      633      1         -0.295     -1.295 
      634      0         -0.295     -0.295 
      635      1         -0.295     -1.295 
      636     -1         -0.295      0.705 
      637     -1         -0.295      0.705 
      638      1         -0.295     -1.295 
      639      1          0.3       -0.7   
      640      1         -0.295     -1.295 
      641      0          0.3        0.3   
      642      1          0.3       -0.7   
      643      0          0.3        0.3   
      644     -1         -0.875      0.125 
      645     -1         -0.875      0.125 
      646     -1         -0.875      0.125 
      647     -1         -0.875      0.125 
      648     -1         -0.295      0.705 
      649     -1         -0.875      0.125 
      650     -1         -0.875      0.125 
      651     -1         -0.875      0.125 
      652     -1         -0.875      0.125 
      653      0         -0.875     -0.875 
      654     -1         -0.875      0.125 
      655     -1         -0.295      0.705 
      656     -1         -0.875      0.125 
      657     -1         -0.295      0.705 
      658     -1         -0.875      0.125 
      659     -1         -0.875      0.125 
      660     -1         -0.875      0.125 
      661      0         -0.875     -0.875 
      662      1         -0.295     -1.295 
      663     -1         -0.295      0.705 
      664      1         -0.295     -1.295 
      665     -1         -0.875      0.125 
      666     -1         -0.295      0.705 
      667      1          0.333     -0.667 
      668      0          0.333      0.333 
      669      1         -0.295     -1.295 
      670      0         -0.295     -0.295 
      671     -1          0.333      1.333 
      672      0          0.333      0.333 
      673      1          0.333     -0.667 
      674      1          0.333     -0.667 
      675     -1          0.333      1.333 
      676     -1          0.333      1.333 
      677      1          0.333     -0.667 
      678      1          0.333     -0.667 
      679      0          0.333      0.333 
      680      1          0.333     -0.667 
      681      1          0.333     -0.667 
      682      1          0.333     -0.667 
      683      0          0.333      0.333 
      684      1          0.333     -0.667 
      685     -1          0.333      1.333 
      686     -1          0.333      1.333 
      687      1          0.333     -0.667 
      688      1          0.333     -0.667 
      689      1          0.333     -0.667 
      690      0          0.333      0.333 
      691      1          0.333     -0.667 
      692      0          0.333      0.333 
      693     -1         -0.295      0.705 
      694     -1         -1          0     
      695     -1         -0.295      0.705 
      696     -1         -1          0     
      697     -1         -1          0     
      698     -1         -1          0     
      699     -1         -1          0     
      700     -1         -0.295      0.705 
      701     -1         -1          0     
      702      0         -0.295     -0.295 
      703     -1         -1          0     
      704     -1         -0.295      0.705 
      705     -1         -1          0     
      706     -1         -1          0     
      707     -1         -0.295      0.705 
      708     -1         -0.295      0.705 
